FANN_FLO_2.1
num_layers=3
learning_rate=0.747391
connection_rate=1.000000
network_type=0
learning_momentum=0.000000
training_algorithm=2
train_error_function=1
train_stop_function=0
cascade_output_change_fraction=0.010000
quickprop_decay=-0.000129
quickprop_mu=1.802559
rprop_increase_factor=0.943426
rprop_decrease_factor=0.489202
rprop_delta_min=0.000000
rprop_delta_max=50.000000
rprop_delta_zero=0.100000
cascade_output_stagnation_epochs=12
cascade_candidate_change_fraction=0.010604
cascade_candidate_stagnation_epochs=12
cascade_max_out_epochs=150
cascade_min_out_epochs=50
cascade_max_cand_epochs=150
cascade_min_cand_epochs=50
cascade_num_candidate_groups=2
bit_fail_limit=3.49999999999999977796e-01
cascade_candidate_limit=9.88486138804240908939e+02
cascade_weight_multiplier=3.57315569201106353336e-01
cascade_activation_functions_count=10
cascade_activation_functions=3 5 7 8 10 11 14 15 16 17 
cascade_activation_steepnesses_count=4
cascade_activation_steepnesses=2.50000000000000000000e-01 5.00000000000000000000e-01 7.50000000000000000000e-01 1.00000000000000000000e+00 
layer_sizes=61 62 5 
scale_included=0
neurons (num_inputs, activation_function, activation_steepness)=(0, 0, 0.00000000000000000000e+00) (0, 0, 0.00000000000000000000e+00) (0, 0, 0.00000000000000000000e+00) (0, 0, 0.00000000000000000000e+00) (0, 0, 0.00000000000000000000e+00) (0, 0, 0.00000000000000000000e+00) (0, 0, 0.00000000000000000000e+00) (0, 0, 0.00000000000000000000e+00) (0, 0, 0.00000000000000000000e+00) (0, 0, 0.00000000000000000000e+00) (0, 0, 0.00000000000000000000e+00) (0, 0, 0.00000000000000000000e+00) (0, 0, 0.00000000000000000000e+00) (0, 0, 0.00000000000000000000e+00) (0, 0, 0.00000000000000000000e+00) (0, 0, 0.00000000000000000000e+00) (0, 0, 0.00000000000000000000e+00) (0, 0, 0.00000000000000000000e+00) (0, 0, 0.00000000000000000000e+00) (0, 0, 0.00000000000000000000e+00) (0, 0, 0.00000000000000000000e+00) (0, 0, 0.00000000000000000000e+00) (0, 0, 0.00000000000000000000e+00) (0, 0, 0.00000000000000000000e+00) (0, 0, 0.00000000000000000000e+00) (0, 0, 0.00000000000000000000e+00) (0, 0, 0.00000000000000000000e+00) (0, 0, 0.00000000000000000000e+00) (0, 0, 0.00000000000000000000e+00) (0, 0, 0.00000000000000000000e+00) (0, 0, 0.00000000000000000000e+00) (0, 0, 0.00000000000000000000e+00) (0, 0, 0.00000000000000000000e+00) (0, 0, 0.00000000000000000000e+00) (0, 0, 0.00000000000000000000e+00) (0, 0, 0.00000000000000000000e+00) (0, 0, 0.00000000000000000000e+00) (0, 0, 0.00000000000000000000e+00) (0, 0, 0.00000000000000000000e+00) (0, 0, 0.00000000000000000000e+00) (0, 0, 0.00000000000000000000e+00) (0, 0, 0.00000000000000000000e+00) (0, 0, 0.00000000000000000000e+00) (0, 0, 0.00000000000000000000e+00) (0, 0, 0.00000000000000000000e+00) (0, 0, 0.00000000000000000000e+00) (0, 0, 0.00000000000000000000e+00) (0, 0, 0.00000000000000000000e+00) (0, 0, 0.00000000000000000000e+00) (0, 0, 0.00000000000000000000e+00) (0, 0, 0.00000000000000000000e+00) (0, 0, 0.00000000000000000000e+00) (0, 0, 0.00000000000000000000e+00) (0, 0, 0.00000000000000000000e+00) (0, 0, 0.00000000000000000000e+00) (0, 0, 0.00000000000000000000e+00) (0, 0, 0.00000000000000000000e+00) (0, 0, 0.00000000000000000000e+00) (0, 0, 0.00000000000000000000e+00) (0, 0, 0.00000000000000000000e+00) (0, 0, 0.00000000000000000000e+00) (61, 5, 5.00000000000000000000e-01) (61, 5, 5.00000000000000000000e-01) (61, 5, 5.00000000000000000000e-01) (61, 5, 5.00000000000000000000e-01) (61, 5, 5.00000000000000000000e-01) (61, 5, 5.00000000000000000000e-01) (61, 5, 5.00000000000000000000e-01) (61, 5, 5.00000000000000000000e-01) (61, 5, 5.00000000000000000000e-01) (61, 5, 5.00000000000000000000e-01) (61, 5, 5.00000000000000000000e-01) (61, 5, 5.00000000000000000000e-01) (61, 5, 5.00000000000000000000e-01) (61, 5, 5.00000000000000000000e-01) (61, 5, 5.00000000000000000000e-01) (61, 5, 5.00000000000000000000e-01) (61, 5, 5.00000000000000000000e-01) (61, 5, 5.00000000000000000000e-01) (61, 5, 5.00000000000000000000e-01) (61, 5, 5.00000000000000000000e-01) (61, 5, 5.00000000000000000000e-01) (61, 5, 5.00000000000000000000e-01) (61, 5, 5.00000000000000000000e-01) (61, 5, 5.00000000000000000000e-01) (61, 5, 5.00000000000000000000e-01) (61, 5, 5.00000000000000000000e-01) (61, 5, 5.00000000000000000000e-01) (61, 5, 5.00000000000000000000e-01) (61, 5, 5.00000000000000000000e-01) (61, 5, 5.00000000000000000000e-01) (61, 5, 5.00000000000000000000e-01) (61, 5, 5.00000000000000000000e-01) (61, 5, 5.00000000000000000000e-01) (61, 5, 5.00000000000000000000e-01) (61, 5, 5.00000000000000000000e-01) (61, 5, 5.00000000000000000000e-01) (61, 5, 5.00000000000000000000e-01) (61, 5, 5.00000000000000000000e-01) (61, 5, 5.00000000000000000000e-01) (61, 5, 5.00000000000000000000e-01) (61, 5, 5.00000000000000000000e-01) (61, 5, 5.00000000000000000000e-01) (61, 5, 5.00000000000000000000e-01) (61, 5, 5.00000000000000000000e-01) (61, 5, 5.00000000000000000000e-01) (61, 5, 5.00000000000000000000e-01) (61, 5, 5.00000000000000000000e-01) (61, 5, 5.00000000000000000000e-01) (61, 5, 5.00000000000000000000e-01) (61, 5, 5.00000000000000000000e-01) (61, 5, 5.00000000000000000000e-01) (61, 5, 5.00000000000000000000e-01) (61, 5, 5.00000000000000000000e-01) (61, 5, 5.00000000000000000000e-01) (61, 5, 5.00000000000000000000e-01) (61, 5, 5.00000000000000000000e-01) (61, 5, 5.00000000000000000000e-01) (61, 5, 5.00000000000000000000e-01) (61, 5, 5.00000000000000000000e-01) (61, 5, 5.00000000000000000000e-01) (61, 5, 5.00000000000000000000e-01) (0, 5, 0.00000000000000000000e+00) (62, 5, 5.00000000000000000000e-01) (62, 5, 5.00000000000000000000e-01) (62, 5, 5.00000000000000000000e-01) (62, 5, 5.00000000000000000000e-01) (0, 5, 0.00000000000000000000e+00) 
connections (connected_to_neuron, weight)=(0, -5.84138890193806936679e-01) (1, -3.18021884619780370596e-01) (2, -1.60454222639429322506e-01) (3, -1.40124009629118195797e-01) (4, 3.49951298215318395979e-01) (5, 1.44726346601666278069e+00) (6, -4.87918934844579932353e-01) (7, -5.20918980864066849534e-02) (8, -5.32475468859344047701e-01) (9, -5.91264126880652884921e-01) (10, -2.35115679402380928220e-02) (11, -8.02446552594480055909e-01) (12, -8.37357983966645735840e-01) (13, -7.22339982367367072769e-01) (14, -5.44449066208707144199e-01) (15, -4.55232611483698479393e-01) (16, 7.58036305380433317325e-01) (17, -2.53273431844353358322e-01) (18, -4.72902463149851848279e-01) (19, -1.77804772053322812653e+00) (20, -3.25217483663880035927e-01) (21, -1.91849184886020707186e-02) (22, -2.24060603713485906319e-01) (23, -6.07849709205437793713e-01) (24, -7.91458049989551826187e-01) (25, 1.49691937106858197204e+00) (26, -1.75458511061534705444e-01) (27, -3.20063443687021220718e-01) (28, -7.14261107870813316545e-02) (29, -8.08886745687483754708e-01) (30, -4.74040669161121752673e-01) (31, -4.76874401807871883818e-01) (32, -1.82292136419973394013e+00) (33, -1.51835219396239229361e+00) (34, -1.45520185389128453579e+00) (35, -3.99619180555057684767e-01) (36, 2.32283035481131494571e-01) (37, -7.26145597050011359919e-01) (38, -7.34318519471727881864e-01) (39, -8.28995119564774340937e-02) (40, 3.35959253828569337497e-01) (41, 9.73399953347279245364e-02) (42, 1.02585871549736640240e-01) (43, -1.46256738980638734127e-01) (44, -3.88021331798148960690e-01) (45, -5.77137507953746409228e-01) (46, -6.43163407682024512724e-01) (47, -2.26234572747675111160e-01) (48, -4.02566617786474900686e-01) (49, -5.26707189235962713880e-01) (50, -4.67312267148815740914e-01) (51, -6.11032673273512183520e-03) (52, -2.79268508141729543404e-01) (53, -6.87098301462937599560e-01) (54, -7.22548740185112281509e-01) (55, 1.87056057177781331902e+00) (56, 8.05535918084011592910e-01) (57, -3.05863054301797832046e-01) (58, -1.86772769129445181946e-02) (59, -1.19029519850646270385e+00) (60, 9.96932302230837619206e-01) (0, 5.10830474440859827467e-03) (1, 3.51746901370389886132e-01) (2, 5.44021972632021566518e-01) (3, 9.58272216645711827354e-01) (4, 1.96296084545820370693e-01) (5, -1.30215593062590828666e+00) (6, 6.57486755141842627026e-01) (7, 5.65356602899397930884e-01) (8, 4.16367511190011141409e-02) (9, 5.80898853606000242777e-01) (10, 6.30104641884643434935e-02) (11, -2.53212293527036114149e-01) (12, 1.35259675382269461963e-01) (13, -3.28333731277345552968e-01) (14, 1.86234982918184521772e-01) (15, 2.82915731588560426246e-01) (16, 3.07256945462268782343e-01) (17, 5.63706031016180886262e-01) (18, 5.40317000768254174226e-01) (19, 4.18444621823318319009e-01) (20, 3.31921489985128659317e-01) (21, 2.91924725276120233808e-01) (22, -1.48125695112466537751e-03) (23, -6.73759672926169450591e-01) (24, -4.14325799329637423085e-01) (25, 6.26753039105756526439e-01) (26, 6.32221298940424336621e-01) (27, 1.16675405194199055536e-01) (28, -1.22935452093627217707e-01) (29, 1.83338331218221406438e-01) (30, -6.23746178954971086661e-01) (31, -1.48374439531923141278e-01) (32, -1.59871590581285916155e-01) (33, 7.43698999783497072258e-01) (34, 5.30069523682824783606e-01) (35, 9.01639437107080166101e-01) (36, 9.44962580358368775535e-01) (37, 1.97268163476469471362e-02) (38, 1.37108611463202079150e-01) (39, 4.19289160409780703453e-01) (40, 6.67501407817011838119e-01) (41, 3.32679531526454130841e-01) (42, 4.91032613176780374786e-01) (43, 9.17413947907918636560e-01) (44, -1.81757511698741658357e-01) (45, -2.99805668473154485199e-01) (46, 5.31533260772917293124e-02) (47, -6.64115145460347111595e-01) (48, 2.94915010849195913245e-01) (49, 7.94352260772990259596e-03) (50, 3.36092727334638852188e-01) (51, 3.98018899363167810712e-01) (52, -7.67701114905190856730e-02) (53, -6.53571371124487932036e-01) (54, -5.09628045840619936513e-01) (55, 1.04106782365706740379e+00) (56, -2.14058010420838451537e+00) (57, 3.09494271773457785280e-02) (58, 2.35587930137945988918e-02) (59, 6.67977496877265597419e-02) (60, 1.64200283817712844314e-03) (0, 3.19501550876808204649e-01) (1, 7.51347412553013072056e-01) (2, 1.00110394233589294899e+00) (3, 8.86400362005310249458e-01) (4, 5.51524904111926339567e-01) (5, -1.97363262781376125332e+00) (6, 2.77276646929267456265e-01) (7, 3.56667893746013819900e-01) (8, 5.30515502859570275973e-01) (9, -2.27544107294494257765e-01) (10, 2.56290679642452834397e-01) (11, 2.62113329726209765003e-01) (12, 3.60923029307612108774e-01) (13, 3.75304182236829819708e-01) (14, 7.82365186902504228250e-01) (15, 1.01770507175779156839e+00) (16, -5.87995562783425462783e-01) (17, 3.50072596878338027082e-01) (18, 4.83410085559449753667e-01) (19, 3.40239678592768379772e-01) (20, 6.58906650209783895100e-01) (21, 7.55227018655323600882e-01) (22, 2.56888569110697406739e-01) (23, 1.16245680085648950275e-01) (24, 3.07747730672182751022e-01) (25, 1.14857563281415919754e+00) (26, 7.99780600074541325739e-01) (27, -2.19418980022285242670e-02) (28, 4.07263030736575770696e-01) (29, 3.70148827020720494474e-01) (30, -5.70186165564314118015e-01) (31, 1.36089720951108134051e-01) (32, 3.68977437599710023086e-01) (33, 4.51378633552128039064e-01) (34, 6.78888917270910385859e-01) (35, 9.16247688352051392613e-01) (36, -6.82677336100879772474e-02) (37, 2.42357001845694808306e-01) (38, 4.12028908554800565867e-01) (39, 8.39954142287600236116e-01) (40, -4.17812693134484769431e-01) (41, 4.82606737393147744442e-01) (42, 6.84325527701389435542e-01) (43, 9.68666887579772817318e-01) (44, 2.57354495083063128380e-01) (45, -1.13661319661319037966e-01) (46, 4.06853854822675442549e-01) (47, 3.56178011664048166374e-01) (48, 7.45288019266308054966e-01) (49, 4.34217760348033998685e-01) (50, 7.80828107560037842916e-01) (51, 6.89067740500950431937e-01) (52, 2.09671926160376498327e-01) (53, 5.68205184962919246372e-02) (54, 3.43889786170636535534e-01) (55, -2.46956107673033803396e-02) (56, -5.43243552134689622335e+00) (57, -3.86493564527301214362e-01) (58, -5.99333992877949972566e-01) (59, -3.81416719858270858445e-01) (60, 7.13901690300601798889e-02) (0, -7.57663586810158440343e-01) (1, 1.37715358715215674401e-01) (2, -4.48748070023613498947e-01) (3, -3.24631335718326863304e-01) (4, 3.37517977726394247107e-02) (5, -2.66410789773952361159e+00) (6, 5.50251524409887338152e-01) (7, 2.31177861631452374880e-01) (8, 2.52171392381727033083e-01) (9, -8.21916924248977998069e-01) (10, -9.80374405006955607078e-01) (11, -5.30684217236582767008e-02) (12, 4.46679279636303272483e-01) (13, -7.53563565426401238412e-01) (14, -1.51108468406975060550e-01) (15, 7.03798499514255437859e-02) (16, -2.32026003078326503726e+00) (17, 4.95517085818713454159e-01) (18, 4.75261640971396170929e-01) (19, 4.67941823927825295559e-01) (20, -8.48471672907398888341e-01) (21, -6.76333967797348556417e-01) (22, -8.19418014804910166404e-01) (23, -6.74265883289762557595e-01) (24, -7.54080028564095949939e-01) (25, -1.40002215738958574187e-01) (26, 1.87052190798509043734e-01) (27, 5.53522016434138564023e-01) (28, -7.29038493730012615579e-02) (29, 8.39906761454503936193e-01) (30, -7.94429348628114206932e-01) (31, -7.39722185351727068436e-01) (32, 3.60072202494975956988e-01) (33, 4.98320098547404555234e-01) (34, 2.12577406811702174227e-01) (35, 3.67043965059506760440e-01) (36, -7.74824161889655527169e-01) (37, 1.83973655599343699496e-01) (38, 3.80768448542514903465e-01) (39, 8.03025951449321540032e-02) (40, -6.31714159480954662307e-01) (41, 4.57938378517078192864e-02) (42, 4.09125008117118937889e-01) (43, -6.29178153918624194496e-02) (44, -6.21641333406499296821e-01) (45, -6.73428680007985613898e-01) (46, -2.53719776165160226800e-01) (47, -7.68369303375840639880e-01) (48, 1.57529000621000281335e-01) (49, -8.95538912787960716955e-01) (50, -8.93032932355927178136e-01) (51, -6.17443766645977665242e-01) (52, -8.52061943928788645408e-01) (53, -7.20757878743597091287e-01) (54, -6.11934107952646244577e-01) (55, -1.50880975691884322565e+00) (56, -5.70207618283577044593e+00) (57, 4.20069120405381524197e-01) (58, -1.48923736320701244340e-01) (59, 8.58578634431173437491e-01) (60, 6.09209586686073834016e-01) (0, 1.22520309299570528960e-02) (1, -2.58356381193631412518e-01) (2, -2.99985382691853819104e-01) (3, 1.84525063312924397785e-01) (4, 6.90223947202022736214e-02) (5, -1.42116836467165930102e+00) (6, -2.80196012240457315023e-01) (7, 2.37460679793869255949e-01) (8, 2.96597809902180431507e-01) (9, -1.55571515531602977411e+00) (10, -1.52380198052530391184e-01) (11, -2.23852484901337245304e-01) (12, -1.71486313869146866917e-01) (13, -2.53283801902918437321e-01) (14, -1.01959382837461781657e-01) (15, -7.94560470266675311635e-02) (16, -1.59227093031701461001e+00) (17, -1.04976660717932768208e-01) (18, 3.22831270522712432403e-01) (19, 9.15611677444277294313e-01) (20, 1.74251474651220594758e-01) (21, -2.02411714745063087140e-01) (22, -1.32911159009396206976e-01) (23, -8.43672037123566892491e-02) (24, 7.86820556517286995302e-02) (25, 9.14817788054052005720e-01) (26, -2.40940422108687379854e-01) (27, -3.25861946897354481933e-03) (28, 2.02526456887451189459e-01) (29, -1.18255018182955085049e-01) (30, 1.20413836798901663361e-01) (31, 1.11864912100019031627e+00) (32, 6.92930311852491653823e-01) (33, -8.46601638487406438216e-02) (34, -9.86951950481959605632e-02) (35, -3.44226964107073762911e-01) (36, -1.73143268940290728786e+00) (37, -3.06494520508229173483e-01) (38, -3.84854716711222510916e-01) (39, -1.45114051461874615789e-01) (40, -1.20925025184702872316e+00) (41, 1.46136166728020738814e-02) (42, -2.53714966982308998134e-01) (43, -5.03570007194305113707e-01) (44, 8.39754726523088135259e-02) (45, 3.37394392426929479178e-01) (46, -2.49025839795260051091e-01) (47, -2.60124828149466136296e-01) (48, -3.81360162035458860608e-01) (49, 2.32642870754342923068e-02) (50, 1.43019996794584519639e-01) (51, -4.63844497861138349570e-01) (52, -1.31514584929405820013e-01) (53, -1.22029811142808086721e-02) (54, -5.72140943710164051605e-02) (55, 1.47192634990331916445e-01) (56, -5.73801527154350843318e-01) (57, 3.78848574940696125601e-02) (58, 3.00920612389770580908e-01) (59, 4.61949639706732639866e-01) (60, 1.25745650315989454526e+00) (0, 9.66532443995518075752e-01) (1, 4.82536941658404328059e-01) (2, 1.27896875939962906266e-01) (3, 1.44339845103000907756e-02) (4, -1.64187357640375286572e-01) (5, -4.43747946531598369546e+00) (6, -7.81248040851811653695e-01) (7, -5.55558598328237063235e-01) (8, -4.44786196085979412818e-01) (9, -7.30413638114357999243e-01) (10, -2.44168315880104180859e-03) (11, 3.65905390942036889967e-01) (12, 3.92034491413771890578e-01) (13, 3.43934329116284631667e-01) (14, 1.19026053661932218475e+00) (15, 8.88393384225025783962e-02) (16, -1.48613042718425103494e+00) (17, -1.97809476707446640908e-01) (18, -7.34219728025206075372e-02) (19, -1.00388982116288105750e-01) (20, 6.43106370480801325940e-01) (21, 1.22175258657930552175e-02) (22, -1.47242811814473129051e-01) (23, 4.20814637138917757575e-01) (24, 5.12126538230093908410e-01) (25, 1.14784765227946605748e+00) (26, 1.19231719482482789729e-01) (27, -2.69075867090690201699e-01) (28, -9.85831442020311810026e-02) (29, -1.53411262267400594350e-01) (30, -2.16729643029819341038e-01) (31, -6.51525944572990289849e-01) (32, 1.22713714969556575429e-01) (33, 2.43714528436611177487e-01) (34, 8.02717192269745805078e-01) (35, 6.99686028178361119068e-01) (36, -7.72575439160484433998e-01) (37, 3.92220901215016626296e-01) (38, 4.76858118438660771865e-01) (39, 7.56328389046475035862e-02) (40, -2.01363479956176405494e+00) (41, -2.05617378078541857001e-01) (42, 3.05449637349273994680e-01) (43, 1.94707222801422386027e-02) (44, -1.85758193383305958424e-01) (45, 1.93226229389817649729e-01) (46, 4.97739294433533818740e-01) (47, 5.24456197285592229385e-01) (48, 4.29667150971809852500e-01) (49, 1.08972866749122720975e+00) (50, 6.98610029431129930799e-01) (51, -1.37811112675905400593e-01) (52, -7.84576845621328122782e-02) (53, 2.92334634854867880804e-01) (54, 3.94882263505399011549e-01) (55, 8.40979038938527878599e-01) (56, -3.39420570230499585307e+00) (57, -2.70242151175010270059e-01) (58, -2.89006501520152059292e-01) (59, -1.76285020458277374988e-01) (60, 2.19814615042016603397e-01) (0, -2.38467896878438334607e-01) (1, -3.10435689181725593677e-01) (2, -4.56155792361160050685e-01) (3, -1.53155564356073248256e-01) (4, 9.02422106114744715377e-02) (5, -1.41333477925954831278e+00) (6, -5.46174768877377481147e-01) (7, -5.32634311099694501834e-01) (8, -6.17496934397996133370e-01) (9, -3.36199482092642831788e-01) (10, -6.79397263557025232750e-01) (11, 1.13081168561048328591e-02) (12, 1.56521437707430655095e-01) (13, 1.92363678828202377957e-01) (14, -4.92109567271283993017e-02) (15, -2.29142622417203123408e-01) (16, -2.99723929514047970901e-01) (17, -5.96613305559507756115e-01) (18, -2.50631351208923158769e-01) (19, -7.08441975207062313302e-01) (20, 5.14664753672991803768e-01) (21, -5.78052810641130898617e-01) (22, -7.03389310270854273277e-01) (23, 4.50586055980696786882e-02) (24, 1.95255978050715262029e-01) (25, 1.43979712706547524625e+00) (26, 4.17344906884847821615e-02) (27, -1.68025084527619417152e+00) (28, -1.32811988163852290334e+00) (29, -2.88479333731278042574e-01) (30, -7.56203197866984533349e-01) (31, -1.61197531909260716176e+00) (32, -6.67214973679702838538e-01) (33, -2.73062341160310639854e-01) (34, -3.08580058889598829452e-01) (35, -7.00350886624635515787e-02) (36, -6.23053615361746637724e-02) (37, 1.87969032493765730862e-01) (38, 2.29486949560578246121e-01) (39, -5.64193732353052590511e-01) (40, -1.88712880620524714459e-01) (41, -1.40849973650503690337e+00) (42, -9.42663735192598162271e-02) (43, -1.08221915760812747997e-01) (44, -4.03072104545567189149e-01) (45, -8.22399531218333118554e-02) (46, -4.59662311702905890254e-01) (47, -3.78508842544700685462e-01) (48, -3.52107885420958610645e-01) (49, -3.87639279067235276166e-01) (50, 5.85223651823912671688e-01) (51, -4.94716777714094724239e-01) (52, -6.74678557545253076988e-01) (53, -1.33200982941612533494e-02) (54, 5.99336245808231860011e-02) (55, 1.53084294416553179374e+00) (56, -1.39189669428990292488e+00) (57, -1.68457252847440774879e+00) (58, -2.24555390217601757996e+00) (59, -7.49493349908618489152e-01) (60, 9.51268574631069396830e-01) (0, -9.54637669068945315942e-01) (1, -7.15232750901859670734e-01) (2, -4.09533102383983438344e-01) (3, 4.31930899071917728804e-01) (4, -5.45036148133711262354e-02) (5, -6.23086014345835437211e-01) (6, -3.07197845241472089484e-01) (7, -5.17916348682567972972e-01) (8, -1.04927559215416632554e+00) (9, -8.05590040867119938639e-01) (10, 1.81229931035566838027e-01) (11, -1.28503001574539865715e-01) (12, -1.15633464697861385040e-01) (13, -1.73364722171066576450e-02) (14, -4.47966690261964395336e-01) (15, -7.98644214473337221705e-01) (16, -1.10641803822940198998e+00) (17, -7.79520145623553428749e-02) (18, -5.70403691156074588164e-01) (19, -1.68936735610720489831e+00) (20, 1.85609328106088322663e-01) (21, 3.23659671880042298930e-01) (22, -7.19198614327282159664e-02) (23, 4.51906090590969977683e-03) (24, 1.39968054458805835072e-01) (25, 8.17556540944580190100e-01) (26, -3.54381424898239649757e-01) (27, -8.73713217516805862317e-01) (28, -8.96202080738289552642e-01) (29, -7.44122525979173499167e-01) (30, -5.57510565954688619428e-02) (31, -8.06669829479183864152e-01) (32, -8.67547807213520538738e-01) (33, -3.54874955395891200638e-01) (34, -5.95362232295490789724e-01) (35, 1.97476872432455929918e-01) (36, 1.79909799154182148406e-01) (37, -9.15630825796363984059e-02) (38, -6.62753277459381395786e-02) (39, 4.21832626231774976411e-01) (40, -4.79694373295538101232e-01) (41, 2.26505511908538237353e-03) (42, 5.09069285738692589582e-01) (43, 4.47426638949141697310e-01) (44, -9.19593640604255829762e-02) (45, -1.26647047046684946281e-01) (46, -3.26524329844975591541e-01) (47, -7.70530077678821312404e-01) (48, -5.86794038127834038931e-01) (49, -7.86084532342523623072e-01) (50, 3.21923183754129094147e-01) (51, 3.50699922479426551281e-01) (52, -6.43407851141397646444e-03) (53, -1.76070890668892587883e-01) (54, -3.50552181747465496642e-02) (55, 1.11884915821663422086e+00) (56, -2.24373678379377494707e+00) (57, -8.13424601992037032971e-01) (58, -1.12327707366787254983e+00) (59, -2.20499593232652246755e+00) (60, 5.86169587520451784712e-01) (0, -9.85198423819039659222e-01) (1, -5.27713853868004845182e-01) (2, -2.84083033237705506746e-01) (3, -5.00957848736180849647e-02) (4, -3.53999957491397232445e-01) (5, 4.59813843413571565755e-01) (6, 5.47302595858343621238e-01) (7, 6.89442519219136018549e-01) (8, 8.79275292733805002854e-01) (9, 1.72228681918690951225e-01) (10, 2.29585118159804035809e-01) (11, -1.13548332588737227455e-01) (12, -1.27865018086498000160e-01) (13, -1.02817599358197869774e-01) (14, -9.27659246093071931938e-01) (15, -6.92501401200225741306e-01) (16, -2.73662983556675953878e-01) (17, 4.92655549522466540413e-01) (18, 6.19627118231272477900e-01) (19, -7.96138261645708555925e-02) (20, -1.04735459405339170758e+00) (21, 2.29699824337497748861e-01) (22, -1.55835840742334252873e-01) (23, -1.96741723035621929316e-02) (24, -1.23805884899732293603e-01) (25, 1.56613916889905402385e+00) (26, 6.37610008742140188520e-02) (27, 2.60175836735199284000e-01) (28, 4.38843918665090315656e-01) (29, -1.70272723338466547283e-02) (30, 5.55805347898013168972e-01) (31, -1.38235518620876240981e+00) (32, 2.35674694550882107835e-01) (33, 2.14525483919034726243e-01) (34, -2.89852122042848353578e-02) (35, -7.21668284769206636042e-01) (36, -6.22881295589021055648e-01) (37, -4.94020690319285915582e-01) (38, -5.28578904566512575158e-01) (39, 1.22730557207599788594e-01) (40, 8.71987319987165165891e-01) (41, 6.42938491450584015396e-01) (42, 8.70793876937495103796e-02) (43, -7.58580522843732563132e-02) (44, -7.72220136094739217913e-02) (45, -1.45756435277101220604e-01) (46, -8.68023054171254415667e-02) (47, -5.25449173649015222054e-01) (48, -7.71220249726703555027e-01) (49, -1.31079793036363057013e+00) (50, -8.83866168738965507501e-01) (51, 1.79690409783855475911e-01) (52, -6.40995091602649669227e-02) (53, -7.09533473003395864787e-03) (54, -1.11290515097018899437e-01) (55, 2.05263521349698940810e+00) (56, -1.44022870335228225791e+00) (57, 3.00353778057525944156e-01) (58, 8.77948872006430458548e-02) (59, -7.04382154853094633040e-01) (60, 1.27761022992202999404e+00) (0, -8.89331735137086631937e-01) (1, 1.43506472321837108552e-01) (2, -1.84818648978409910688e-01) (3, 2.54747048518059682198e-01) (4, 1.79192114505021538040e-01) (5, -9.73807453783213206044e-01) (6, 1.40849509054611299330e-01) (7, 1.44285309445121412431e-01) (8, 1.24271075701769928568e-01) (9, 2.43263118025980273895e-01) (10, -4.59791992286439632487e-01) (11, -2.30242768961213428724e-01) (12, -1.86020656252125216046e-02) (13, -3.18635412874244183801e-01) (14, -3.03772835571978039315e-01) (15, 1.15922156278900900794e-01) (16, -4.59061045203727979835e-01) (17, 5.07685308346222052833e-01) (18, 4.82675374547209046217e-01) (19, 2.96604019667434326557e-01) (20, -1.96227880996473813546e-01) (21, -4.53210012807422402137e-01) (22, -6.38651507914989924330e-01) (23, -3.86733066517137624718e-01) (24, -2.25775037068716044608e-01) (25, -1.66992306666088108358e-01) (26, 6.28415521483489114551e-02) (27, 5.43482392627667953988e-01) (28, -1.93140875138582024384e-01) (29, 2.23446473927662148107e-01) (30, -6.37755448938339686293e-01) (31, -1.21418518049924450963e+00) (32, 2.65032422806548761951e-01) (33, 3.94739849349224958264e-01) (34, 1.02795051470845832942e-01) (35, 3.22316777476066462782e-01) (36, 6.08200284232959909048e-01) (37, -3.03413825768254541426e-01) (38, -4.54030174257555318995e-03) (39, 2.93305816982619538269e-01) (40, 6.13801824858727140821e-01) (41, 1.97166306699799731561e-01) (42, 4.02604066575133312522e-01) (43, -5.68972203804146703376e-02) (44, -5.97668737416882200897e-01) (45, -6.33366156613249464691e-01) (46, -8.18497462892750216046e-02) (47, -5.26836687441290085765e-01) (48, 8.39927676623875019146e-03) (49, -9.01864610078912498636e-01) (50, -2.68974902910002255929e-01) (51, -5.12345271005206770454e-01) (52, -4.31991506794687007975e-01) (53, -5.03506063309932416772e-01) (54, -6.20562770551358611204e-02) (55, 1.60086015261214353878e-01) (56, -3.08319249501057690566e+00) (57, 4.26054153126123602568e-01) (58, -2.25816779427299274552e-01) (59, -3.32855908143954937195e-01) (60, 6.28529584788058981459e-01) (0, -1.38813558446332718788e+00) (1, -7.96832023448763360207e-01) (2, -2.36309692303689033999e-01) (3, -1.74860864648367669849e-01) (4, -1.81027054708513046588e-01) (5, 1.56853829956067225559e+00) (6, 1.15650708053015138788e+00) (7, 8.08424328228015687259e-01) (8, -2.95863260599641242354e-01) (9, -4.03282005410506072529e-01) (10, -1.00270348121619112813e-01) (11, -2.82403313588330984185e-01) (12, -2.27730595540235336571e-01) (13, -1.14680360029924455212e+00) (14, -1.26181438506051901705e+00) (15, -1.19079062430402504713e-01) (16, 5.62825148853551393557e-01) (17, 2.06943893921869692676e+00) (18, 7.41343922886067707712e-02) (19, -1.81405004733714148024e+00) (20, -6.21816192992152294572e-01) (21, 4.22249273301380734225e-01) (22, -1.45401904811358340108e-01) (23, -2.37796449317004165991e-01) (24, -9.44730445246033223583e-01) (25, 3.28354817850687208391e-01) (26, 6.81004972343502434917e-02) (27, 6.05937213344524772118e-01) (28, -2.59469769030301611323e-02) (29, -3.27289473900941652040e-01) (30, -1.76077061366269854714e-01) (31, 2.90041125305559255310e-01) (32, -1.98210358338476133611e+00) (33, -3.91766277226476000717e-01) (34, -7.44400761239749186871e-01) (35, 5.70353568677959832378e-02) (36, 1.20388045071949290055e+00) (37, -3.88747588631336127296e-01) (38, -4.31695409950439312752e-01) (39, -9.83781575751332959534e-03) (40, 2.03880261325179112930e+00) (41, 1.78991121038156147938e-01) (42, 7.05091099739760807097e-01) (43, -1.19765762213193432961e-01) (44, -3.33922297197704665006e-01) (45, -7.13279396533915255318e-01) (46, -1.14205075188743876424e+00) (47, -1.10349656774866389242e+00) (48, -8.15285457558451165383e-01) (49, -1.22370383182589881343e+00) (50, -6.14755464024962505754e-01) (51, 6.43023094752054102941e-01) (52, -1.02882491876578219259e-01) (53, -2.14022913230921707495e-01) (54, -7.83051691452793408033e-01) (55, 1.01596415797428885064e+00) (56, -1.60846246239271040146e+00) (57, 6.65629611058185743921e-01) (58, 1.28044269157735479681e-02) (59, -1.58982305405683166377e+00) (60, 7.35909369221925402371e-01) (0, 7.73722666163497940772e-01) (1, 3.32678675534652912305e-01) (2, 2.86683288106844458287e-01) (3, -5.05512897313417752798e-01) (4, -5.65821405888380368765e-01) (5, 3.82204120363942800864e-01) (6, -1.13015417393466488516e-01) (7, -6.98688504051715730814e-03) (8, 8.91187491312716240088e-01) (9, -5.44031493424663725733e-02) (10, 5.66308423841197727810e-01) (11, 8.64544305795453826846e-01) (12, 8.55684462779783050479e-01) (13, 7.48143162423394958438e-01) (14, 5.43159213740662227821e-01) (15, -1.45143927819495754949e-01) (16, 5.95629804774567173098e-01) (17, -4.62354453543036614249e-01) (18, 8.80300182919157681027e-01) (19, 2.73101160039716128747e-01) (20, 2.96351251091625467193e-01) (21, -1.16204090947426608160e+00) (22, 9.60578028046776610793e-01) (23, 7.84142825597547332706e-01) (24, 5.96432425197165105857e-01) (25, 3.23680258949371468802e-01) (26, -1.97235048226531983762e-01) (27, -2.67999820685543344023e-01) (28, 4.72393114158101035116e-01) (29, 7.22485226604082875212e-01) (30, 4.42601941195680748109e-01) (31, -3.27343948296517583962e-01) (32, 3.84291963388734281182e-01) (33, 6.02409736258455064117e-01) (34, 5.10329558856695841840e-01) (35, -8.15090126332441156087e-02) (36, -8.43579476017829010814e-01) (37, 3.62330455760762559780e-01) (38, 7.74676798621013462665e-01) (39, 3.52655055051580124115e-01) (40, -4.18478227401359204052e-01) (41, 4.44920291260692268853e-01) (42, -5.50980984046500310569e-01) (43, -2.39281115843582914415e-01) (44, 3.87690353981013202667e-01) (45, 4.97664226030324785555e-01) (46, 9.03398204439901153506e-01) (47, 1.23552813221740431793e+00) (48, 3.80814351024555186598e-01) (49, 7.39482392199926286125e-01) (50, 3.00173696961071267975e-01) (51, -1.11813836330689242438e+00) (52, 8.30606069349934417190e-01) (53, 7.45363112384103576602e-01) (54, 6.25895448144476507224e-01) (55, -1.35533201877257425405e-01) (56, 1.22389265565049187856e+00) (57, -4.20244634425796625976e-01) (58, 8.05005273229743467667e-01) (59, 1.20048552473528036266e+00) (60, 1.01401269035885577274e+00) (0, 5.57517904814651132916e-02) (1, -2.72549818123395959368e-01) (2, 8.43266560508741380708e-02) (3, 7.79114357203659846363e-01) (4, 7.10879780592121868210e-03) (5, -5.91409635040983427956e-01) (6, -7.89735978164204377450e-02) (7, -1.69561449239888917262e-02) (8, 2.69086688692254549782e-01) (9, -2.99767517628159341214e-01) (10, 3.14879294730054382079e-02) (11, -3.58977884181829187682e-01) (12, -2.61027749755473825743e-01) (13, -3.13687508498023071013e-01) (14, 6.40855692217368599906e-02) (15, 4.66377873751436244909e-02) (16, -5.40784177184975844987e-01) (17, 2.48321793043260907741e-01) (18, 2.48112660322411526792e-01) (19, 7.54433985089299374849e-01) (20, 6.93603228144281935830e-02) (21, 1.43085025002586019305e-01) (22, -3.91738112270896277067e-01) (23, -2.10065153930972081664e-01) (24, -2.60350953915210459044e-01) (25, 1.13755100728489932926e+00) (26, 1.87820792560900118318e-01) (27, 6.20661885439777183393e-01) (28, 4.65355824358880232339e-01) (29, 5.33456411770203975387e-02) (30, -2.81464691460196814177e-01) (31, 5.47704647517819442903e-01) (32, 9.82583502286529020253e-01) (33, 5.22760608853728658829e-01) (34, 1.64233482721997003928e-01) (35, 1.37285288786018755403e-01) (36, -4.21893734674059328604e-01) (37, -2.94504288711639139464e-01) (38, -2.53356691577525827697e-01) (39, 4.04461362750161423918e-01) (40, -5.63375695822492916776e-01) (41, 5.39586220305270480857e-01) (42, 3.22439289638625337098e-01) (43, 8.91544151953109764719e-02) (44, 1.98038895224622590874e-02) (45, -3.20959773936362990909e-01) (46, -2.70666550972552988341e-01) (47, -4.66698779767973748189e-01) (48, -2.74341943527277032366e-01) (49, 2.86790302888516868141e-01) (50, 1.61806717079126194392e-01) (51, 8.94572806855312707697e-02) (52, -3.13259179890220007536e-01) (53, -2.14693417344878179076e-01) (54, -1.48028192613909703734e-01) (55, 5.81060052879385224855e-01) (56, -8.14927634470815731582e-01) (57, 7.26020802705907630781e-01) (58, 4.70265011514481079402e-01) (59, 8.84871919611463830790e-01) (60, 7.42833592794354791167e-01) (0, -6.17874734645128320665e-01) (1, -8.42702933040773372042e-01) (2, 5.59198202593074622513e-01) (3, 8.15663571968455958228e-01) (4, 2.50404805197206314915e-01) (5, 5.36357816645135487832e-02) (6, -6.34088502434324574608e-02) (7, 1.60249605039917919491e-01) (8, -4.70278874504328703310e-01) (9, 5.02783058860662435130e-01) (10, -4.89085620383267138944e-01) (11, -4.92492707880135105469e-01) (12, -4.42035915763969944337e-01) (13, -4.14865049036140964844e-01) (14, -3.99083772946932202608e-01) (15, -7.03768975485222769706e-01) (16, 8.57096300093194984893e-03) (17, -1.73800655364669820457e-01) (18, -2.04425523613486537222e-01) (19, 8.99982011614429144863e-02) (20, 2.94742621095398893427e-01) (21, -7.40110063542822188554e-02) (22, -9.28815054900312908615e-01) (23, -7.51670226944310737593e-01) (24, -5.91103548617954777100e-01) (25, 5.87423647888005939777e-01) (26, 1.80883270650725791473e-01) (27, -1.09457042386273695200e+00) (28, -1.01622161795480203672e+00) (29, -2.59803687037109820590e-01) (30, -1.11045729150798599960e+00) (31, -3.90110309093219087551e-01) (32, 1.77724286630835948131e-01) (33, 2.02865496648467202867e-02) (34, 6.35896257966558353658e-02) (35, -1.29107071394104044870e-01) (36, 4.91940943592379054117e-01) (37, -5.86063811989422367432e-01) (38, -4.91575593562717960694e-01) (39, -6.62678300982523005302e-01) (40, 1.74505413209244730766e-01) (41, -4.96216308887333035216e-01) (42, 4.95709638802044993966e-01) (43, 6.87781996592660593848e-01) (44, -2.06676845085890403819e-01) (45, -4.52352745576803549898e-01) (46, -5.48744681683449142540e-01) (47, -1.04923245506344575695e+00) (48, -5.86845165758538511724e-01) (49, -4.62222016281617409383e-01) (50, 2.70185328634003518733e-01) (51, -2.08624378739784011039e-01) (52, -7.46556709276300800582e-01) (53, -7.67766409111840797408e-01) (54, -5.19582579346294926026e-01) (55, 9.12837037651077043421e-01) (56, 1.74379521561852213196e-01) (57, -9.04685534065517549251e-01) (58, -1.07333844094320696172e+00) (59, 1.43525926198803999156e-01) (60, 1.01559549091117018449e+00) (0, 3.98047223798809912676e-01) (1, -2.36771086922877405101e-01) (2, -1.12530522995478055037e-01) (3, -1.94056694884138014601e-01) (4, -5.61101109402782349811e-02) (5, -2.13063121418842227328e+00) (6, -4.91560485046378836671e-01) (7, -5.50435323023541034360e-01) (8, -1.73789724751313046092e-01) (9, -1.28038660468835541195e+00) (10, -6.04813079321710356240e-01) (11, 6.47405755150008532794e-01) (12, 5.40283564853358488911e-01) (13, 5.37597541141200285786e-01) (14, 5.89383529787557425283e-02) (15, -2.13189488455081233020e-01) (16, -1.81899693142612361996e+00) (17, -4.25328497349534817573e-01) (18, 1.22518602704484447230e-01) (19, 3.72378117591902646488e-01) (20, 1.10874132944749326235e+00) (21, -4.97840764991080320101e-01) (22, -1.35152290418104198411e-02) (23, 3.41492147302359883021e-01) (24, 5.00136603045153838032e-01) (25, 2.26707660004508326779e+00) (26, 6.82984129444306198309e-02) (27, -8.32476526612810463490e-01) (28, -6.67388095729681829482e-01) (29, -9.30008858920755021593e-02) (30, -3.05305627359879899752e-02) (31, -1.39705851572546752015e-02) (32, 6.23219189226293712736e-01) (33, 3.75469736010596188969e-01) (34, 6.20711663942578151243e-01) (35, 9.44420681253617111395e-02) (36, -1.72851696989663161652e+00) (37, 4.05421871356470675529e-01) (38, 6.88001769517124994735e-01) (39, 8.49067746131337008908e-02) (40, -2.27748724667638891006e+00) (41, -4.31899455074617799610e-01) (42, -5.65468236099052612431e-02) (43, -5.69929941783714477666e-02) (44, 2.27547080598903161963e-01) (45, 5.11471284926614200295e-01) (46, 4.39936672931210193127e-01) (47, 1.88567082231465177333e-01) (48, -1.83483892136103055037e-01) (49, 6.24555694119547144538e-01) (50, 1.26632277055190534121e+00) (51, -4.26737326256071858310e-01) (52, 2.18987514421983692214e-02) (53, 3.44279636746377293299e-01) (54, 5.49479540812659594806e-01) (55, 8.51940111104603214898e-01) (56, -8.77750953923837506920e-01) (57, -7.22921013946108192982e-01) (58, -7.27293090684422161019e-01) (59, 4.19631055328629209988e-02) (60, 7.03205999861231889625e-01) (0, -1.57649987072134534216e+00) (1, -5.77845525355215827723e-01) (2, 3.70567342639901542434e-01) (3, 3.31893748045899827925e-01) (4, 2.53015908484227614039e-04) (5, -6.95544379048495420292e-01) (6, 1.81120210900231476403e-01) (7, 5.11765323287004192387e-01) (8, -1.73037007019560429288e-01) (9, -4.26955478833739798805e-01) (10, -1.38545776216016103266e-01) (11, -1.89526423149266098900e-01) (12, -2.20639070027032146992e-01) (13, -4.82263432372090239397e-01) (14, -4.68720779925707486946e-01) (15, -5.48859719892279551701e-02) (16, -1.69673592358767111321e-01) (17, 9.14627464553008695525e-01) (18, 3.48467219322125210113e-01) (19, -4.44426444429668054958e-01) (20, -4.48843417931673760446e-01) (21, 1.04496399198868328284e+00) (22, -5.13803609289983087560e-02) (23, -2.61419607085639660315e-01) (24, -2.68387620799699078145e-01) (25, -2.32015807588677069884e-01) (26, 3.46550731002201128916e-01) (27, 8.59739186307082792204e-01) (28, 3.31675923885162204918e-01) (29, -8.91945256056178581439e-01) (30, -1.07603512269908219157e-01) (31, -5.41847179030928494115e-01) (32, -8.84677612943684743563e-01) (33, -2.27587456769188678507e-01) (34, -4.06091094400745922233e-01) (35, 3.38853435761492405298e-01) (36, 6.20608420918542624811e-01) (37, -3.37172543161072979512e-01) (38, -2.80723904721894512715e-01) (39, 9.63583790963448372224e-01) (40, 9.12525952376164295465e-01) (41, 5.01872408954016746563e-01) (42, 1.10818007562202214267e+00) (43, 1.56279784121566733823e-01) (44, -7.23201253344200878370e-02) (45, -9.34247751498180289964e-01) (46, -7.95323246669688121990e-01) (47, -7.70052032124915020184e-01) (48, -6.49627145738478573023e-01) (49, -1.25204228447242837952e+00) (50, -4.26125740874884306741e-01) (51, 1.10130804524377734488e+00) (52, -1.96455346850381129542e-01) (53, -1.32569804353171616373e-01) (54, -4.97449272799965758196e-01) (55, -2.17892417351816719551e-01) (56, -2.22424892702782095455e+00) (57, 9.53426348110328336638e-01) (58, 1.20378333109086299579e-04) (59, -2.20061320712297492364e+00) (60, 5.20583175203610637460e-01) (0, 2.50326958798318788268e+00) (1, 7.96767551038360721805e-01) (2, 5.60402191202999944153e-01) (3, -6.93835487848207810302e-02) (4, 4.58929871346888118566e-01) (5, 8.79257499366505101968e-01) (6, 2.56076389747812993569e-01) (7, 1.70222644313319848575e-01) (8, 3.41320507518369120614e-01) (9, 1.08596347725542718976e-01) (10, 1.47710605265011007958e-01) (11, 1.44925810214010675203e+00) (12, 1.48071694936481912386e+00) (13, 1.40951554294554215474e+00) (14, 2.33799997810334891923e+00) (15, 1.19929479715110254290e+00) (16, 1.04320174275378607653e+00) (17, 6.29482772152051284209e-02) (18, 1.08473795961861352311e-01) (19, 1.32273422100310344973e-01) (20, 9.53948355894201460714e-01) (21, -3.10537635124389199692e-01) (22, 6.64608373929634677069e-01) (23, 1.60746443669764271789e+00) (24, 1.72865496228901593945e+00) (25, 1.02311551707471704020e+00) (26, -6.54539168771643975475e-02) (27, 5.53719502120002093903e-01) (28, 7.90053491587428879939e-01) (29, 8.08311495131571522421e-01) (30, 8.87103043962893744734e-01) (31, 1.53183964843946474055e+00) (32, 3.44585287915624094435e-01) (33, 3.11066310452378702589e-01) (34, 3.00744483962918807141e-01) (35, -5.12110239153787949462e-02) (36, 1.69825316511752311133e-01) (37, 1.52803525891033609163e+00) (38, 1.48821139152971704256e+00) (39, 1.02891709998779778967e-01) (40, 2.09238494507266226119e-01) (41, 1.26298889370477063210e-01) (42, -1.48286463904945597925e-01) (43, -1.49322631049720988550e-01) (44, 1.24993749736137726991e+00) (45, 1.40237743969885331197e+00) (46, 1.57041364406891381655e+00) (47, 3.15541729715423402425e+00) (48, 9.24052435138215111365e-01) (49, 2.57339333497434541442e+00) (50, 1.02983326433193012051e+00) (51, -3.12926321066085366684e-01) (52, 3.17503526734724372815e-01) (53, 1.50656366165605981600e+00) (54, 1.60694056402413121276e+00) (55, 4.21498312574985378731e-01) (56, 2.92833144129481715012e+00) (57, 6.10559325842841449372e-01) (58, 1.11507838275578485820e+00) (59, 1.95953052884016876156e+00) (60, 7.90814157992724808821e-01) (0, -3.86617129619384436445e-01) (1, -1.26760379057473115960e-01) (2, -1.46514700592962787695e-01) (3, -2.82382631385452109729e-01) (4, -1.55486294615421960508e-01) (5, -1.66141357303789316546e+00) (6, -2.50424334606778931089e-01) (7, -1.31432624049557356116e-01) (8, -5.18470930838687893427e-01) (9, 6.75529210533880930534e-01) (10, -4.38648320475678032970e-01) (11, -7.24916549850402658350e-01) (12, -7.18764277625976388819e-01) (13, -1.12863954842443625637e+00) (14, 3.07695420393724605734e-02) (15, 8.63931156906847796950e-02) (16, -4.13759492990511956734e-02) (17, -1.91574549169746921606e-01) (18, -1.73801612209178030222e-02) (19, 2.56323234626074314413e-01) (20, -2.32928962665786110087e-01) (21, -2.53894679242517407047e-01) (22, -4.42375309506516045666e-01) (23, -1.26690382650813448961e+00) (24, -9.52570741965751421887e-01) (25, -5.88024367853108576032e-02) (26, -5.06296137883344016251e-02) (27, -1.94156057539821902402e-01) (28, -4.44333006890418047430e-01) (29, -2.06433403847037399981e-01) (30, -1.64302384878867036022e+00) (31, -2.44021546948958723000e-01) (32, 3.25801092105511114205e-01) (33, 2.59936520547138172343e-01) (34, 3.72026467413173689280e-01) (35, 4.97169071963100450695e-01) (36, 9.50831334904550518061e-01) (37, -6.09126784263788745299e-01) (38, -7.17999488035139465936e-01) (39, -8.08397636808615427384e-02) (40, -7.07518741506231035876e-02) (41, -4.87005707157178613365e-01) (42, 2.90487674652608440784e-01) (43, 4.24921150891679477724e-02) (44, -6.05611644187192821320e-01) (45, -1.26518085308362748798e+00) (46, -6.43937880624233183191e-01) (47, -1.71044749487543046307e+00) (48, 7.72422189881017406954e-02) (49, -1.75711443161231439802e-01) (50, -3.07859779554595258677e-01) (51, -2.16001667076494152653e-01) (52, -5.74528932312588280773e-01) (53, -1.17280736705979715673e+00) (54, -1.02721937686557907021e+00) (55, 9.24615661131509503079e-01) (56, -2.00548644421651056646e+00) (57, -1.98112792673946658262e-01) (58, -6.54753811408285590900e-01) (59, 8.01917480974485341605e-01) (60, 5.01808318497728667040e-01) (0, -1.74016258134250212386e+00) (1, -4.41191631952826068819e-01) (2, -3.20163609367208223944e-01) (3, 3.72590381725190322726e-01) (4, 5.29377940727323137438e-01) (5, -1.36670410863130697976e-01) (6, 4.37428228949711783713e-01) (7, 1.00394650924464534647e-01) (8, 5.00999566707444943248e-01) (9, 3.25640821180803008428e-01) (10, 1.50255960239959129865e-01) (11, -5.12374568122564877370e-01) (12, -6.09149496394335354665e-01) (13, -3.24527317929991176992e-01) (14, -1.71463263771124108104e+00) (15, 9.17787593642937216121e-02) (16, -2.60529538226311363491e-01) (17, 6.01054918373674640364e-01) (18, 1.23887120122760430174e-01) (19, -2.46524266026433125365e-01) (20, -9.52625044291760758597e-01) (21, 4.29763646538916299633e-01) (22, 8.20881846168165230093e-02) (23, -5.86893528316526191801e-01) (24, -3.74874288488157569876e-01) (25, -1.47541765491964738111e-01) (26, -9.74896325047420186927e-02) (27, 4.01687273304399683482e-01) (28, 4.04196986486191234267e-01) (29, -8.32247170757106496941e-02) (30, -3.77736122140634067446e-01) (31, -1.21805687922543426360e+00) (32, -2.19334321884153748972e-01) (33, 7.92090031681109418837e-02) (34, 1.97883701471530004667e-01) (35, 3.31603264955721843688e-01) (36, 6.23806969973284330955e-01) (37, -8.16195575931001560122e-01) (38, -6.17515853929459179739e-01) (39, 5.66622197614177980363e-01) (40, 6.03185206961418529659e-01) (41, 1.82882067278608562155e-01) (42, 5.25688586588233697228e-01) (43, 4.79233387445735958821e-01) (44, -3.69772618683734177747e-01) (45, -8.73332407698446999689e-01) (46, -9.71916434347294577734e-01) (47, -1.20503133284336483300e+00) (48, -1.74276048224763724370e-01) (49, -1.67785077183250952437e+00) (50, -8.43304299419667779958e-01) (51, 5.83476608361664372815e-01) (52, -2.29007131521523799034e-01) (53, -5.90805723879842537016e-01) (54, -3.27030891824491909414e-01) (55, 1.05792193292662051185e+00) (56, -2.87158146746720044362e+00) (57, 2.87240692894396076884e-01) (58, 3.11932581016815535513e-01) (59, 5.04583089177722987628e-01) (60, 6.87015915914190200553e-01) (0, 1.47364756734672597283e+00) (1, 7.03163543920831468625e-01) (2, -6.12608577883216876003e-02) (3, -3.05298373324943694840e-02) (4, 5.66341284011364409778e-01) (5, 1.64842800448478432607e+00) (6, 8.36945825290481115744e-01) (7, 4.35663366723351930254e-01) (8, 7.41700856773740868633e-01) (9, 8.41237747914003852756e-01) (10, 5.68429938625259589813e-01) (11, 1.34566098049610327614e+00) (12, 1.17878257081239912196e+00) (13, 2.08113522931329875121e+00) (14, 6.24486116961418868954e-01) (15, 3.56588080985158262237e-01) (16, 1.27607270611671785865e+00) (17, 3.82036465857314211370e-01) (18, 3.28845666754536913867e-01) (19, 9.94487352983286276853e-01) (20, 9.35776816923715282215e-01) (21, 1.42590894379233723566e-01) (22, 6.56266184973516741863e-01) (23, 2.62649462396156829769e+00) (24, 2.12976514651767878661e+00) (25, 1.28173294148874850062e-01) (26, 5.22333356444449670164e-01) (27, 2.79209110591696785253e-01) (28, 1.21014169432734852716e-01) (29, 4.97781469722815339551e-01) (30, 9.84797948508794096512e-01) (31, 1.91840434254506897460e+00) (32, 7.75326331387442557741e-01) (33, 6.21879336629199697128e-01) (34, 3.95235012251383910353e-01) (35, 9.20075255954300730288e-02) (36, 6.44812636855260690183e-01) (37, 1.35615907466555674077e+00) (38, 9.49026900542867535293e-01) (39, 1.37132718243216877863e-01) (40, 7.84347367888103774725e-01) (41, 3.01331894505315112109e-01) (42, -3.63454822577689573571e-01) (43, 1.25817004921439823395e-01) (44, 1.27175366476505469215e+00) (45, 2.13404203470026798684e+00) (46, 9.73705261213672512710e-01) (47, 2.17892404749385981688e+00) (48, 4.07601528329461171296e-01) (49, 1.07012905148678116873e+00) (50, 1.05946041854152839257e+00) (51, 2.92873299696063515984e-01) (52, 6.52590902972021380535e-01) (53, 2.90124019786424591771e+00) (54, 2.15644601836197047362e+00) (55, 4.01590010332250335612e-01) (56, 6.49122706176458663663e+00) (57, 3.23687378022955940526e-01) (58, 4.74795950898016017039e-01) (59, 6.81731060798631549602e-01) (60, 7.53852943702833622197e-01) (0, 9.17547204075141342727e-01) (1, 1.00217393963243206478e+00) (2, 9.49045669354589227495e-01) (3, 1.97644476359473020288e-01) (4, 2.22289812331782132837e-01) (5, -1.32590479360674251552e+00) (6, -5.66107207040123405761e-01) (7, 3.07936351041774969417e-01) (8, 5.95628861865599379399e-01) (9, 3.44329228404033016453e-01) (10, -4.80753376843854995926e-01) (11, 4.63600402925689103473e-01) (12, 4.72664689872939469684e-01) (13, 4.16276363883693156787e-01) (14, 1.11349519519712147897e+00) (15, 9.97888764279143414271e-01) (16, 7.98364470348818522361e-01) (17, 3.11706783188680669472e-01) (18, 5.89186397687431417935e-01) (19, 6.31777059287384146202e-01) (20, -5.31700121824865590270e-01) (21, -4.57879656211289010059e-01) (22, 1.21095947952872790010e-01) (23, 4.92979472730834311633e-01) (24, -1.15001705257290531836e-01) (25, 1.37321770093672257396e+00) (26, 1.23785742799045039853e+00) (27, 4.03413666243170432324e-01) (28, 9.41371896927746920625e-01) (29, 3.42312948180946463594e+00) (30, 2.33983240811035553275e-01) (31, 1.96189648915660264095e-01) (32, 9.31221293377300529670e-01) (33, 1.21800486576119193494e+00) (34, 6.28856873788578774054e+00) (35, 1.21441550234557582577e+00) (36, -1.62202062532489255098e-01) (37, 7.74835196249955782122e-01) (38, 3.89708129916865764208e-01) (39, -4.76624631539734444630e-01) (40, -1.42961472991093097029e+00) (41, 4.68471383913247718667e-01) (42, 6.30676574214090956971e-01) (43, 2.35423494642363340112e-01) (44, 1.00199632378226821672e-01) (45, 4.88506397460181596148e-01) (46, 9.36997271660974906382e-01) (47, 9.91334117535761283335e-01) (48, 9.77361874567524990809e-01) (49, 8.51380914924426468460e-01) (50, -6.66594127779131406797e-01) (51, -4.21305739537628842761e-01) (52, 2.18956038387424056779e-01) (53, 4.27391818021018443652e-01) (54, -4.66867580693899331123e-02) (55, 7.54801969416719065187e-01) (56, -4.04154488251492916007e-01) (57, 2.74945279414271215312e-01) (58, 9.92335949443998277530e-01) (59, 2.01515142580347372814e+00) (60, 2.75352566643715712669e-01) (0, -1.39475357175439018675e-01) (1, -4.91650184118869126859e-01) (2, -1.07940767087678435310e+00) (3, 3.12689186341646108147e-01) (4, 3.45835868413793601217e-01) (5, 4.04095979487897949411e+00) (6, 2.09406980767478945182e+00) (7, 7.83584671384447650766e-01) (8, 4.28089400751450188665e-01) (9, 7.45995287954376085082e-01) (10, -3.57892707189120806710e-02) (11, 3.44792951767832589471e-01) (12, 3.69334687416941420679e-01) (13, 4.42281243329436191125e-01) (14, -1.58505138397782463500e-01) (15, -5.25183336311699999754e-01) (16, 2.35604317709001831460e+00) (17, 1.44733177503635324079e+00) (18, -4.16120984725399489790e-01) (19, 1.06301924981973550111e-01) (20, -4.92776582599252332972e-01) (21, 4.08996105085993155726e-01) (22, 6.22804914067381032439e-01) (23, 3.47926055019289803827e-01) (24, 4.97812799899521429836e-01) (25, -1.52524737985059360978e-01) (26, -3.71450095677496761049e-01) (27, 1.40643257653405107099e+00) (28, -1.84677222282601943837e-01) (29, -7.26755913826549804213e-01) (30, 1.00315038535407463627e+00) (31, 1.28021711065345722425e+00) (32, 6.90038491271952603157e-02) (33, -7.57218461963260924819e-01) (34, -1.74814371675230462166e+00) (35, -1.11315910645465376838e+00) (36, 1.40042603343986815645e+00) (37, 4.48302310829550632043e-01) (38, 2.46978259389788068479e-01) (39, -7.88913395398816996718e-01) (40, 2.60476320517536708010e+00) (41, 1.27961786775873720412e-01) (42, -2.50571960747363819966e-01) (43, -5.95167966127517988895e-01) (44, 1.08845778853932628749e+00) (45, 1.52410252436355975192e+00) (46, 3.22362836321554990793e-01) (47, 4.23736226683050998254e-01) (48, -5.18991471701981677001e-01) (49, -1.64090898275941032836e-01) (50, -3.34691124618619550990e-01) (51, 3.51247355233812674769e-01) (52, 2.72399832405932185164e-01) (53, 3.19619742160231423700e-01) (54, 4.83225655680090682154e-01) (55, 9.68814318214145320241e-01) (56, 4.86537368317692031638e+00) (57, 1.52172724535753167707e+00) (58, -3.84452664163071333725e-02) (59, -1.21836983257059217056e-01) (60, 1.94599024403552189888e+00) (0, -1.00242168336985515431e+00) (1, -7.49588020287591527691e-01) (2, -2.68060028192363963839e-01) (3, -2.76094879527821412957e-01) (4, 6.83186418719322896553e-02) (5, 2.52335234328896840239e+00) (6, 1.02204126799671524140e+00) (7, 5.68542193318064326135e-01) (8, 9.43639555734661628073e-02) (9, 2.49672545837384018963e-01) (10, 3.48557672805817342354e-02) (11, -2.29239829545460183091e-01) (12, -3.58310424452267184403e-01) (13, -2.47876726751766640611e-01) (14, -1.31498894653791009723e+00) (15, -8.17496180676061223735e-01) (16, 6.74591207398453907018e-01) (17, 7.36697904651878454629e-01) (18, 4.16954262657162622041e-02) (19, -1.10956433778872320950e-01) (20, -8.39935433216151938751e-01) (21, 1.62930182523758626534e-02) (22, -2.92232120958550944945e-01) (23, -3.51901723433453328393e-01) (24, -3.31638135676823153641e-01) (25, -3.31391891516231384962e-01) (26, -9.47492022496238539553e-02) (27, 4.95769853083033229524e-01) (28, -1.49685691614880378442e-01) (29, -7.91404797709413410089e-01) (30, 1.73898529440919269451e-01) (31, 2.89943382084301315427e-01) (32, -3.55208541975952973857e-01) (33, -3.94449557987008647686e-01) (34, -7.79746992690387052960e-01) (35, -5.48851444480895178657e-01) (36, 3.63611982097710895179e-01) (37, -3.12079549496612984605e-01) (38, -2.45553158884487587876e-01) (39, -2.23132792433037574487e-01) (40, 1.12012064612426809340e+00) (41, -2.70412394333102823474e-01) (42, 1.69012633627021069405e-01) (43, -1.02163859300582332557e-02) (44, 9.17744191296495093191e-02) (45, -3.70187206555325332147e-01) (46, -7.72850530224761023135e-01) (47, -9.54638836974650017986e-01) (48, -8.69764909289914678325e-01) (49, -1.01640493303416179494e+00) (50, -7.18008186764774070099e-01) (51, 4.74906481213600850655e-02) (52, 5.41641331620247579171e-02) (53, -4.29418987024742904168e-01) (54, -3.64089135741434533067e-01) (55, 2.22465089979709151891e-01) (56, 2.29199412720169748425e-01) (57, 3.50174976823467876130e-01) (58, -3.36441231019186548501e-01) (59, -3.95162205381117459524e-01) (60, 1.42084382624386607041e+00) (0, -1.81275483408189608259e-01) (1, 7.94644414189776826518e-03) (2, -2.48477703931102300583e-01) (3, 5.33221228294103344325e-01) (4, -3.74302067772087132536e-01) (5, 3.46542471907465809977e+00) (6, 9.76971049781863554173e-01) (7, 7.90848418625909488355e-01) (8, 1.07063504826150035498e+00) (9, 1.42262366625249958574e+00) (10, -2.90897857173136320519e-04) (11, -3.20574192416926639915e-01) (12, -4.77105338022341618487e-01) (13, -3.81724599644770457019e-01) (14, -9.89716367122212004048e-03) (15, -1.46000622811088109909e-01) (16, 3.27029887599294877276e+00) (17, 7.84522646266532452941e-01) (18, 4.67321628207281347667e-01) (19, 2.09203044366153723121e-01) (20, -7.87382230653794534803e-01) (21, 4.71257946909980462991e-01) (22, 1.53360905874745157007e-01) (23, -3.12069647643159753247e-01) (24, -2.19970453492086936986e-01) (25, -1.62401174400841408207e+00) (26, -2.03292275715377390721e-01) (27, 5.99938512326024353527e-01) (28, 1.20346216515136417158e+00) (29, 1.82638625446863323010e-01) (30, 2.60856569371567204030e-01) (31, 7.83723318642086774766e-01) (32, 1.67051990762673907565e-01) (33, 5.92158016005231296885e-02) (34, 6.12545739971565028625e-03) (35, -1.53225769416030832559e-01) (36, 1.12759129210640884899e+00) (37, -3.88283638370295669517e-01) (38, -3.16230265510340946555e-01) (39, 4.95119187862041787440e-01) (40, 2.30459660809633870571e+00) (41, 7.80854254496905930694e-01) (42, 1.81946288009946721687e-01) (43, 2.52581383248632385108e-01) (44, 3.29218972190574443726e-03) (45, 1.45945592615489005972e-01) (46, 3.43573333254437673911e-01) (47, 4.97558872139322039274e-01) (48, -9.16609457156748463902e-02) (49, -4.73759213473566864749e-02) (50, -7.09336065247090585828e-01) (51, 5.93149587036685632668e-01) (52, 1.86227890480534452600e-01) (53, -3.16386759910177117749e-01) (54, -1.77732706031483167486e-01) (55, -8.33825304465047101310e-01) (56, 4.29479244380026425887e+00) (57, 5.47404759109757721447e-01) (58, 1.46530325810403772024e+00) (59, 8.83085399579268903736e-01) (60, 9.76612834299419807493e-01) (0, 4.08414652884665274613e-01) (1, 1.88030188898520300711e-02) (2, -3.05932220387834685749e-01) (3, -1.02182559315737342409e+00) (4, -8.97291265620552058735e-01) (5, 7.14078693297545363805e-01) (6, 3.49335676174423959139e-01) (7, -1.25076264243494106321e-01) (8, -2.37186286727930684126e-01) (9, -2.14170180532933823736e-01) (10, -6.60080140950022736801e-02) (11, 1.59377816452729165198e-02) (12, -6.22934085917392632581e-03) (13, 3.16565207395570591409e-01) (14, 2.72690326479766043111e-01) (15, -1.93375533378401964768e-01) (16, 1.35438625786769406556e-01) (17, -6.31235218467427916522e-01) (18, -5.27812356929490578139e-01) (19, -3.97771132189515375099e-01) (20, -2.44796341035519005036e-01) (21, -4.50531078725238398608e-01) (22, -4.08247834564982453598e-02) (23, 4.97611813425343108008e-01) (24, 3.81254091117399052102e-01) (25, 5.80923078016650773492e-01) (26, -7.71272063506036387182e-01) (27, -3.67146237560008359413e-01) (28, -8.62548448596150429957e-02) (29, -7.56596828625274442359e-02) (30, 3.86722751747886617224e-01) (31, 6.67365919852381583866e-01) (32, -3.11129332255124235740e-01) (33, -6.55290624880677796682e-01) (34, -7.43747010247669093630e-01) (35, -7.58926101279645548559e-01) (36, -1.89490602522322998391e-01) (37, -4.06239440817825342434e-02) (38, -7.58733375151149913584e-02) (39, -2.45049586105722527751e-01) (40, -2.08571038920634554970e-01) (41, -2.59077411389756095961e-01) (42, -1.25189996690757054942e+00) (43, -9.98020492686592097797e-01) (44, 3.94107042461915746401e-01) (45, 2.47170041284578589913e-01) (46, -9.30754609067438454240e-02) (47, 4.63541506572922257234e-01) (48, -2.87789518018288642542e-02) (49, 2.46573951939622948437e-01) (50, -3.09304808948192955231e-01) (51, -4.44185873716254786547e-01) (52, 3.04994224292652604813e-03) (53, 5.00083163558762144874e-01) (54, 3.17165366563813999612e-01) (55, 3.81570457367101434354e-01) (56, 1.13784419520528401470e+00) (57, -1.29877773933179563315e-01) (58, 3.91294803259374379678e-01) (59, 3.09441658530611618527e-01) (60, 1.40159354272999325808e+00) (0, 4.32419523351118106902e-01) (1, 4.15967709461798951232e-01) (2, 4.21695000568976685607e-01) (3, 1.17910963134662705176e-01) (4, -3.36189868905806044097e-01) (5, 1.27777273785145029095e-01) (6, 1.40360432172759730385e-02) (7, -2.48332304107564461049e-01) (8, -7.66938856102929444880e-02) (9, 7.33509334957589409498e-02) (10, -3.85980284818672636504e-01) (11, -1.32652823234848338263e-01) (12, -1.91053051854423838751e-01) (13, -1.23533118869118052618e-01) (14, 3.58493964226210659607e-01) (15, 3.42214456836333502654e-01) (16, 1.28253246846697832595e+00) (17, -3.17847151106755432259e-02) (18, 8.53365453933102036110e-02) (19, 5.44487926163009117175e-01) (20, -3.76661521348124306297e-01) (21, -3.22792274339302520669e-01) (22, -3.27179743954205015655e-01) (23, -2.71973017956070262091e-01) (24, -1.45446289683632212775e-01) (25, 3.47243956252836882825e-01) (26, 1.36353117065326767676e-01) (27, -2.63981520291584059734e-03) (28, 5.29658696242060411663e-01) (29, 1.45714202302552764401e+00) (30, -2.22316366041950597143e-01) (31, 4.00094567722258043219e-01) (32, 5.35924571551612327625e-01) (33, 2.96543920609760702778e-01) (34, 9.62213412640081644511e-01) (35, -3.63408507538870717557e-02) (36, -7.00601441365192312283e-02) (37, -1.51324663664154368536e-01) (38, -2.08445195461563426154e-01) (39, 2.29330031441613430010e-02) (40, 2.40883358320984508616e-01) (41, -1.09962615410286429496e-01) (42, -3.29990269375876332791e-02) (43, -3.88490428609951421457e-01) (44, -3.76553186047116072999e-02) (45, -1.46448660994819956915e-01) (46, -3.77183554121939546011e-02) (47, 5.57136975527046551804e-01) (48, 4.32125291864028260314e-01) (49, 4.39047060661241550505e-01) (50, -3.74072906526690285300e-01) (51, -4.15950780196293279367e-01) (52, -2.42127365478538969512e-01) (53, -1.96653578783325511115e-01) (54, -2.51532916332535105841e-01) (55, 1.99256191473836136163e-01) (56, 1.74029797361448346216e+00) (57, 1.48208826788699399302e-01) (58, 4.42782706208910747936e-01) (59, 1.54349208629175360663e+00) (60, 7.66609136237532240443e-01) (0, -2.68563985594532428358e-01) (1, 9.14848618989553274972e-02) (2, 4.23476729737563784006e-01) (3, 3.15092830792745526303e-01) (4, -4.51472130245232916579e-02) (5, -1.46685919690156185702e+00) (6, 1.46602150494296368244e-01) (7, 6.66098692877421072467e-01) (8, 1.36413435234881585956e-01) (9, 3.08751607583331533213e-01) (10, -1.81893932949071690519e-01) (11, -2.49823326641218645960e-03) (12, 2.80413857591612303288e-01) (13, -5.93947991827639243390e-01) (14, -7.39989236495319918641e-02) (15, 1.75214030630746864237e-01) (16, 1.88680168087226374229e-01) (17, 2.47811839386108845318e-01) (18, 5.19633896416526019912e-01) (19, 3.47938369251227730405e-01) (20, 2.06620836428247411920e-01) (21, 5.44947497436615080346e-01) (22, -1.59670282677941199889e-01) (23, -7.41073548097389345202e-01) (24, -6.74505123026065245284e-01) (25, 3.80660339792079804866e-01) (26, 5.53623022841517431480e-01) (27, -2.19508498504069504698e-01) (28, 2.70904769123810784670e-01) (29, 5.45456865827332215702e-01) (30, -5.91666825026405218679e-01) (31, 1.38121786703167825916e-01) (32, 4.03354666102634373814e-01) (33, 4.01029528202298091166e-01) (34, 4.63723480519237951647e-01) (35, 5.89897004622893739167e-01) (36, 7.68234792256260456966e-01) (37, -3.44432389105483460767e-02) (38, 2.68027520668966734441e-01) (39, 4.43349525222393237023e-01) (40, 4.93228803596928000452e-01) (41, 6.15063327309247398489e-01) (42, 7.13994796808640419528e-01) (43, 5.42503868896442087433e-01) (44, 2.56569436681730711491e-01) (45, -2.36693117867644020613e-01) (46, -2.22912454797529746564e-02) (47, -1.56956646921587894550e-01) (48, 2.90107701169295850718e-01) (49, -3.05798321732304034803e-01) (50, 7.94895009909495631195e-02) (51, 4.48490060755821540184e-01) (52, -1.19737316445641409079e-01) (53, -5.87922654349582796129e-01) (54, -6.67302788324050322188e-01) (55, 6.34381160170785163288e-01) (56, -1.52235792083181364909e+00) (57, -2.21739716424849686582e-01) (58, 1.89321011532685046230e-01) (59, 4.72922872296865026698e-01) (60, 2.71374645171367612217e-01) (0, -9.31563243934439566551e-02) (1, -1.84335769217822464938e-01) (2, 4.71485781544832782686e-01) (3, 3.89730664962915918093e-01) (4, 5.31427721554426524264e-01) (5, 4.08682455253370324755e+00) (6, 1.75335730360795505334e+00) (7, 1.11682623674486181109e+00) (8, 2.43798211323794505878e-02) (9, 1.94875776787533006029e+00) (10, 6.43316605745246183901e-01) (11, -2.99561033662294889934e-02) (12, -7.42769251283144638087e-02) (13, -1.74334888410184296603e-01) (14, -4.85245446380114103802e-02) (15, -2.61623534744183150469e-01) (16, 2.24748365271161532064e+00) (17, 9.72777019778005458406e-01) (18, 4.37452367419783189062e-02) (19, 1.08284471359346601282e-01) (20, -3.38809872786125287902e-01) (21, 4.84019035159041655092e-01) (22, 5.60113610385348348331e-01) (23, -2.27498571094011808880e-02) (24, -1.58896029990527543063e-01) (25, -1.46027664409143631552e+00) (26, 3.68531869109552268071e-01) (27, 1.13819042787735003053e+00) (28, 6.76359117012856447815e-01) (29, 2.68552123316062318903e-01) (30, 6.37558841763427031069e-01) (31, 1.28544697203908375727e+00) (32, -3.84479427937134798920e-01) (33, -9.30479353722947655214e-01) (34, -2.04379055310249135857e+00) (35, -3.25639272848686323059e-01) (36, 1.11936552761548657742e+00) (37, -1.23876915376994523044e-01) (38, -2.01423042517516526217e-01) (39, -1.96584113612886940414e-02) (40, 3.06724675700233717635e+00) (41, 7.51741365540885997376e-01) (42, 2.16703006382863883061e-01) (43, 4.14989489192156391084e-01) (44, 4.56518041962771015108e-01) (45, 4.26868776852278308809e-01) (46, -9.30535207208132431056e-02) (47, -1.52636640768859299655e-01) (48, -1.66044970106694611545e-01) (49, -1.93841472932623631875e-02) (50, -3.03229297319969337554e-01) (51, 4.86729265807559263735e-01) (52, 5.10853694437434446840e-01) (53, -1.34019830327842148776e-01) (54, -7.34166065867876693751e-02) (55, 1.96433470973395751802e-01) (56, 3.61151497952289579629e+00) (57, 1.16159177766029375611e+00) (58, 9.90269988131629474992e-01) (59, 2.28850732455479377592e-01) (60, 1.19206267875595783856e+00) (0, 4.55904188273636656881e-01) (1, 4.89130937683971200869e-01) (2, 6.99598944689625801274e-01) (3, -1.67457097058875181705e-01) (4, 1.39134189988694090268e-01) (5, -7.08964357204864836781e-01) (6, 2.83522807176612878788e-01) (7, 4.06425653909140149889e-01) (8, 7.64676316239811026954e-01) (9, -2.34001134148199063656e-01) (10, 7.92485384381521607011e-02) (11, -2.97513941927032010692e-01) (12, -1.60354721052722443142e-01) (13, -1.25419201953486908474e-01) (14, 2.80847800479495923742e-01) (15, 6.74586824085110947635e-01) (16, -2.76921645778338776367e-01) (17, -2.75192790559905753334e-01) (18, 5.77065958823936520083e-01) (19, 3.29435047707290373786e-01) (20, 2.85035875956918677288e-02) (21, 1.75466061186770383440e-01) (22, -6.53181507455058707468e-02) (23, -1.68623962195460774804e-02) (24, -2.25413339836673276562e-01) (25, 8.08621903590564850006e-01) (26, 3.75184738809165974072e-01) (27, 2.40764517901821295531e-01) (28, 9.00444939277269762457e-01) (29, 9.99668224127154281256e-01) (30, 3.06633023976258134446e-01) (31, 4.99332944616737384180e-01) (32, 2.93763120672435540381e-01) (33, 4.59809604329666332667e-01) (34, 2.88032437374120542373e-01) (35, 3.00424875492153242718e-01) (36, -2.94775625215556835723e-01) (37, -2.42976451916770475048e-01) (38, -1.48781600101069916287e-01) (39, 3.53932375062485982120e-01) (40, -4.82397424522223006171e-01) (41, 3.58477370787640858829e-01) (42, 2.36660608822403029095e-01) (43, 3.32129138697680847958e-01) (44, -8.89158308854436085777e-02) (45, 8.27806010493899457892e-02) (46, -2.35034922761992948192e-01) (47, 1.68158545784983626259e-01) (48, 2.57006013566551283489e-01) (49, 1.40204971220882212979e-01) (50, 5.04773465316202263331e-02) (51, 8.85250201344288667471e-02) (52, -8.33895377086349143259e-02) (53, -1.42647575655752895107e-01) (54, -2.96900066239909665722e-01) (55, 2.09133074631196347326e-01) (56, -5.27030195074865037697e-01) (57, 4.89368336051682728538e-01) (58, 6.94698316649627667374e-01) (59, 1.26803694276813505581e+00) (60, 5.31170467902269072269e-01) (0, -1.86652805017062717319e-01) (1, 1.21007120354517416772e+00) (2, 1.63554426173565192748e+00) (3, 6.80507217113653251062e-01) (4, 5.41351277668872921112e-01) (5, -3.09461919322269629617e+00) (6, -8.30641701825359124456e-01) (7, -1.77042219591840688242e-01) (8, 3.40127088579562919524e-02) (9, 6.47785608993678985179e-02) (10, -8.22330848489899457476e-04) (11, 6.70344154640613448803e-02) (12, 2.38171887298653683906e-01) (13, 2.96101544698308072334e-01) (14, 8.28661252210001197938e-01) (15, 5.92118661056363571049e-01) (16, -7.81925580449208679212e-01) (17, -1.01917499346582507425e-01) (18, 4.89943875780063375913e-03) (19, 4.01547980782079816375e-01) (20, -1.32042633442037704583e-02) (21, 3.27306814004553747743e-01) (22, -7.95835538319217272729e-03) (23, 1.16032001781151777875e-01) (24, -1.36367287053632602056e-01) (25, 5.41023141221490533326e-01) (26, 6.17540007206094920811e-02) (27, -5.45872092674656722577e-02) (28, 7.17140499915263185393e-01) (29, 1.05794336567249147585e+00) (30, 2.59769456226481149086e-02) (31, -3.41554070479871629828e-01) (32, 1.57242511168968368551e-01) (33, 4.69113588278756932226e-01) (34, 1.50590410260905671613e+00) (35, 1.31863663858207158519e+00) (36, 3.59192588161618975295e-01) (37, -9.58092312825438163770e-02) (38, 5.59798325702129256909e-02) (39, 1.50591397739902532749e+00) (40, -1.26863531941336238340e+00) (41, -1.33792277380523461083e-01) (42, 6.19452162121517879712e-01) (43, 8.04709672373850937177e-01) (44, 2.71017578145096860176e-01) (45, 3.73706880106411620801e-01) (46, 6.64113675396077463020e-01) (47, 1.08054627489038757027e+00) (48, 1.46345349913867428526e+00) (49, -4.87567813263622418241e-02) (50, -7.70459340957754257317e-02) (51, 3.40454000492466879457e-01) (52, 1.56739306612695555865e-01) (53, 1.89666633712933546674e-01) (54, 1.17664596446852537381e-01) (55, -1.06648576771445569022e+00) (56, -4.83524346299913609926e+00) (57, -9.26283900245854219246e-03) (58, 3.02925025436601214057e-01) (59, 1.74169373919228265279e-01) (60, -4.12836571470686031216e-01) (0, 9.62743708531180741872e-01) (1, 3.51206159187816391309e-01) (2, -7.47344466140812402344e-02) (3, 2.18133685145733280386e-01) (4, 1.79492209761552667935e-01) (5, 2.83799256108610498117e+00) (6, 8.33631581806396182444e-01) (7, 8.74884458442480195117e-01) (8, 8.14543096820654843881e-01) (9, 1.32864629758709495988e+00) (10, 9.86543461007496791382e-01) (11, 7.84835188656396232076e-01) (12, 5.87081704862658870780e-01) (13, 1.16213240816865237548e+00) (14, 2.45134161295738173258e-01) (15, -9.87469127684292846681e-03) (16, 1.43553653142077686233e+00) (17, 3.65197362328131769349e-01) (18, 3.40852843547423456361e-01) (19, 5.36273230620148533276e-01) (20, 3.74995120156793149135e-01) (21, -5.29809791962844167656e-02) (22, 1.07949850505983335758e+00) (23, 1.05922368603697170109e+00) (24, 1.06019856531653067222e+00) (25, 2.00846522203866895140e+00) (26, 2.43944979205014345069e-01) (27, 4.83832666600306604554e-01) (28, 5.84427786984628605538e-01) (29, 3.70884003067572687318e-01) (30, 1.14747031977191182861e+00) (31, 9.53264718183511217120e-01) (32, 7.17894440719380799720e-01) (33, 4.94897657955248870820e-01) (34, 2.24874495460870127417e-01) (35, -9.20098795381204981325e-01) (36, 9.18659241329528475362e-01) (37, 7.27102681489086855038e-01) (38, 7.47271579332892788017e-01) (39, 1.34616200156953469413e-01) (40, 1.55229508019366013727e+00) (41, 6.68399930942916720156e-01) (42, -8.27526076522486109255e-01) (43, -3.14475940754955773926e-02) (44, 6.95230912991111171806e-01) (45, 1.56947787403758831637e+00) (46, 7.36368712611739528739e-01) (47, 1.18802423986799876587e+00) (48, 3.09467351032756576856e-01) (49, 1.83212018295003664647e-01) (50, 4.13578398812799008510e-01) (51, -1.83800650052283437441e-01) (52, 9.93240868512744956575e-01) (53, 1.12733531805625286637e+00) (54, 1.01227479923996588340e+00) (55, 2.99871663409616173723e+00) (56, 4.81267404565556589091e+00) (57, 4.61820924604495031129e-01) (58, 8.85264219899923432422e-01) (59, 7.68717810002292112337e-01) (60, 1.65653300739096098759e+00) (0, -3.31729737615635345005e-01) (1, -9.14108258138256329906e-02) (2, 3.82482271676051865938e-01) (3, 5.96801554358623143060e-01) (4, 1.65179267122684603208e-01) (5, -7.72470423700914565757e-01) (6, -1.09455659772020985621e-01) (7, 1.64397131272053631523e-01) (8, 5.77226739103444463908e-01) (9, -8.40885934960775571767e-01) (10, -5.29139755628658114972e-02) (11, -5.33667612274934644034e-01) (12, -3.92416376074602002433e-01) (13, -3.53505621612317799674e-01) (14, 3.44274304697531619013e-02) (15, -1.77505399254048873425e-02) (16, -5.83067998608951421069e-01) (17, 8.92109501198603549454e-02) (18, 3.56832168393295567910e-01) (19, 8.95026077175973933109e-01) (20, 1.13804891269647462382e-01) (21, 5.77578810832424904831e-01) (22, -1.86791691137142945589e-01) (23, -6.96407351240947436466e-02) (24, -2.93605926394708338645e-01) (25, 1.09728062026940209606e+00) (26, 1.81323066716516878571e-01) (27, -1.34677213593648592571e-02) (28, 3.83147459283449842715e-01) (29, -1.21963643708037472457e-01) (30, -4.85843832117341500876e-01) (31, 1.01095909899165459223e+00) (32, 2.48623431610156930827e-01) (33, 1.92442185888484440515e-01) (34, 1.59577171340617718354e-03) (35, 1.17318731164062883821e-01) (36, -5.19996627617195006366e-01) (37, -5.62021072408010358146e-01) (38, -5.29105573346664304069e-01) (39, 3.43086541981328374540e-01) (40, -7.06301700423606071411e-01) (41, 7.33777395922777908588e-01) (42, 8.69324508956321739817e-02) (43, 2.87967767395888141202e-01) (44, 8.61357618996285712143e-02) (45, -5.73508469312591362410e-02) (46, -7.09863034002267578870e-01) (47, -5.66114154569589245192e-01) (48, -1.23096520865972600123e-01) (49, -1.72949446612688351177e-01) (50, 2.08689040999852970515e-01) (51, 6.95518499097748765791e-01) (52, -1.74351479066201020540e-01) (53, 1.29785966530010510311e-02) (54, -3.10538365453727427390e-01) (55, 5.45994080590133323838e-01) (56, -7.06179504775057198529e-01) (57, 1.30098500971347230681e-01) (58, 6.15714496756848195247e-01) (59, 2.67896838229420508615e-01) (60, 6.44238964519914247830e-01) (0, 2.11686781785270339284e-01) (1, -1.84564395790039664780e-01) (2, -4.12211508856056119132e-01) (3, -4.41844583854911709953e-01) (4, -4.84951974258659268546e-01) (5, 2.32515032590025327863e+00) (6, 2.47850113757473622389e-01) (7, 2.86680476245997517548e-01) (8, 4.65736636043131924101e-01) (9, 8.30204057872146794494e-01) (10, 2.05317979513966242244e-01) (11, 2.19963141992590871521e-01) (12, 2.42306896760962453552e-01) (13, 4.48327312567288527312e-01) (14, 2.95159490653488287837e-01) (15, -6.91650848258425599013e-01) (16, 1.28377768560764060624e+00) (17, 1.49695900477987975385e-01) (18, -3.64935917787444608074e-01) (19, 3.61114448797529408175e-01) (20, 7.56567123607697622489e-02) (21, -3.46980309281546661637e-01) (22, 3.13494316814015627770e-01) (23, 4.54859348335320601286e-01) (24, 3.38673903544864041137e-01) (25, -9.06929691472939392138e-02) (26, -5.81281009484221344863e-01) (27, 3.76110170887329231526e-01) (28, -9.68242177249678537265e-02) (29, -3.18740537452597116896e-01) (30, 5.78924617139258912424e-01) (31, 8.41602858631032013648e-01) (32, 2.44554142618395031761e-01) (33, -3.92291795087318928559e-01) (34, -6.38801189752107756448e-01) (35, -6.93027253616740113173e-01) (36, 2.63124431385483525947e-01) (37, 2.08911695793173757263e-01) (38, 1.00728796139262166687e-01) (39, -4.08663347519289177345e-01) (40, 1.18137687600018703726e+00) (41, -1.73641135676639746244e-01) (42, -5.28319466281821137343e-01) (43, -5.20421536073921053855e-01) (44, 4.92290334302141641132e-01) (45, 6.06312097507670122454e-01) (46, 2.32871049359343496032e-01) (47, 4.59980482556874292754e-01) (48, -5.82622024584700470839e-01) (49, 1.40453941366454726491e-01) (50, 1.23667002478272669563e-03) (51, -3.24574513528544494889e-01) (52, 4.87636409280369997887e-01) (53, 4.60954012670571344756e-01) (54, 4.69876515069062250518e-01) (55, 5.03379998192896138676e-01) (56, 3.29483304835724188919e+00) (57, 4.19158463285782101337e-01) (58, 2.85688285476404957297e-01) (59, 3.29231380526188555091e-01) (60, 1.50218632170334109865e+00) (0, 6.90591136707201513900e-01) (1, 3.12086228794098197170e-01) (2, 6.82951653417530502033e-01) (3, 4.99684008854419325907e-01) (4, 2.68764829731367671517e-01) (5, -2.06190321629658424030e+00) (6, -1.16104641957770676752e-01) (7, 2.62264683314151425542e-01) (8, 2.80407871864346014412e-01) (9, 2.98944520931863189084e-01) (10, 1.33653855252109377005e-02) (11, 5.09399555752220289939e-01) (12, 4.92188267538490431541e-01) (13, 2.41955883220624501373e-01) (14, 6.40646570058061914921e-01) (15, 5.65807560749470139783e-01) (16, -1.57559180477904181572e-02) (17, 3.60582708783931504826e-01) (18, 3.70695833395213836248e-01) (19, 6.27502829602849754309e-01) (20, 6.94750027014811588622e-01) (21, 5.11964338032272148205e-01) (22, 4.10205312191233573138e-01) (23, 4.43930439779701480063e-01) (24, 3.72728891090345015868e-01) (25, 1.04095017333789074954e+00) (26, 8.42799883570853225478e-01) (27, 2.02428690481866874196e-02) (28, 1.91322160799546836518e-01) (29, 5.97607078327639262838e-01) (30, -2.15781533144220050158e-03) (31, 1.31925000803591707665e-01) (32, 5.59402533661626510941e-01) (33, 1.28343536655930523516e+00) (34, 1.33161955032150425282e+00) (35, 1.03592240721371608991e+00) (36, 1.83836122894130427063e-01) (37, 4.46133583912792341941e-01) (38, 3.81035059819164523276e-01) (39, 8.06850761953858519604e-01) (40, -9.91016199968991040592e-01) (41, 4.44829918428386483775e-01) (42, 7.43858960304526362073e-01) (43, 9.90653961006669581124e-01) (44, 8.58346404788662559193e-02) (45, -2.12345736612422897327e-01) (46, 4.04553563837700802530e-01) (47, 9.39836459291908538072e-02) (48, 7.03697143817692882806e-01) (49, 7.03992466224566015853e-01) (50, 8.03322834177811584411e-01) (51, 4.95044389871623746746e-01) (52, 2.36645832775816855609e-01) (53, 4.29803937802257784995e-01) (54, 3.48638213590573897704e-01) (55, 3.55342136765893545913e-01) (56, -2.63495633666763451330e+00) (57, -6.75034084033285242121e-02) (58, 5.10169071048161004711e-02) (59, 9.32242014600884960629e-01) (60, -2.14899384945185401019e-01) (0, 9.02567657655741484302e-02) (1, 2.55387230543212884193e-01) (2, 1.91957179176649006536e-01) (3, 7.73253802361760556039e-01) (4, 2.19564329258962354086e-01) (5, -2.82606334425475225203e-01) (6, 1.04787320720300880517e+00) (7, 8.63170326461177861432e-01) (8, -4.18663883134002823283e-01) (9, 4.04475604807884359104e-01) (10, 2.43107150573478203448e-01) (11, -1.99630754179889097211e-01) (12, 2.49457788561187332466e-01) (13, -2.42134333087467124024e-01) (14, -5.29288382142384938867e-02) (15, 3.81461473880128965064e-01) (16, 3.07190862701565980952e-03) (17, 1.36644005951193259207e+00) (18, 8.09522947820603633318e-01) (19, 1.94700908875398592812e-01) (20, 1.98182281454061637316e-01) (21, 3.75551319998697841207e-01) (22, 1.15176107067809563311e-01) (23, -1.77135095590061880655e-01) (24, -2.54666369756249955092e-01) (25, 9.58585715455961384635e-01) (26, 6.84716485201806168703e-01) (27, 4.38695675311118860051e-01) (28, -1.34506307980663319945e-01) (29, 1.11591400936726370396e-02) (30, 2.49624724764571648272e-01) (31, -2.41146170221027134062e-02) (32, 7.64300081350229310040e-02) (33, 2.69601180693086917017e-01) (34, 9.46123120291026964424e-02) (35, 4.90367716943170162125e-01) (36, 8.75459935695790392174e-01) (37, 2.75117617939315384223e-01) (38, 1.49891157542071884468e-01) (39, 5.37688454977942043023e-01) (40, 1.15664137898649754810e+00) (41, -1.09212226089504094162e-01) (42, 9.51755073073182300547e-01) (43, 4.83025373245149713952e-01) (44, 8.49060113481958089743e-02) (45, -7.98508414203154437416e-01) (46, 3.29529542861253244013e-02) (47, -4.55708505604583868909e-01) (48, 2.24398347316103086158e-01) (49, 6.60501870340372831958e-02) (50, 1.33347619672273765001e-01) (51, 2.99333892148928248922e-01) (52, 1.28934505660281639727e-01) (53, -1.39631234699196554727e-01) (54, -1.81864582591957785196e-01) (55, 1.28884393399082375353e+00) (56, -1.39421567196408480171e+00) (57, 4.51039618430167932317e-01) (58, 9.28108403248445457123e-03) (59, -5.10817261323768700976e-01) (60, 5.45515870196592311814e-01) (0, 3.08308279761712755729e+00) (1, -1.18379375598549607673e-01) (2, 1.16434675496153994256e-01) (3, 6.62654460076810725155e-01) (4, 2.59220738750033541375e-01) (5, 2.90523829638081387827e+00) (6, 1.45005194234105572182e-01) (7, -1.24754903080596529774e-02) (8, -5.40253350512824304097e-02) (9, 6.04529605351089793785e-01) (10, 8.28117708868404189815e-01) (11, 1.05472717022295592315e+00) (12, 1.13142422919865204278e+00) (13, 8.32005615247444652027e-01) (14, 4.81727549227051188296e-01) (15, 5.35457663392351346232e-01) (16, 3.27957807579911930773e+00) (17, 8.09308321211781034332e-03) (18, -1.78243121197481424467e-01) (19, 2.65627188307420547542e-01) (20, 2.14290596082013928836e+00) (21, 1.57508324687204714909e-01) (22, 8.66725514835735344477e-01) (23, 1.13610671048756195489e+00) (24, 1.14782461376737554559e+00) (25, 1.78242723130321789604e+00) (26, 1.37073301046156614813e-01) (27, -5.24751600530340978068e-02) (28, -2.94850866065950290018e-01) (29, -2.28048871469498926068e-01) (30, 1.43520381337041724734e+00) (31, 2.57531914281311502535e+00) (32, 6.45620131103905592340e-01) (33, -2.45445371103546583491e-01) (34, -4.36604032961430632565e-01) (35, -3.26237852237343750605e-01) (36, 5.94218375850880775602e-01) (37, 1.04884325301046965606e+00) (38, 1.04042759125824568756e+00) (39, -5.00370208738664556947e-01) (40, 7.77403807043475225669e-01) (41, -8.52240284147396387482e-02) (42, -4.10620378813862763057e-01) (43, -1.65933378536172682072e-01) (44, 2.04592969468648933073e+00) (45, 2.12047894499118827483e+00) (46, 1.08240634536142898980e+00) (47, 9.07421158665375982011e-01) (48, 6.45575921526184148824e-02) (49, 2.24071093558472522744e+00) (50, 2.18077760844630086368e+00) (51, 2.66222972278318648076e-01) (52, 8.33722333616634170284e-01) (53, 1.15385900957322107274e+00) (54, 1.02132189062904155108e+00) (55, 2.63986618152461272047e+00) (56, 7.47870027868326125997e+00) (57, -1.08372671594877567625e-01) (58, 4.32254565794645134735e-02) (59, -3.51485200278406073604e-01) (60, 1.24060344879174144772e+00) (0, -2.13307227343586258694e-02) (1, 1.23556387077801088648e-01) (2, 3.93238065883618648222e-01) (3, 1.13279013966546174275e-01) (4, 6.66311903298572483223e-01) (5, -2.48913387960182408420e+00) (6, -1.40165842525061534740e-01) (7, -3.67900241804842154103e-02) (8, -5.90315388325357903732e-01) (9, -4.80684763541709525470e-01) (10, 6.34390573519090922305e-02) (11, 7.59870658554890665570e-01) (12, 8.11625833549359354535e-01) (13, 8.60589395203450235883e-01) (14, 4.77581220629331004712e-01) (15, 2.36861493546306034474e-01) (16, -1.50996507604056251495e+00) (17, 6.20491123843435188334e-02) (18, 1.48185740080774341898e-01) (19, 1.37730759945823844070e-02) (20, -8.67975430435816153185e-02) (21, -2.09931244232689606655e-01) (22, 2.27390379788241836501e-01) (23, 6.05873854750321738649e-01) (24, 5.54240650019176772645e-01) (25, 1.62613506562029086489e+00) (26, 5.62823502722450630387e-01) (27, -6.34005456692747215719e-01) (28, -5.90779701789762912156e-01) (29, -1.43518298903468621841e-01) (30, 1.24846191288791097396e-01) (31, -7.02320685669858613132e-01) (32, 2.67040791551366063494e-01) (33, 2.09414112739553792686e-01) (34, 5.07322004440494800370e-01) (35, 4.42944435959363391753e-01) (36, -4.43849782024544059489e-01) (37, 8.71897722520688089887e-01) (38, 1.07977811562862124894e+00) (39, 3.10515544703608148414e-01) (40, -1.08245374063608501558e+00) (41, 1.75055673402272904404e-02) (42, 3.34859071418744491666e-01) (43, 4.86303629910254886504e-01) (44, 2.50072748789475329811e-01) (45, -1.76672681604091164065e-03) (46, 2.46334330568001635964e-01) (47, -5.32564081899757346683e-02) (48, 3.40312567443882496576e-01) (49, 5.82916577011081959991e-02) (50, -1.11393854195562969078e-01) (51, -2.00048447676932084072e-01) (52, 1.27625734688601888411e-01) (53, 6.61532977515385978151e-01) (54, 6.17042264422901443055e-01) (55, 1.32282512843621069543e+00) (56, -5.26764861199486933430e+00) (57, -6.63582272538550732577e-01) (58, -9.41359444341816731239e-01) (59, -6.72583162495501873934e-01) (60, 2.72001959461916409388e-01) (0, 1.59453792356314894008e+00) (1, 1.05893507974168477048e+00) (2, 2.16612492460503791580e-01) (3, -3.65699447262329890851e-01) (4, 1.99171888467968793979e-01) (5, 6.71277706459474710066e-01) (6, 2.90352461768484781945e-01) (7, -4.73812119793535713175e-01) (8, 7.98972306773067408869e-01) (9, 8.49562582087267870179e-01) (10, 2.03159687158636359516e-01) (11, 1.22828071714722897312e+00) (12, 1.29747281373822498374e+00) (13, 1.40901884586894343698e+00) (14, 1.82578339476267292874e+00) (15, 7.85813456154345169047e-01) (16, 7.06504781741631893155e-01) (17, -5.00654646885038800974e-01) (18, 3.75096364604587284575e-01) (19, 9.14964210435749603079e-01) (20, 1.13310894497272274251e+00) (21, -3.89013193118614986066e-01) (22, 6.86896464931097794349e-01) (23, 1.23366964758717800876e+00) (24, 1.69703426002178270338e+00) (25, 9.47373829945113210549e-01) (26, 5.50631396165931485953e-01) (27, -4.39277576040865536111e-01) (28, 5.99242720795190697558e-01) (29, 9.62784770061838601762e-01) (30, 7.72103050966495341179e-01) (31, 1.01420812796470749539e+00) (32, 6.67139600954008260558e-01) (33, 8.90038449510933471487e-01) (34, 1.08833169865139245402e+00) (35, 5.43405674091422818961e-01) (36, -2.48529220100387887582e-02) (37, 1.12523938637518439165e+00) (38, 1.29164271206939029746e+00) (39, -4.76246289479775208875e-01) (40, -4.47840652561981744650e-01) (41, 1.43335161713244341186e-01) (42, -4.68593731093449372693e-01) (43, 1.69530909214839903276e-02) (44, 1.16174989902703229561e+00) (45, 1.21218482965166174381e+00) (46, 1.32556221014666930635e+00) (47, 2.01119560967828947540e+00) (48, 8.17107608294962761697e-01) (49, 1.62926624946656439796e+00) (50, 9.47219276210038652053e-01) (51, -4.36577368098540086194e-01) (52, 6.75861991154280472571e-01) (53, 1.37724374384963321738e+00) (54, 1.50576764208972768699e+00) (55, 5.68087623812321362848e-01) (56, 2.36550283165534391827e+00) (57, -4.02810957052895823871e-01) (58, 3.57024119260150762933e-01) (59, 1.16634528550509131151e+00) (60, 3.21703761897629392230e-01) (0, 4.01037500500605936793e-01) (1, 1.44524377949791171805e-01) (2, 3.27262256222537323280e-02) (3, 4.12543166356852814003e-02) (4, -2.23698435517871330180e-01) (5, 2.39044614621130158127e+00) (6, 1.03556675103978323982e+00) (7, 1.19428677423918938594e+00) (8, 1.53552633108776381832e+00) (9, 2.34555012137762508573e+00) (10, 6.07634953418108247902e-01) (11, 3.36016017871669098183e-02) (12, -2.42751730772578666606e-01) (13, 1.70838057755521022241e-01) (14, -1.19280465304607175003e-01) (15, -2.51338837834918449321e-01) (16, 7.35878592866406888717e-01) (17, 7.52631709922945923985e-01) (18, 1.34319875357363782697e+00) (19, 1.24525564378960940104e+00) (20, -9.75597206351697665561e-02) (21, 6.00638114282134649713e-01) (22, 5.25941221922614055018e-01) (23, 2.44975941363703875187e-01) (24, 1.67627617477467738549e-01) (25, -2.80932822547597493834e-01) (26, -3.26236402782523471355e-01) (27, 8.61122914601958111547e-01) (28, 1.14539992202443818847e+00) (29, 5.34306052729427882753e-01) (30, 1.04823002507823193064e+00) (31, -7.32762002607980078572e-02) (32, 9.73978380074366434371e-01) (33, 8.58769892453231098450e-01) (34, 5.26601940571956639303e-01) (35, -3.47678100856864291668e-01) (36, 3.06889594064136073115e-01) (37, -3.30077463927590686321e-01) (38, -2.02132968398654411235e-01) (39, 5.52477173873428206718e-01) (40, 2.79543551410981150340e+00) (41, 9.50414990459085395891e-01) (42, 3.82978741007617279335e-02) (43, -3.12543621453368614116e-01) (44, 8.56547180491259996238e-02) (45, 7.54298364809060095659e-02) (46, 1.93899375565605491811e-01) (47, 7.82692741530707780662e-02) (48, -3.13202282580459068217e-01) (49, -2.73025486466825367815e-02) (50, -2.48291943070829274065e-02) (51, 5.82621299096587996758e-01) (52, 5.17163908988215403895e-01) (53, 3.24588166657816978855e-01) (54, 3.18266639593970390720e-01) (55, 4.59293473861714540707e-01) (56, 2.33908806684219916505e+00) (57, 8.73250135232603863500e-01) (58, 1.35967563443336048046e-01) (59, 7.44490680301028162624e-01) (60, 1.21871288799436849892e+00) (0, -6.77901470825867158432e-01) (1, 5.74414202278523022827e-01) (2, -1.61043405548184359599e-01) (3, -1.63477648064940417338e-01) (4, 5.64097338749007803926e-01) (5, -1.94783258618405863416e+00) (6, -6.75709027871021161715e-01) (7, -1.75279843436626697750e-01) (8, -4.57750165155479393775e-01) (9, -1.00196845302057191418e+00) (10, 8.08465525863495848569e-01) (11, 8.61885387745928488457e-01) (12, 1.02513797238213988372e+00) (13, 1.01119461312634917327e+00) (14, 3.57153501764877367997e-01) (15, 5.17719631283124148702e-01) (16, -1.83465004188585245615e+00) (17, 5.02842068946227072068e-03) (18, -3.13661443816570628673e-01) (19, -1.24064141194626248454e-01) (20, 2.20209819210406970713e-01) (21, 3.00001342796613501562e-01) (22, 9.81468938646641753110e-01) (23, 9.30386271623205862724e-01) (24, 9.19343564954828940117e-01) (25, 8.88449837539652342855e-01) (26, 1.30662020875052964364e-01) (27, -4.27214103850479420821e-01) (28, -5.96658130317667123599e-01) (29, -1.76055016432474009669e-01) (30, 6.28448060145909481733e-01) (31, -1.54846662793246681034e+00) (32, 2.19416856793151759941e-02) (33, 1.49592474130378627617e-02) (34, 2.49735560847358206704e-01) (35, 6.87409230774311597045e-01) (36, -8.66015570062561579334e-01) (37, 8.61955073026251517021e-01) (38, 9.96261772063803396904e-01) (39, 8.84656304851109354104e-01) (40, -1.49584366178631733568e+00) (41, -2.54792101563787676266e-01) (42, -6.69947378490856615407e-02) (43, -8.76550786350659971724e-02) (44, 2.51101809507436490865e-01) (45, 3.49648806220121066701e-01) (46, 3.12850813208479405780e-01) (47, 3.50909198461432036975e-01) (48, 6.61400565212635571655e-01) (49, -6.47353825816281203132e-01) (50, 9.50514161416260439097e-02) (51, 1.62874949180414008154e-01) (52, 8.98157835362282774838e-01) (53, 9.20680541840624533378e-01) (54, 9.95208781508040152275e-01) (55, -7.14854800392697442568e-02) (56, -6.76370164992852984653e+00) (57, -3.74619725259895508529e-01) (58, -8.31687666634735145443e-01) (59, -5.16289333376374504070e-01) (60, 3.33349879368317003614e-01) (0, 5.66598095715835303743e-01) (1, -8.47170390247470317391e-03) (2, -3.68371968306013486405e-01) (3, -9.05764698535660217615e-01) (4, -8.54010926531561853636e-01) (5, -8.96449145517441037256e-01) (6, 1.10383079157854446795e-01) (7, 9.71850190723745344101e-02) (8, 5.36523554746878961197e-01) (9, -1.06483465451065106855e+00) (10, -6.77505263774325960924e-01) (11, -6.40023938439627015917e-01) (12, -5.91451003275652253954e-01) (13, -3.96870153578258666460e-01) (14, 4.59316795465045335511e-01) (15, -2.19502760516887218678e-01) (16, -2.46157007421143880777e-01) (17, 8.01069075086549009512e-02) (18, 1.09175904965688297388e-01) (19, -1.92750694235835240420e-01) (20, 6.22585476860359199325e-02) (21, -9.05701516940373041464e-01) (22, -2.39739911491431367807e-01) (23, -2.65271863725730139283e-01) (24, -5.81769979618330324023e-01) (25, 1.26266660973566957615e+00) (26, -6.11116773836367865869e-01) (27, -1.37156883385410877096e-01) (28, 2.18694456388453084550e-01) (29, 6.21078328069261775823e-01) (30, -2.22179652239054115093e-01) (31, 3.13044030135308182228e-01) (32, -1.81249166521105342653e-01) (33, -2.57963636895690073825e-01) (34, -4.09628202230683413632e-01) (35, -5.02550191633456488915e-01) (36, -9.24512257371485679514e-01) (37, -5.79662314675588929980e-01) (38, -4.93622704468507977893e-01) (39, -2.59337393348811895422e-01) (40, -2.70636452265140325935e-01) (41, 6.99189203743195153429e-02) (42, -9.26658980101803253504e-01) (43, -7.87341519743660400721e-01) (44, -1.31822136012715196429e+00) (45, -3.49951061262822826770e-01) (46, -6.21692488960762346117e-01) (47, 5.12975093059249820371e-01) (48, 2.34063601983304447884e-01) (49, 5.59624712244718214293e-01) (50, -2.18056751862213821225e-02) (51, -9.73272858931798268145e-01) (52, -3.11383897299327028207e-01) (53, -1.85827991750785015412e-01) (54, -3.39200510265565968737e-01) (55, 1.03584857479834058225e+00) (56, -1.15592573211529270338e-02) (57, -1.79372759666672210166e-01) (58, 4.85260907113727935069e-01) (59, 9.58831720267007137082e-01) (60, 1.27762086498596239004e+00) (0, 1.05930900183953258242e+00) (1, 5.29316058463095817643e-01) (2, 1.35703695050206518680e-01) (3, -3.57889032224165626328e-01) (4, -1.28740226645415067885e-01) (5, 1.13543632147742057370e+00) (6, 1.57131362392212281520e+00) (7, 1.28528709089522363840e+00) (8, 1.73168068696007870777e+00) (9, -6.31172618078966185529e-02) (10, 6.27693254656573551564e-01) (11, 6.45670344072695745474e-02) (12, -1.69723023243144144345e-01) (13, -1.42118089825350546462e+00) (14, 7.17264716609759656052e-01) (15, 5.50534607759755711953e-01) (16, 1.28045212837577504494e+00) (17, 2.00137969660411041417e+00) (18, 5.96559677163279622469e-01) (19, 1.22366245000972795332e+00) (20, 3.74199357061700654814e-01) (21, 8.59097128634937257097e-01) (22, 6.06761515296479481130e-01) (23, 2.70198861288887759446e-01) (24, -2.76531323917106275356e-01) (25, -9.52894562639956643757e-01) (26, 1.82933413422420476646e-01) (27, 2.19018621883856745569e+00) (28, 1.74730806450275566455e+00) (29, 1.09370900549145311231e+00) (30, 6.62900775908077499743e-01) (31, 2.31025983286267200256e+00) (32, 1.32691285451397544826e+00) (33, 2.32260715232881498338e-01) (34, 3.12390719103168457149e-01) (35, -8.64475027613741953125e-02) (36, -2.21417445324767092618e-01) (37, -8.73385188653023059047e-02) (38, -1.14835285164311629025e-01) (39, 7.13079129821806767531e-01) (40, 1.43869961498255261034e+00) (41, 1.12850250396850659840e+00) (42, -2.07392451155844897981e-02) (43, -4.76241482654558845322e-01) (44, 2.70301424722363403674e-03) (45, -1.36500299749674969263e+00) (46, -1.17104124791815977780e-01) (47, 6.61378695820640682967e-01) (48, 4.82160033575338209388e-01) (49, 4.41728472136378003121e-01) (50, 2.50669922857598981292e-01) (51, 8.99856356804855317399e-01) (52, 6.47191073901435154347e-01) (53, 3.87627941916081963925e-01) (54, 1.14002108651848566012e-01) (55, -9.53460936031371941723e-01) (56, 1.60190405168732152852e+00) (57, 2.54378388256135190559e+00) (58, 1.94451720201229805163e+00) (59, 2.36787855077439512996e+00) (60, 1.01850689493218093951e+00) (0, 3.71284504379172819455e-01) (1, 3.57136904426501033960e-02) (2, -2.94924077597854050747e-01) (3, -1.67963347457177836208e-01) (4, -9.60392558764864845422e-02) (5, 1.58819927857031828466e+00) (6, 6.73365297704985321658e-01) (7, 4.61792776249592917814e-01) (8, 5.26670981623197587140e-01) (9, -3.39382025912266405143e-01) (10, 5.97737679980052671880e-01) (11, 7.20768160588014739076e-01) (12, 7.10789836413133757631e-01) (13, 8.05054649180639403383e-01) (14, 5.61366089739188667274e-02) (15, -8.50199059418751401651e-02) (16, 2.12045258988096230190e-01) (17, 5.36807677857218612516e-01) (18, 3.10653350888280777031e-01) (19, 4.47155130922936183691e-01) (20, 2.06063565032240103569e-01) (21, 2.03886741599848320128e-01) (22, 8.54782681208904215886e-01) (23, 9.42368822006454553986e-01) (24, 7.30320371157396452944e-01) (25, 1.43828186467159724327e-01) (26, -1.97862988628918046174e-01) (27, 7.66664214099653795742e-02) (28, 2.98977372454711176619e-01) (29, -1.89880670981923516116e-01) (30, 1.06320293421746692175e+00) (31, 1.28804057108918534880e+00) (32, 1.66585195375022199205e-01) (33, -3.38242091484771523202e-01) (34, -2.18273026329622921171e-01) (35, -1.60092091478878373323e-01) (36, -3.37419059902395956918e-01) (37, 6.24653202535538021323e-01) (38, 6.83019162209657970664e-01) (39, 2.05782567442580999195e-01) (40, 6.07597402593912372382e-01) (41, 2.68246044250019521904e-01) (42, -5.18511012174342589276e-01) (43, -5.80310918368552641766e-01) (44, 5.57019211574064643244e-01) (45, 1.21114438059525242330e+00) (46, 6.01703041287092510458e-01) (47, 8.61442716703465505290e-01) (48, 2.04412966199801759970e-02) (49, 2.52620426572699507961e-01) (50, 2.59763699190374619530e-01) (51, 1.42174998125841667296e-01) (52, 6.36294278106940947026e-01) (53, 8.40042074976434793854e-01) (54, 7.24805894709098952333e-01) (55, -1.27764876229563451027e-01) (56, 2.27750300843654729377e+00) (57, 1.45418035950780788479e-01) (58, 1.06397202390172740394e+00) (59, 1.14363977862382615314e+00) (60, 8.85796003158420219847e-01) (0, 2.62184427959847032863e-01) (1, 4.23678611490598377998e-01) (2, 3.87078893456330952461e-01) (3, 4.65159331870747538851e-01) (4, 3.84825145316792460726e-01) (5, -7.21448990820580249306e+00) (6, -1.79231487997046329275e-01) (7, 1.01268350945572294108e-01) (8, -2.38677176608885932563e-01) (9, -8.58011346529491625290e-01) (10, -3.40010590257289191385e-01) (11, 6.79571454664068680396e-02) (12, -3.89099145988625605419e-02) (13, 1.99974044070475420742e-01) (14, 4.91038320163078023661e-01) (15, 3.94949403676858601386e-01) (16, -3.53068567934511801099e-01) (17, 2.63641702012384904208e-01) (18, 3.29300390557611954989e-01) (19, 1.19324484974698052930e-01) (20, 3.92676646526479433685e-01) (21, -2.14530841306318276196e-01) (22, -2.89410225453021308084e-01) (23, 2.61994561956160387783e-01) (24, 2.05037458644144854336e-01) (25, 1.01365868101692346848e+00) (26, 5.78912867789769691740e-01) (27, 2.81027657912338746371e-01) (28, -4.48447058307431922763e-01) (29, 2.47459875420893427034e-01) (30, -1.14372591502778320205e+00) (31, -1.85910312040760195007e-01) (32, -2.30456042403003324992e-02) (33, 1.38812850183336555787e-01) (34, 3.45328808955082777743e-01) (35, 2.85604548725953755195e-01) (36, -5.12483697420910155884e-01) (37, 1.09594253196318672239e-01) (38, -4.40556208352250178173e-02) (39, -1.33674490738576179361e-01) (40, -6.57385386192016252238e-01) (41, -2.25829525698563571279e-01) (42, 4.64974959466329273994e-01) (43, 6.08239291792417091642e-01) (44, 6.98773007469058460295e-03) (45, 2.34950874336230797201e-02) (46, 1.31743592514594110021e-01) (47, -1.37724584668949684430e-02) (48, 3.72442361984124836738e-01) (49, 3.97968421395444638122e-01) (50, 3.24486168738031099945e-01) (51, -2.92091921762098305493e-01) (52, -2.58468128146769782205e-01) (53, 1.05642652914755705296e-01) (54, 1.98596454069845995694e-01) (55, 4.10678349343600479493e-01) (56, -4.60197180558867913192e+00) (57, 3.78324011341894639315e-01) (58, -5.77490014371852544706e-01) (59, 1.08289005410126759621e-01) (60, 4.50774153977741676158e-01) (0, -6.90893150232927966137e-02) (1, 5.04471538545629094585e-01) (2, 9.42821719857137807708e-01) (3, 4.35380259858672125084e-01) (4, 3.12587373543577462520e-01) (5, -1.12931810965531997937e+00) (6, -2.44245945254337515351e-01) (7, 3.18610186318887100843e-01) (8, -3.57650553653907632423e-01) (9, 8.06748040755759898701e-01) (10, 1.83135686624220639374e-01) (11, -3.23062281658106353888e-02) (12, 2.79943306396550628534e-02) (13, -1.00768506859725034963e-01) (14, 9.17789971931999293275e-01) (15, 4.27200043039375088050e-01) (16, 2.97703025819854999456e-02) (17, 1.35132892738256127352e-01) (18, 9.96274871205363732329e-01) (19, 3.65058815624900778740e-01) (20, 1.86490029536630685936e-01) (21, 4.40920611110810933830e-01) (22, -6.45175601943143162131e-03) (23, -1.11634855622654335927e-01) (24, -3.79903085549494479167e-02) (25, 4.52368599714246921728e-01) (26, 6.91488566244439661901e-01) (27, 3.06268979098796023663e-02) (28, 4.80056603395400793843e-01) (29, 7.82355796459556218636e-01) (30, -7.54378887604058440131e-02) (31, -5.31596865728319545319e-01) (32, 5.03088079348962380344e-01) (33, 1.05330816526275983236e+00) (34, 9.07633075970372127372e-01) (35, 9.66881149621885205292e-01) (36, 7.19650200203390655318e-01) (37, 4.68548793743199243345e-02) (38, -1.11326989119236982595e-01) (39, 5.83255236612374883265e-01) (40, 5.77429071535913163160e-01) (41, 3.60356511953524361047e-01) (42, 9.53998678537290478729e-01) (43, 7.05032731827179848239e-01) (44, -6.14313300301485565313e-02) (45, -7.76618163635187513938e-02) (46, 1.65935512736655299548e-01) (47, -1.08762515581467530956e-01) (48, 6.84496819675215029122e-01) (49, -7.15240416031084347281e-02) (50, 1.89638309620763834129e-01) (51, 3.54067129281644521477e-01) (52, -1.19051991285910999108e-01) (53, -9.86707671529106072894e-02) (54, -3.32324768950396087774e-02) (55, 3.18737386270517841780e-01) (56, -3.69863066616480518078e+00) (57, 5.43169353392123355206e-02) (58, 1.55137538956628295850e-01) (59, -7.31898901804873158738e-01) (60, -7.61002817888322136142e-02) (0, -7.02772534033239248963e-01) (1, -3.07794553287629668592e-01) (2, -3.26550229403345326773e-01) (3, 1.42709531663424704639e-01) (4, 1.82357205579902981185e-01) (5, -6.16335694356255237025e-01) (6, -3.60551834883787503117e-01) (7, 4.08804481638910144348e-01) (8, 7.51782020396962319397e-02) (9, 1.68059571422273346109e-01) (10, -1.57779277837262255080e-01) (11, -7.81106971907604696881e-02) (12, -1.52343133707611877448e-01) (13, -4.04613897350625140170e-01) (14, -1.65653623307144448606e-01) (15, -3.05660863466863219617e-01) (16, -1.46071011787295285123e-01) (17, 1.62884713705915618043e-01) (18, 1.63315771179732449614e-01) (19, 1.65464163444099532363e-01) (20, -4.57441230881196758684e-02) (21, -5.33073155047311120214e-01) (22, -1.76256255781636339552e-01) (23, -7.26910416869827935571e-01) (24, -2.29932474704905909224e-01) (25, 1.26961588542384595790e+00) (26, 8.42696341644557644912e-02) (27, 4.03037295586913951739e-02) (28, -6.54741779028766845983e-01) (29, -5.26878296054443251428e-02) (30, -7.46099897080008789274e-01) (31, -1.02819289722188567104e-01) (32, 1.73234376224668751298e-01) (33, 2.89714225964044003181e-01) (34, -1.31667353895327687852e-01) (35, 5.65605225048987914072e-02) (36, 4.47261639805833555172e-01) (37, -2.34750387324271225786e-01) (38, -2.94164993662834328703e-01) (39, -4.07836026099880677442e-01) (40, 1.47876837112595360679e-01) (41, -1.20189660493759398197e-01) (42, -1.53351807760707392614e-01) (43, -3.95782392502393498557e-01) (44, 2.26881771214000604875e-01) (45, -5.75318267199015687119e-01) (46, -3.17721829951076284448e-01) (47, -6.43494739557445294409e-01) (48, -4.00907692559365869123e-01) (49, -1.30957352417711642145e-01) (50, -8.49688259530050060686e-02) (51, -3.82646689029349840183e-01) (52, -1.58587487018094164259e-01) (53, -5.09947951825217460353e-01) (54, -3.12976005288287506545e-01) (55, 6.67785770197054651121e-01) (56, -1.08266698652493609245e+00) (57, -1.09066095119014272452e-01) (58, -5.24682340253507906169e-01) (59, -6.07525594677242875008e-01) (60, 7.19707636931730121432e-01) (0, 3.20350861617034077256e-01) (1, 4.19504115406748701034e-01) (2, 2.52448297117425224378e-01) (3, 2.77896328907511369621e-01) (4, 4.41974443992876275811e-01) (5, -1.82207571734672901798e+00) (6, 4.48566664451702012961e-01) (7, 5.74201234462292209315e-01) (8, 6.73455383608956625885e-01) (9, 7.19086859647859122369e-01) (10, -8.18592633219503484909e-01) (11, 4.93202954154340567072e-01) (12, 7.38764600607699994939e-01) (13, 5.78285611789552511652e-01) (14, 4.14959657393232483891e-01) (15, 5.89680311221288389056e-01) (16, 3.78027844911872912270e-02) (17, 6.77989254219693804338e-01) (18, 5.62270643579817486213e-01) (19, 1.24163177524986290123e+00) (20, 8.82205992325183485647e-01) (21, 6.32155479371865891558e-02) (22, -5.78302234467213405189e-02) (23, 9.49932815161400045945e-03) (24, 3.20126099697704558089e-01) (25, -1.16152588530502531849e-01) (26, 7.86334201553874123647e-01) 