FANN_FLO_2.1
num_layers=3
learning_rate=0.654014
connection_rate=1.000000
network_type=0
learning_momentum=0.000000
training_algorithm=2
train_error_function=1
train_stop_function=0
cascade_output_change_fraction=0.010000
quickprop_decay=-0.000081
quickprop_mu=1.468419
rprop_increase_factor=0.663872
rprop_decrease_factor=0.268778
rprop_delta_min=0.000000
rprop_delta_max=50.000000
rprop_delta_zero=0.100000
cascade_output_stagnation_epochs=12
cascade_candidate_change_fraction=0.005849
cascade_candidate_stagnation_epochs=12
cascade_max_out_epochs=150
cascade_min_out_epochs=50
cascade_max_cand_epochs=150
cascade_min_cand_epochs=50
cascade_num_candidate_groups=2
bit_fail_limit=3.49999999999999977796e-01
cascade_candidate_limit=1.36746241427747759190e+03
cascade_weight_multiplier=2.07546329293333997601e-01
cascade_activation_functions_count=10
cascade_activation_functions=3 5 7 8 10 11 14 15 16 17 
cascade_activation_steepnesses_count=4
cascade_activation_steepnesses=2.50000000000000000000e-01 5.00000000000000000000e-01 7.50000000000000000000e-01 1.00000000000000000000e+00 
layer_sizes=226 227 2 
scale_included=0
neurons (num_inputs, activation_function, activation_steepness)=(0, 0, 0.00000000000000000000e+00) (0, 0, 0.00000000000000000000e+00) (0, 0, 0.00000000000000000000e+00) (0, 0, 0.00000000000000000000e+00) (0, 0, 0.00000000000000000000e+00) (0, 0, 0.00000000000000000000e+00) (0, 0, 0.00000000000000000000e+00) (0, 0, 0.00000000000000000000e+00) (0, 0, 0.00000000000000000000e+00) (0, 0, 0.00000000000000000000e+00) (0, 0, 0.00000000000000000000e+00) (0, 0, 0.00000000000000000000e+00) (0, 0, 0.00000000000000000000e+00) (0, 0, 0.00000000000000000000e+00) (0, 0, 0.00000000000000000000e+00) (0, 0, 0.00000000000000000000e+00) (0, 0, 0.00000000000000000000e+00) (0, 0, 0.00000000000000000000e+00) (0, 0, 0.00000000000000000000e+00) (0, 0, 0.00000000000000000000e+00) (0, 0, 0.00000000000000000000e+00) (0, 0, 0.00000000000000000000e+00) (0, 0, 0.00000000000000000000e+00) (0, 0, 0.00000000000000000000e+00) (0, 0, 0.00000000000000000000e+00) (0, 0, 0.00000000000000000000e+00) (0, 0, 0.00000000000000000000e+00) (0, 0, 0.00000000000000000000e+00) (0, 0, 0.00000000000000000000e+00) (0, 0, 0.00000000000000000000e+00) (0, 0, 0.00000000000000000000e+00) (0, 0, 0.00000000000000000000e+00) (0, 0, 0.00000000000000000000e+00) (0, 0, 0.00000000000000000000e+00) (0, 0, 0.00000000000000000000e+00) (0, 0, 0.00000000000000000000e+00) (0, 0, 0.00000000000000000000e+00) (0, 0, 0.00000000000000000000e+00) (0, 0, 0.00000000000000000000e+00) (0, 0, 0.00000000000000000000e+00) (0, 0, 0.00000000000000000000e+00) (0, 0, 0.00000000000000000000e+00) (0, 0, 0.00000000000000000000e+00) (0, 0, 0.00000000000000000000e+00) (0, 0, 0.00000000000000000000e+00) (0, 0, 0.00000000000000000000e+00) (0, 0, 0.00000000000000000000e+00) (0, 0, 0.00000000000000000000e+00) (0, 0, 0.00000000000000000000e+00) (0, 0, 0.00000000000000000000e+00) (0, 0, 0.00000000000000000000e+00) (0, 0, 0.00000000000000000000e+00) (0, 0, 0.00000000000000000000e+00) (0, 0, 0.00000000000000000000e+00) (0, 0, 0.00000000000000000000e+00) (0, 0, 0.00000000000000000000e+00) (0, 0, 0.00000000000000000000e+00) (0, 0, 0.00000000000000000000e+00) (0, 0, 0.00000000000000000000e+00) (0, 0, 0.00000000000000000000e+00) (0, 0, 0.00000000000000000000e+00) (0, 0, 0.00000000000000000000e+00) (0, 0, 0.00000000000000000000e+00) (0, 0, 0.00000000000000000000e+00) (0, 0, 0.00000000000000000000e+00) (0, 0, 0.00000000000000000000e+00) (0, 0, 0.00000000000000000000e+00) (0, 0, 0.00000000000000000000e+00) (0, 0, 0.00000000000000000000e+00) (0, 0, 0.00000000000000000000e+00) (0, 0, 0.00000000000000000000e+00) (0, 0, 0.00000000000000000000e+00) (0, 0, 0.00000000000000000000e+00) (0, 0, 0.00000000000000000000e+00) (0, 0, 0.00000000000000000000e+00) (0, 0, 0.00000000000000000000e+00) (0, 0, 0.00000000000000000000e+00) (0, 0, 0.00000000000000000000e+00) (0, 0, 0.00000000000000000000e+00) (0, 0, 0.00000000000000000000e+00) (0, 0, 0.00000000000000000000e+00) (0, 0, 0.00000000000000000000e+00) (0, 0, 0.00000000000000000000e+00) (0, 0, 0.00000000000000000000e+00) (0, 0, 0.00000000000000000000e+00) (0, 0, 0.00000000000000000000e+00) (0, 0, 0.00000000000000000000e+00) (0, 0, 0.00000000000000000000e+00) (0, 0, 0.00000000000000000000e+00) (0, 0, 0.00000000000000000000e+00) (0, 0, 0.00000000000000000000e+00) (0, 0, 0.00000000000000000000e+00) (0, 0, 0.00000000000000000000e+00) (0, 0, 0.00000000000000000000e+00) (0, 0, 0.00000000000000000000e+00) (0, 0, 0.00000000000000000000e+00) (0, 0, 0.00000000000000000000e+00) (0, 0, 0.00000000000000000000e+00) (0, 0, 0.00000000000000000000e+00) (0, 0, 0.00000000000000000000e+00) (0, 0, 0.00000000000000000000e+00) (0, 0, 0.00000000000000000000e+00) (0, 0, 0.00000000000000000000e+00) (0, 0, 0.00000000000000000000e+00) (0, 0, 0.00000000000000000000e+00) (0, 0, 0.00000000000000000000e+00) (0, 0, 0.00000000000000000000e+00) (0, 0, 0.00000000000000000000e+00) (0, 0, 0.00000000000000000000e+00) (0, 0, 0.00000000000000000000e+00) (0, 0, 0.00000000000000000000e+00) (0, 0, 0.00000000000000000000e+00) (0, 0, 0.00000000000000000000e+00) (0, 0, 0.00000000000000000000e+00) (0, 0, 0.00000000000000000000e+00) (0, 0, 0.00000000000000000000e+00) (0, 0, 0.00000000000000000000e+00) (0, 0, 0.00000000000000000000e+00) (0, 0, 0.00000000000000000000e+00) (0, 0, 0.00000000000000000000e+00) (0, 0, 0.00000000000000000000e+00) (0, 0, 0.00000000000000000000e+00) (0, 0, 0.00000000000000000000e+00) (0, 0, 0.00000000000000000000e+00) (0, 0, 0.00000000000000000000e+00) (0, 0, 0.00000000000000000000e+00) (0, 0, 0.00000000000000000000e+00) (0, 0, 0.00000000000000000000e+00) (0, 0, 0.00000000000000000000e+00) (0, 0, 0.00000000000000000000e+00) (0, 0, 0.00000000000000000000e+00) (0, 0, 0.00000000000000000000e+00) (0, 0, 0.00000000000000000000e+00) (0, 0, 0.00000000000000000000e+00) (0, 0, 0.00000000000000000000e+00) (0, 0, 0.00000000000000000000e+00) (0, 0, 0.00000000000000000000e+00) (0, 0, 0.00000000000000000000e+00) (0, 0, 0.00000000000000000000e+00) (0, 0, 0.00000000000000000000e+00) (0, 0, 0.00000000000000000000e+00) (0, 0, 0.00000000000000000000e+00) (0, 0, 0.00000000000000000000e+00) (0, 0, 0.00000000000000000000e+00) (0, 0, 0.00000000000000000000e+00) (0, 0, 0.00000000000000000000e+00) (0, 0, 0.00000000000000000000e+00) (0, 0, 0.00000000000000000000e+00) (0, 0, 0.00000000000000000000e+00) (0, 0, 0.00000000000000000000e+00) (0, 0, 0.00000000000000000000e+00) (0, 0, 0.00000000000000000000e+00) (0, 0, 0.00000000000000000000e+00) (0, 0, 0.00000000000000000000e+00) (0, 0, 0.00000000000000000000e+00) (0, 0, 0.00000000000000000000e+00) (0, 0, 0.00000000000000000000e+00) (0, 0, 0.00000000000000000000e+00) (0, 0, 0.00000000000000000000e+00) (0, 0, 0.00000000000000000000e+00) (0, 0, 0.00000000000000000000e+00) (0, 0, 0.00000000000000000000e+00) (0, 0, 0.00000000000000000000e+00) (0, 0, 0.00000000000000000000e+00) (0, 0, 0.00000000000000000000e+00) (0, 0, 0.00000000000000000000e+00) (0, 0, 0.00000000000000000000e+00) (0, 0, 0.00000000000000000000e+00) (0, 0, 0.00000000000000000000e+00) (0, 0, 0.00000000000000000000e+00) (0, 0, 0.00000000000000000000e+00) (0, 0, 0.00000000000000000000e+00) (0, 0, 0.00000000000000000000e+00) (0, 0, 0.00000000000000000000e+00) (0, 0, 0.00000000000000000000e+00) (0, 0, 0.00000000000000000000e+00) (0, 0, 0.00000000000000000000e+00) (0, 0, 0.00000000000000000000e+00) (0, 0, 0.00000000000000000000e+00) (0, 0, 0.00000000000000000000e+00) (0, 0, 0.00000000000000000000e+00) (0, 0, 0.00000000000000000000e+00) (0, 0, 0.00000000000000000000e+00) (0, 0, 0.00000000000000000000e+00) (0, 0, 0.00000000000000000000e+00) (0, 0, 0.00000000000000000000e+00) (0, 0, 0.00000000000000000000e+00) (0, 0, 0.00000000000000000000e+00) (0, 0, 0.00000000000000000000e+00) (0, 0, 0.00000000000000000000e+00) (0, 0, 0.00000000000000000000e+00) (0, 0, 0.00000000000000000000e+00) (0, 0, 0.00000000000000000000e+00) (0, 0, 0.00000000000000000000e+00) (0, 0, 0.00000000000000000000e+00) (0, 0, 0.00000000000000000000e+00) (0, 0, 0.00000000000000000000e+00) (0, 0, 0.00000000000000000000e+00) (0, 0, 0.00000000000000000000e+00) (0, 0, 0.00000000000000000000e+00) (0, 0, 0.00000000000000000000e+00) (0, 0, 0.00000000000000000000e+00) (0, 0, 0.00000000000000000000e+00) (0, 0, 0.00000000000000000000e+00) (0, 0, 0.00000000000000000000e+00) (0, 0, 0.00000000000000000000e+00) (0, 0, 0.00000000000000000000e+00) (0, 0, 0.00000000000000000000e+00) (0, 0, 0.00000000000000000000e+00) (0, 0, 0.00000000000000000000e+00) (0, 0, 0.00000000000000000000e+00) (0, 0, 0.00000000000000000000e+00) (0, 0, 0.00000000000000000000e+00) (0, 0, 0.00000000000000000000e+00) (0, 0, 0.00000000000000000000e+00) (0, 0, 0.00000000000000000000e+00) (0, 0, 0.00000000000000000000e+00) (0, 0, 0.00000000000000000000e+00) (0, 0, 0.00000000000000000000e+00) (0, 0, 0.00000000000000000000e+00) (0, 0, 0.00000000000000000000e+00) (0, 0, 0.00000000000000000000e+00) (0, 0, 0.00000000000000000000e+00) (0, 0, 0.00000000000000000000e+00) (0, 0, 0.00000000000000000000e+00) (0, 0, 0.00000000000000000000e+00) (226, 5, 5.00000000000000000000e-01) (226, 5, 5.00000000000000000000e-01) (226, 5, 5.00000000000000000000e-01) (226, 5, 5.00000000000000000000e-01) (226, 5, 5.00000000000000000000e-01) (226, 5, 5.00000000000000000000e-01) (226, 5, 5.00000000000000000000e-01) (226, 5, 5.00000000000000000000e-01) (226, 5, 5.00000000000000000000e-01) (226, 5, 5.00000000000000000000e-01) (226, 5, 5.00000000000000000000e-01) (226, 5, 5.00000000000000000000e-01) (226, 5, 5.00000000000000000000e-01) (226, 5, 5.00000000000000000000e-01) (226, 5, 5.00000000000000000000e-01) (226, 5, 5.00000000000000000000e-01) (226, 5, 5.00000000000000000000e-01) (226, 5, 5.00000000000000000000e-01) (226, 5, 5.00000000000000000000e-01) (226, 5, 5.00000000000000000000e-01) (226, 5, 5.00000000000000000000e-01) (226, 5, 5.00000000000000000000e-01) (226, 5, 5.00000000000000000000e-01) (226, 5, 5.00000000000000000000e-01) (226, 5, 5.00000000000000000000e-01) (226, 5, 5.00000000000000000000e-01) (226, 5, 5.00000000000000000000e-01) (226, 5, 5.00000000000000000000e-01) (226, 5, 5.00000000000000000000e-01) (226, 5, 5.00000000000000000000e-01) (226, 5, 5.00000000000000000000e-01) (226, 5, 5.00000000000000000000e-01) (226, 5, 5.00000000000000000000e-01) (226, 5, 5.00000000000000000000e-01) (226, 5, 5.00000000000000000000e-01) (226, 5, 5.00000000000000000000e-01) (226, 5, 5.00000000000000000000e-01) (226, 5, 5.00000000000000000000e-01) (226, 5, 5.00000000000000000000e-01) (226, 5, 5.00000000000000000000e-01) (226, 5, 5.00000000000000000000e-01) (226, 5, 5.00000000000000000000e-01) (226, 5, 5.00000000000000000000e-01) (226, 5, 5.00000000000000000000e-01) (226, 5, 5.00000000000000000000e-01) (226, 5, 5.00000000000000000000e-01) (226, 5, 5.00000000000000000000e-01) (226, 5, 5.00000000000000000000e-01) (226, 5, 5.00000000000000000000e-01) (226, 5, 5.00000000000000000000e-01) (226, 5, 5.00000000000000000000e-01) (226, 5, 5.00000000000000000000e-01) (226, 5, 5.00000000000000000000e-01) (226, 5, 5.00000000000000000000e-01) (226, 5, 5.00000000000000000000e-01) (226, 5, 5.00000000000000000000e-01) (226, 5, 5.00000000000000000000e-01) (226, 5, 5.00000000000000000000e-01) (226, 5, 5.00000000000000000000e-01) (226, 5, 5.00000000000000000000e-01) (226, 5, 5.00000000000000000000e-01) (226, 5, 5.00000000000000000000e-01) (226, 5, 5.00000000000000000000e-01) (226, 5, 5.00000000000000000000e-01) (226, 5, 5.00000000000000000000e-01) (226, 5, 5.00000000000000000000e-01) (226, 5, 5.00000000000000000000e-01) (226, 5, 5.00000000000000000000e-01) (226, 5, 5.00000000000000000000e-01) (226, 5, 5.00000000000000000000e-01) (226, 5, 5.00000000000000000000e-01) (226, 5, 5.00000000000000000000e-01) (226, 5, 5.00000000000000000000e-01) (226, 5, 5.00000000000000000000e-01) (226, 5, 5.00000000000000000000e-01) (226, 5, 5.00000000000000000000e-01) (226, 5, 5.00000000000000000000e-01) (226, 5, 5.00000000000000000000e-01) (226, 5, 5.00000000000000000000e-01) (226, 5, 5.00000000000000000000e-01) (226, 5, 5.00000000000000000000e-01) (226, 5, 5.00000000000000000000e-01) (226, 5, 5.00000000000000000000e-01) (226, 5, 5.00000000000000000000e-01) (226, 5, 5.00000000000000000000e-01) (226, 5, 5.00000000000000000000e-01) (226, 5, 5.00000000000000000000e-01) (226, 5, 5.00000000000000000000e-01) (226, 5, 5.00000000000000000000e-01) (226, 5, 5.00000000000000000000e-01) (226, 5, 5.00000000000000000000e-01) (226, 5, 5.00000000000000000000e-01) (226, 5, 5.00000000000000000000e-01) (226, 5, 5.00000000000000000000e-01) (226, 5, 5.00000000000000000000e-01) (226, 5, 5.00000000000000000000e-01) (226, 5, 5.00000000000000000000e-01) (226, 5, 5.00000000000000000000e-01) (226, 5, 5.00000000000000000000e-01) (226, 5, 5.00000000000000000000e-01) (226, 5, 5.00000000000000000000e-01) (226, 5, 5.00000000000000000000e-01) (226, 5, 5.00000000000000000000e-01) (226, 5, 5.00000000000000000000e-01) (226, 5, 5.00000000000000000000e-01) (226, 5, 5.00000000000000000000e-01) (226, 5, 5.00000000000000000000e-01) (226, 5, 5.00000000000000000000e-01) (226, 5, 5.00000000000000000000e-01) (226, 5, 5.00000000000000000000e-01) (226, 5, 5.00000000000000000000e-01) (226, 5, 5.00000000000000000000e-01) (226, 5, 5.00000000000000000000e-01) (226, 5, 5.00000000000000000000e-01) (226, 5, 5.00000000000000000000e-01) (226, 5, 5.00000000000000000000e-01) (226, 5, 5.00000000000000000000e-01) (226, 5, 5.00000000000000000000e-01) (226, 5, 5.00000000000000000000e-01) (226, 5, 5.00000000000000000000e-01) (226, 5, 5.00000000000000000000e-01) (226, 5, 5.00000000000000000000e-01) (226, 5, 5.00000000000000000000e-01) (226, 5, 5.00000000000000000000e-01) (226, 5, 5.00000000000000000000e-01) (226, 5, 5.00000000000000000000e-01) (226, 5, 5.00000000000000000000e-01) (226, 5, 5.00000000000000000000e-01) (226, 5, 5.00000000000000000000e-01) (226, 5, 5.00000000000000000000e-01) (226, 5, 5.00000000000000000000e-01) (226, 5, 5.00000000000000000000e-01) (226, 5, 5.00000000000000000000e-01) (226, 5, 5.00000000000000000000e-01) (226, 5, 5.00000000000000000000e-01) (226, 5, 5.00000000000000000000e-01) (226, 5, 5.00000000000000000000e-01) (226, 5, 5.00000000000000000000e-01) (226, 5, 5.00000000000000000000e-01) (226, 5, 5.00000000000000000000e-01) (226, 5, 5.00000000000000000000e-01) (226, 5, 5.00000000000000000000e-01) (226, 5, 5.00000000000000000000e-01) (226, 5, 5.00000000000000000000e-01) (226, 5, 5.00000000000000000000e-01) (226, 5, 5.00000000000000000000e-01) (226, 5, 5.00000000000000000000e-01) (226, 5, 5.00000000000000000000e-01) (226, 5, 5.00000000000000000000e-01) (226, 5, 5.00000000000000000000e-01) (226, 5, 5.00000000000000000000e-01) (226, 5, 5.00000000000000000000e-01) (226, 5, 5.00000000000000000000e-01) (226, 5, 5.00000000000000000000e-01) (226, 5, 5.00000000000000000000e-01) (226, 5, 5.00000000000000000000e-01) (226, 5, 5.00000000000000000000e-01) (226, 5, 5.00000000000000000000e-01) (226, 5, 5.00000000000000000000e-01) (226, 5, 5.00000000000000000000e-01) (226, 5, 5.00000000000000000000e-01) (226, 5, 5.00000000000000000000e-01) (226, 5, 5.00000000000000000000e-01) (226, 5, 5.00000000000000000000e-01) (226, 5, 5.00000000000000000000e-01) (226, 5, 5.00000000000000000000e-01) (226, 5, 5.00000000000000000000e-01) (226, 5, 5.00000000000000000000e-01) (226, 5, 5.00000000000000000000e-01) (226, 5, 5.00000000000000000000e-01) (226, 5, 5.00000000000000000000e-01) (226, 5, 5.00000000000000000000e-01) (226, 5, 5.00000000000000000000e-01) (226, 5, 5.00000000000000000000e-01) (226, 5, 5.00000000000000000000e-01) (226, 5, 5.00000000000000000000e-01) (226, 5, 5.00000000000000000000e-01) (226, 5, 5.00000000000000000000e-01) (226, 5, 5.00000000000000000000e-01) (226, 5, 5.00000000000000000000e-01) (226, 5, 5.00000000000000000000e-01) (226, 5, 5.00000000000000000000e-01) (226, 5, 5.00000000000000000000e-01) (226, 5, 5.00000000000000000000e-01) (226, 5, 5.00000000000000000000e-01) (226, 5, 5.00000000000000000000e-01) (226, 5, 5.00000000000000000000e-01) (226, 5, 5.00000000000000000000e-01) (226, 5, 5.00000000000000000000e-01) (226, 5, 5.00000000000000000000e-01) (226, 5, 5.00000000000000000000e-01) (226, 5, 5.00000000000000000000e-01) (226, 5, 5.00000000000000000000e-01) (226, 5, 5.00000000000000000000e-01) (226, 5, 5.00000000000000000000e-01) (226, 5, 5.00000000000000000000e-01) (226, 5, 5.00000000000000000000e-01) (226, 5, 5.00000000000000000000e-01) (226, 5, 5.00000000000000000000e-01) (226, 5, 5.00000000000000000000e-01) (226, 5, 5.00000000000000000000e-01) (226, 5, 5.00000000000000000000e-01) (226, 5, 5.00000000000000000000e-01) (226, 5, 5.00000000000000000000e-01) (226, 5, 5.00000000000000000000e-01) (226, 5, 5.00000000000000000000e-01) (226, 5, 5.00000000000000000000e-01) (226, 5, 5.00000000000000000000e-01) (226, 5, 5.00000000000000000000e-01) (226, 5, 5.00000000000000000000e-01) (226, 5, 5.00000000000000000000e-01) (226, 5, 5.00000000000000000000e-01) (226, 5, 5.00000000000000000000e-01) (226, 5, 5.00000000000000000000e-01) (226, 5, 5.00000000000000000000e-01) (226, 5, 5.00000000000000000000e-01) (226, 5, 5.00000000000000000000e-01) (226, 5, 5.00000000000000000000e-01) (226, 5, 5.00000000000000000000e-01) (226, 5, 5.00000000000000000000e-01) (226, 5, 5.00000000000000000000e-01) (226, 5, 5.00000000000000000000e-01) (226, 5, 5.00000000000000000000e-01) (226, 5, 5.00000000000000000000e-01) (226, 5, 5.00000000000000000000e-01) (226, 5, 5.00000000000000000000e-01) (0, 5, 0.00000000000000000000e+00) (227, 5, 5.00000000000000000000e-01) (0, 5, 0.00000000000000000000e+00) 
connections (connected_to_neuron, weight)=(0, 4.29831991140092878334e-03) (1, 8.47479758839027041972e-02) (2, 1.26839661900105249437e+00) (3, 1.72475791147804069503e+00) (4, 1.72726943457598891563e+00) (5, 1.33468620837206874974e+00) (6, 1.49458635353424429404e+00) (7, 1.75844686173215780656e+00) (8, 2.47245172909447141762e+00) (9, 2.48793950698622623463e+00) (10, 2.96639371994397027521e+00) (11, 2.71537836710610802626e+00) (12, 2.76417767576529005424e+00) (13, 1.96749139517748306005e+00) (14, 2.07802643412432574976e+00) (15, 1.65966129115304150687e+00) (16, 4.04555505081432620340e-01) (17, -5.41118442313861525150e-01) (18, 6.27955179884069347729e-01) (19, 2.34644146960870925156e+00) (20, 2.36738095074844201449e+00) (21, 1.37161799302687570368e+00) (22, 7.41093186700865103056e-01) (23, 1.28787078008630362369e+00) (24, 2.04074272822027946717e+00) (25, 2.11663877746817563619e+00) (26, 1.96758777512423987943e+00) (27, 1.94384794546477812638e+00) (28, 1.97176893300902333905e+00) (29, 1.57698397441902193883e+00) (30, 1.59853018634580856805e+00) (31, 1.50791401977461281270e+00) (32, 1.13768682835918699681e+00) (33, 1.59089527759144355734e+00) (34, 1.60321911159346153219e+00) (35, 9.14288348882653423289e-01) (36, 8.58450168323696027883e-01) (37, 9.60599246533227701939e-01) (38, 9.44102735828502348525e-01) (39, 6.90056126471296771285e-01) (40, 6.76269148969962374807e-01) (41, 6.89556877966658099410e-01) (42, 4.81974735088095351809e-01) (43, -7.41873382702741279715e-02) (44, -1.32853307695641659203e-01) (45, -2.16057435072096293283e-01) (46, -1.05202521661619197157e-01) (47, 3.41704429451148483654e-01) (48, 2.55917737891370733472e-01) (49, 8.74236013386015531346e-01) (50, -2.38235850381585900770e-01) (51, 7.48289571504089090492e-02) (52, 1.20439593304532110984e+00) (53, 1.35317373587630673804e+00) (54, 1.51932772827512940772e+00) (55, 1.67985102601404689970e+00) (56, 2.00370677108394534827e+00) (57, 1.86950972909566059954e+00) (58, 2.08646622818238247632e+00) (59, 2.75598759909733903584e+00) (60, 3.23273327534693022400e+00) (61, 3.42803884164477512542e+00) (62, 3.25764224547768632689e+00) (63, 2.93029169540948464245e+00) (64, 3.46163721567338011909e+00) (65, 2.13706136650411027134e+00) (66, 4.79594809646034736517e+00) (67, 8.11383060471225192600e+00) (68, 3.12307895523584155839e+00) (69, 3.13771038077462582905e+00) (70, 2.14307350806173735336e+00) (71, 1.50058396248051217903e+00) (72, 1.22196571045928803478e+00) (73, 1.50727454729354204410e+00) (74, 5.24604482744093325586e-01) (75, 3.10084601041877905292e-01) (76, 1.69579516811074682003e+00) (77, 2.00008229365028666891e+00) (78, 1.65072546953818677373e+00) (79, 1.89865756073470648424e+00) (80, 1.16563944843528477513e+00) (81, 1.02962554225745206438e+00) (82, 1.21446906380421193461e+00) (83, 9.17467531752913401100e-01) (84, 9.05312629642462174395e-01) (85, 1.55432441847919267097e+00) (86, 1.77796214302232580273e+00) (87, 1.90103100336685870708e+00) (88, 1.07881092368822795180e+00) (89, 1.16798990807089109190e+00) (90, 1.15962221315655011900e+00) (91, 1.12385042226466524973e+00) (92, 8.60940143346718311790e-01) (93, 2.14725581431150586154e-01) (94, 2.68586122357609091704e-01) (95, 2.09560519582604493083e-01) (96, 2.13802885474755927087e-01) (97, -8.20826019386475702611e-01) (98, -3.66850362581361666425e-01) (99, 8.50280952856306559973e-01) (100, -5.13259724678430839795e-01) (101, -1.06300231491353536217e-01) (102, 5.99558862950146043147e-01) (103, 1.51816768986538064290e+00) (104, 1.43159743093199609554e+00) (105, 1.54127231545497811460e+00) (106, 1.64469775177586496895e+00) (107, 1.54465004836497898921e+00) (108, 2.83445283850265150605e+00) (109, 2.94177222741498667347e+00) (110, 3.40179872396575744276e+00) (111, 4.02932944354894662098e+00) (112, 4.09857277031046063343e+00) (113, 4.45259761510588436551e+00) (114, 3.85749214932494854935e+00) (115, 2.20094060310881411979e+00) (116, 1.51058280960374635704e+00) (117, 1.54496822336506696161e+01) (118, 4.16128553190027883346e+00) (119, 2.55674265486677132486e+00) (120, 3.43500246791272889624e+00) (121, 1.65952253796983151268e+00) (122, 1.42144922067005619049e+00) (123, 3.71576988296585197791e-01) (124, -1.36416336582933106492e+00) (125, 5.33779292798878701731e-01) (126, 1.60126873193733088030e+00) (127, 2.12300542761695965055e+00) (128, 2.14637184488666354909e+00) (129, 1.90324822967391527051e+00) (130, 5.26339363809645743864e-01) (131, 2.70188611621473617763e-01) (132, -1.94227822902910685077e-01) (133, -8.37082627677932289423e-01) (134, -4.17118237956604964722e-01) (135, 9.98774544723683432856e-01) (136, 1.64172951345226025843e+00) (137, 1.44637850749883578594e+00) (138, 1.65293568048830841200e+00) (139, 1.24429808739074521107e+00) (140, 1.20413902550586482398e+00) (141, 1.08817097080305713597e+00) (142, 8.05843020484160343919e-01) (143, 2.65091323792698341233e-01) (144, 1.92114514291048393835e-01) (145, 1.77625756377598614799e-01) (146, -1.99950211207016659287e+00) (147, -1.95350589683479292091e+00) (148, -1.82581871083206137563e+00) (149, 9.87318543002372428496e-01) (150, -2.03664856126148796633e+00) (151, 4.38970339466503123305e+00) (152, 5.99192864043850992317e+00) (153, 2.82709538596946918787e+00) (154, 5.54619444944031703137e-01) (155, 2.44936579840398049868e+00) (156, 2.44915773502415667906e+00) (157, 3.35297430131201545933e+00) (158, 2.78068157033502982856e+00) (159, 2.72299302013328992089e+00) (160, 2.42100577335703359694e+00) (161, 1.51492533576372845339e+00) (162, 1.04168306299548496519e+00) (163, 1.05697233671896628771e+00) (164, 4.96463919888723514973e-01) (165, 6.91721739729006079855e-01) (166, 8.47652607542796809881e-01) (167, 8.80747304410262277230e-01) (168, 1.21135112070011685681e+00) (169, 9.57753810673856675884e-01) (170, 8.83871170178856857547e-01) (171, 7.36636202992547950430e-01) (172, 7.54358707280824214436e-01) (173, 8.42243129672477053305e-01) (174, -2.02432603444016090410e-01) (175, -3.58465891364907163208e+00) (176, -1.72123314104625513288e+00) (177, -1.01631230489238832959e+00) (178, 4.65193406074783322168e+00) (179, 1.75977861296708781857e+00) (180, 3.25417577112518197069e+00) (181, 2.91927292119806347515e+00) (182, 3.18339479919448287148e+00) (183, 3.24253030960453481057e+00) (184, 5.53825744823245980086e+00) (185, 4.20923024973097614776e+00) (186, 1.60383696137593267927e+00) (187, 1.14736003405556097334e+00) (188, 8.62171633053845698491e-01) (189, 4.47739509411996416954e-01) (190, 3.21752077041537520863e-01) (191, 4.02365308481708816579e-01) (192, 2.50025964385535037771e-01) (193, 1.35574014907856421619e-01) (194, 6.14587789457805788729e-01) (195, 7.51886776535930168031e-01) (196, 6.59502054291028927402e-01) (197, 7.18722568433855957259e-01) (198, 8.03811458066182482618e-01) (199, 1.81808858644723597697e-01) (200, -1.27492720341599752309e-01) (201, 7.51161346608343188924e-02) (202, -3.58453872451870214633e+00) (203, -2.00897457803552592637e+00) (204, 2.69211733717121282083e+00) (205, 3.73219381617389167616e+00) (206, 5.02659175374445243989e+00) (207, 5.29568565362267928975e+00) (208, 5.15398550960912249508e+00) (209, 4.26724510409722146420e+00) (210, 2.53176979047330252826e+00) (211, 1.43094329316574708777e+00) (212, 1.31659616921747635310e+00) (213, 5.67909632271141107118e-01) (214, 2.01362008170552081454e-01) (215, 2.79609167890021659275e-01) (216, 2.51376308801495917944e-01) (217, 3.63527014567823714142e-01) (218, -5.06808050996521639031e-02) (219, 5.93103057616495427107e-02) (220, 2.87323094656771194089e-01) (221, 3.20288978269404112087e-01) (222, 1.77671268334688742252e-01) (223, 2.02010247608724463619e-01) (224, 3.05443036001126488888e-01) (225, -6.25368461733618596909e-02) (0, 3.68212306526898780490e+00) (1, 3.65142040443954796203e+00) (2, 3.51222274961654257197e+00) (3, 3.39987675463995397962e+00) (4, 3.45672638972622126019e+00) (5, 3.44336004346346369331e+00) (6, 3.82502885586189966816e+00) (7, 3.56801072652409168029e+00) (8, 2.73495227205725566222e+00) (9, 2.52002263196617226626e+00) (10, 2.32831844596649872869e+00) (11, 3.03293418206994624953e+00) (12, 3.21380794173083694787e+00) (13, 3.71841854599011556459e+00) (14, 3.93469064581657068658e+00) (15, 3.75396930050939658940e+00) (16, 3.88042357589217568048e+00) (17, 4.36203665378936999986e+00) (18, 4.30642573809848716593e+00) (19, 3.06593115146806827198e+00) (20, 2.94711827432172546182e+00) (21, 2.96153318510128382712e+00) (22, 2.59120591671689437518e+00) (23, 3.07668146494263217150e+00) (24, 3.05180622907993326365e+00) (25, 3.16209396161350708709e+00) (26, 3.02495672021724493206e+00) (27, 3.14045892885162292174e+00) (28, 3.10534285619470029616e+00) (29, 3.55863536270847280463e+00) (30, 3.48042819481348164601e+00) (31, 3.39699112999744023966e+00) (32, 3.35643423724479283976e+00) (33, 3.19984855031014037152e+00) (34, 3.05231143434882712384e+00) (35, 3.43840043283744378755e+00) (36, 3.34046302772803782588e+00) (37, 3.33706082845874885123e+00) (38, 3.39271714235492805045e+00) (39, 3.19009522721328098172e+00) (40, 3.08307176726079479323e+00) (41, 3.09826287254847887453e+00) (42, 3.26211622032175130315e+00) (43, 3.86643598645928143753e+00) (44, 3.74610117328168090722e+00) (45, 3.84823208619357615135e+00) (46, 3.82123644959247599218e+00) (47, 3.70459705735227062817e+00) (48, 3.71045046845315074080e+00) (49, 3.10961284411734206756e+00) (50, 3.78229907681045540713e+00) (51, 3.80794253199076093708e+00) (52, 3.40469057622138526753e+00) (53, 3.81058557345491655255e+00) (54, 3.95621966652438228351e+00) (55, 3.80050028829007624509e+00) (56, 3.76958905289594037313e+00) (57, 3.86114442679048286422e+00) (58, 3.52673900180622812428e+00) (59, 3.41882893877108573477e+00) (60, 3.62396430583785544854e+00) (61, 4.30457454064732569776e+00) (62, 3.81401833361903808139e+00) (63, 3.92903603972746573447e+00) (64, 3.81942002695222404540e+00) (65, 4.17543663300564826812e+00) (66, 4.62556926745843366433e+00) (67, 4.83027628811453713098e+00) (68, 4.66593825925739036364e+00) (69, 3.60259589138225688743e+00) (70, 3.33888944512858065750e+00) (71, 2.44046536015618231730e+00) (72, 2.83371575654658602872e+00) (73, 3.65884092365646962364e+00) (74, 3.79927363564425002451e+00) (75, 3.85939934913510951375e+00) (76, 2.91218511329945650701e+00) (77, 2.95257567136782794748e+00) (78, 3.03704283987980172554e+00) (79, 3.09150997735771637664e+00) (80, 3.45292074363514478463e+00) (81, 3.64852987957405572317e+00) (82, 3.69410867640111373333e+00) (83, 3.77099788222937526427e+00) (84, 3.84316198141382070474e+00) (85, 2.68349774326268830649e+00) (86, 2.77794595567461266583e+00) (87, 2.83169103310636716131e+00) (88, 3.38624988255392134207e+00) (89, 3.11174813183165088759e+00) (90, 3.06890842216229975392e+00) (91, 3.26187637346005887551e+00) (92, 3.07949788543234026506e+00) (93, 3.92308722603323856148e+00) (94, 3.91856305146219918711e+00) (95, 3.97335801863672966050e+00) (96, 3.99836700636892228289e+00) (97, 4.28861496772948580514e+00) (98, 4.29349845536270979807e+00) (99, 3.34736185401266395090e+00) (100, 4.01220342049744882473e+00) (101, 3.92545959360168383867e+00) (102, 3.59666212312520672256e+00) (103, 3.84856972180172896003e+00) (104, 4.14187359440674018884e+00) (105, 4.09141161661776120440e+00) (106, 3.60529765335742080623e+00) (107, 3.63485330278616869393e+00) (108, 3.25340635572497083317e+00) (109, 2.99192643526382706654e+00) (110, 3.59370209630690462532e+00) (111, 3.93490722425500782933e+00) (112, 4.22273139229636829128e+00) (113, 4.33465589453657518249e+00) (114, 4.76502957337667876203e+00) (115, 4.60486976378281642752e+00) (116, 4.96269055709885886785e+00) (117, 7.01715251986411470142e+00) (118, 5.44696835657419153875e+00) (119, 3.72947700899539258401e+00) (120, 3.43212487077965455740e+00) (121, 3.15395212211027420324e+00) (122, 3.53561065331522561550e+00) (123, 4.49942659748170026290e+00) (124, 5.56518903327802316738e+00) (125, 5.05192630475831538917e+00) (126, 3.61637029609328752855e+00) (127, 2.80485872857821316728e+00) (128, 3.01163682284509004461e+00) (129, 3.16409982407238787872e+00) (130, 4.31042057479473239567e+00) (131, 5.85331382255583054786e+00) (132, 5.69005147729057636496e+00) (133, 5.46519314345879880790e+00) (134, 4.78266458390228077491e+00) (135, 3.65122892227185991132e+00) (136, 2.84290994929163032268e+00) (137, 2.82991047649942517594e+00) (138, 2.99270939705752248017e+00) (139, 3.34243758859322781518e+00) (140, 3.33359283629965741369e+00) (141, 3.31665280298209630416e+00) (142, 3.25468306191466671962e+00) (143, 3.96778534140590011248e+00) (144, 3.93732615240083827501e+00) (145, 3.86322094305535701508e+00) (146, 4.54976091462058906956e+00) (147, 4.69748087338342568131e+00) (148, 4.66278892866506478043e+00) (149, 3.21667644261902196945e+00) (150, 5.13107766936907250255e+00) (151, -6.09960825436081544026e-01) (152, -3.65271084546548285843e+00) (153, -7.83485452816310712354e-02) (154, 3.18950551787755687272e+00) (155, 2.38384520142849432034e+00) (156, 2.89458299812450858823e+00) (157, 3.01425796255376132748e+00) (158, 3.09250899652785582461e+00) (159, 2.88895720456075633109e+00) (160, 3.03523179524340847024e+00) (161, 3.00857580652020351053e+00) (162, 3.97035052615381545138e+00) (163, 4.10038626409621809188e+00) (164, 4.07423132296250134488e+00) (165, 4.04315891249821479647e+00) (166, 4.10842170036883924666e+00) (167, 4.12761602271647998208e+00) (168, 3.56140964938254667160e+00) (169, 3.50502220005841591544e+00) (170, 3.50132025705393479242e+00) (171, 3.59578263686712951142e+00) (172, 3.43931296781589246336e+00) (173, 3.08420208801021278333e+00) (174, 3.84848979254963552421e+00) (175, 6.41436810344783037152e+00) (176, 2.27548771012664285962e+00) (177, 1.26081029353392874981e+01) (178, -2.30102282779271316571e+00) (179, 2.36408790564924453648e+00) (180, 2.22817831010376465883e+00) (181, 3.02264788509769832814e+00) (182, 3.21893783915010756047e+00) (183, 3.73408870095469325179e+00) (184, 3.56811432381564408445e+00) (185, 3.79151944548711172800e+00) (186, 3.60030258499880595480e+00) (187, 3.54783117914065426746e+00) (188, 3.83965632284254665407e+00) (189, 4.38139000978553294630e+00) (190, 4.20401209051692159591e+00) (191, 4.32617607634150491691e+00) (192, 4.38672875468779199792e+00) (193, 4.26417924374390100439e+00) (194, 3.78873939504671541911e+00) (195, 3.90120226858902707789e+00) (196, 3.91011436535168677153e+00) (197, 3.66209383202117999545e+00) (198, 3.41154837147218703564e+00) (199, 3.75726740100386713550e+00) (200, 2.46417566525797449017e+00) (201, 1.87218682553593263052e+00) (202, 8.84295882826484991313e+00) (203, 1.72691450648860076456e+01) (204, 3.14906861035722007713e+00) (205, 1.70867641435284878249e+00) (206, 3.16037149050230592451e+00) (207, 3.51384245562913388738e+00) (208, 3.67135048679437625552e+00) (209, 3.65056183034881254201e+00) (210, 3.59231421577695364533e+00) (211, 3.64191649907131909103e+00) (212, 3.56820289982700389331e+00) (213, 4.16688156415136834454e+00) (214, 4.57500212781753123892e+00) (215, 4.66138398044433177603e+00) (216, 4.68112383179988444937e+00) (217, 4.64423318819609765029e+00) (218, 4.58877751843539538612e+00) (219, 4.74544341729489627113e+00) (220, 4.16125370673742889238e+00) (221, 4.16123424582090972734e+00) (222, 4.04870149246533994614e+00) (223, 3.97899193815072482749e+00) (224, 3.89145086149825392141e+00) (225, 3.78750925492030532382e+00) (0, 6.27174583533169127669e-01) (1, 1.15101311694937069596e+00) (2, 1.77425400870666449826e+00) (3, 1.69161540079152605820e+00) (4, 1.64023059350484312624e+00) (5, 1.78002092358702079800e+00) (6, 1.15175887735630277930e+00) (7, 1.14521139422550222164e+00) (8, 1.03393056739228428320e+00) (9, 1.06302996149419559657e+00) (10, 1.14630272918617759359e+00) (11, 1.47949475414493436531e+00) (12, 1.41750600045096386559e+00) (13, 1.02740500385942556960e+00) (14, 1.24513318125666416769e+00) (15, 4.98777565989964144499e-01) (16, 6.79004772766116704297e-01) (17, -1.25656907009168594680e-01) (18, 2.86131875432671489712e-01) (19, 1.13998841281507790058e+00) (20, 1.28985161133459391714e+00) (21, 1.12536655870231494525e+00) (22, 1.23889179806379767790e+00) (23, 1.02119569429231393798e+00) (24, 1.21980587579495725059e+00) (25, 9.91394983906319970934e-01) (26, 7.04873058267747820693e-01) (27, 8.31741269000684901869e-01) (28, 8.87738567353218988032e-01) (29, 1.49856621178543103490e+00) (30, 1.67609830571227536034e+00) (31, 1.59154498215136430694e+00) (32, 1.49889488020563699244e+00) (33, 1.00924322535207777740e+00) (34, 8.99110806031690357187e-01) (35, 1.12543061553868706248e+00) (36, 1.25405230020182245632e+00) (37, 1.38914287745833431309e+00) (38, 1.51723497584920408165e+00) (39, 1.27001166306539592377e+00) (40, 1.13324877734424633857e+00) (41, 1.29031459950014171234e+00) (42, 1.17465255766841547569e+00) (43, 6.96340548025878747218e-01) (44, 6.14308664217350641756e-01) (45, 5.46620872345322417196e-01) (46, 7.31816551051156394259e-01) (47, 1.00397133380653968970e+00) (48, 1.26349429204035024199e+00) (49, 1.72666316168456246416e+00) (50, 5.92564452812723518882e-01) (51, 1.04378437099414966838e+00) (52, 1.67270623850450594894e+00) (53, 1.75923790489159803663e+00) (54, 1.26478298235362518476e+00) (55, 1.29295159325399411365e+00) (56, 1.32772125354816572518e+00) (57, 1.28002078913862060716e+00) (58, 7.63309026954079650196e-01) (59, 7.64528357554847493027e-01) (60, 6.64910860625193445017e-01) (61, 1.56486099201517570023e+00) (62, 1.63434993875157830168e+00) (63, 1.47057610973899088869e+00) (64, 8.56942165917560894073e-01) (65, 8.29733373559579878709e-01) (66, 1.67105507539467817990e-01) (67, -7.05691740408245782312e-02) (68, 1.58419530183731074868e-02) (69, 7.05954326575789603559e-01) (70, 5.40974934497112425191e-01) (71, 5.62359000476997383799e-01) (72, 1.04692703335817860477e+00) (73, 3.80325874450375300828e-01) (74, 7.14200854073724467064e-01) (75, 5.22531730848307840454e-01) (76, 9.33762117414085768274e-01) (77, 8.84008396184343681057e-01) (78, 8.83394453923987965638e-01) (79, 9.82634628493359918444e-01) (80, 8.24073741786039537516e-01) (81, 9.82524240268985660229e-01) (82, 7.63699475897745005959e-01) (83, 1.37254773755469572372e+00) (84, 1.03293326439375809933e+00) (85, 9.58580198875408462378e-01) (86, 8.13538280244579858902e-01) (87, 1.31724122381681030269e+00) (88, 1.95501633018980314205e+00) (89, 1.69330510684015833611e+00) (90, 1.67626358755590998406e+00) (91, 1.65954119153978996160e+00) (92, 1.61854215453147154413e+00) (93, 1.02595959232248001847e+00) (94, 1.08939603293932574246e+00) (95, 9.73094518730999502587e-01) (96, 1.23660441200375315063e+00) (97, 1.02369645076005211237e+00) (98, 1.14050733021085015650e+00) (99, 1.63921885031609759764e+00) (100, 6.67928716269876932010e-01) (101, 7.76702273183813907131e-01) (102, 1.78102887879372273616e+00) (103, 1.20190660714737007631e+00) (104, 9.77972864433529598394e-01) (105, 1.06787843217324818212e+00) (106, 1.38789268169214352611e+00) (107, 8.82177105435554831381e-01) (108, 8.66354656281938417806e-01) (109, 1.16096288696739446955e+00) (110, 1.62891383760821373272e+00) (111, 1.37620570922445040196e+00) (112, 1.16316281622177220001e+00) (113, 1.16740985973037703083e+00) (114, 1.05852259577428942094e+00) (115, 1.05030327178630611407e+00) (116, 5.90526099941515614233e-01) (117, 1.24633405064690916397e+00) (118, 6.25600534091127147285e-01) (119, 1.29895094528290755420e+00) (120, 1.14228632000829666282e+00) (121, 4.48346509591177888598e-01) (122, -2.90133382083006541308e-01) (123, 9.57675520996332796386e-02) (124, 3.40570280664802049753e-01) (125, 9.67109703375220841615e-01) (126, 5.77725565659835460508e-01) (127, 6.80232817500060260585e-01) (128, 8.74512745974289407158e-01) (129, 9.41590014439252831480e-01) (130, 8.37218188318966549666e-01) (131, 8.60505856587207573760e-01) (132, 6.08146550675010444387e-01) (133, 1.00920454630801370577e+00) (134, 1.59072007693492989411e+00) (135, 1.18975099083952406964e+00) (136, 9.93748332174775650394e-01) (137, 1.05410615479038249909e+00) (138, 1.07882017691067555454e+00) (139, 1.58759186976316235551e+00) (140, 1.55397895132067431767e+00) (141, 1.58020254327989184695e+00) (142, 1.70097357126934856097e+00) (143, 1.04071997486151390788e+00) (144, 9.93536732659699217685e-01) (145, 1.09159795771125267549e+00) (146, 1.13046111209315269797e+00) (147, 1.26529849639202818246e+00) (148, 1.29492335712577566476e+00) (149, 1.70224631416945593188e+00) (150, -1.76535550759519588304e+00) (151, -4.06093630206390532322e+00) (152, 2.94622956455999363001e+00) (153, 7.08623903452046399742e-01) (154, -8.59058489717630657800e-01) (155, 1.19543711326354329394e+00) (156, 1.34384793728449758454e+00) (157, 1.51380922521792959934e+00) (158, 1.14442700067756919502e+00) (159, 1.36571094895821709692e+00) (160, 1.24273891323987650814e+00) (161, 8.18057691853385060554e-01) (162, 1.19867635764021263078e+00) (163, 1.09067014539033513287e+00) (164, 1.06104012512952405878e+00) (165, 1.06937280959874714270e+00) (166, 1.19276502662688899115e+00) (167, 1.16978452305585500781e+00) (168, 1.53231596105351353110e+00) (169, 1.55773756540074281851e+00) (170, 1.69458330309643545597e+00) (171, 1.66520235883118616904e+00) (172, 1.53324722335929952699e+00) (173, 1.19368951995666372490e+00) (174, 5.73665008118505403978e-01) (175, 5.52228868182471299697e-01) (176, -1.14517788560123207064e-01) (177, 6.41321851549830324046e+00) (178, 3.44676002414874727009e+00) (179, -4.69241191804369628393e-01) (180, -1.70374129118845363262e-01) (181, 6.05067756045321258895e-01) (182, 1.60415236862509336113e+00) (183, 6.43031665951700803774e-01) (184, 8.07452659650559123605e-01) (185, 6.87034505464112266182e-01) (186, 6.48181203133465277944e-01) (187, 7.92658414072396011463e-01) (188, 6.18067690605532793491e-01) (189, 9.23406994421418159114e-01) (190, 9.63947703196002758652e-01) (191, 8.90260471440745715377e-01) (192, 9.14121565635396371441e-01) (193, 1.06667610377750254891e+00) (194, 1.50729402647695520656e+00) (195, 1.84604216754637473485e+00) (196, 1.81922618097609856136e+00) (197, 1.59285821950256689661e+00) (198, 1.45721179822206758914e+00) (199, 9.68709411142231746616e-01) (200, 4.61020984607310335690e+00) (201, 4.63576952547728549092e+00) (202, 6.55090969242562604080e+00) (203, -6.16627500206534673310e+00) (204, 7.90402146713214404095e-01) (205, -3.45454375778575351053e-01) (206, 4.21068691300896580376e-01) (207, 8.84669277771415130118e-01) (208, 8.11445850662178891355e-01) (209, 9.34729993782787760281e-01) (210, 7.90977687059153389271e-01) (211, 7.77235205312641896924e-01) (212, 7.17201028404084395262e-01) (213, 4.58701260178432990156e-01) (214, 8.36621206291985664016e-01) (215, 8.94893620201420714189e-01) (216, 8.06318056864027021824e-01) (217, 7.52798767727935858041e-01) (218, 8.46330707860315167856e-01) (219, 8.37699344349229657603e-01) (220, 1.45503123370716691554e+00) (221, 1.44521581275174737513e+00) (222, 1.29177597817960343463e+00) (223, 1.29699785915198884112e+00) (224, 1.25931010749522087622e+00) (225, 8.22536762943634536249e-01) (0, -2.61174651270239185918e-02) (1, 2.11290037134464342428e-01) (2, 5.14736386742433271735e-01) (3, 5.82324874599378539131e-01) (4, 5.55873109697547551633e-01) (5, 6.24676822423176236754e-01) (6, 6.30232293654218844736e-01) (7, 9.00374984547313905736e-01) (8, 1.31072355346249502794e+00) (9, 1.47543936305996292724e+00) (10, 1.83172995805569960304e+00) (11, 8.87670947953534961172e-01) (12, 9.11653738501066235322e-01) (13, 7.17930165999996150461e-01) (14, 9.64613589196057552577e-01) (15, 7.38189399745265872888e-01) (16, 5.67751164697308380314e-02) (17, -3.39533226986713232431e-01) (18, -3.33542871088788495104e-01) (19, 8.88276872206499312767e-01) (20, 9.70266656955746653601e-01) (21, 1.20110443978367276152e+00) (22, 8.20331154134465667660e-01) (23, 9.40207750065989222854e-01) (24, 8.28268064507858392531e-01) (25, 1.10438787534915960897e+00) (26, 1.15036161195684050185e+00) (27, 1.09287971209931922267e+00) (28, 9.68433236611866532506e-01) (29, 5.90482237530136178094e-01) (30, 7.97610775559143947433e-01) (31, 8.80350389494933605050e-01) (32, 9.28790979995765209054e-01) (33, 9.84057402537211411975e-01) (34, 1.01215050718971721899e+00) (35, 6.36485337186274868770e-01) (36, 6.02675801102483310601e-01) (37, 4.09708591867000815334e-01) (38, 4.40631457791293590365e-01) (39, 5.67806147303840491603e-01) (40, 6.84103520507640672221e-01) (41, 6.25127792623293432328e-01) (42, 6.75507345484690935322e-01) (43, 3.18294167487968709951e-02) (44, 7.79665790745249359661e-03) (45, 1.12398066162560039682e-01) (46, -3.78042958434934225909e-02) (47, -3.86652581079297508193e-01) (48, -3.45502043800685776365e-01) (49, 3.01397146464554788192e-01) (50, 1.24241565052500904653e-02) (51, -3.42782692996723079015e-02) (52, 5.40493520703152929840e-01) (53, 5.03263931721967150423e-01) (54, 7.84986163631967492904e-01) (55, 8.08197410242644354028e-01) (56, 1.08820310502077188808e+00) (57, 1.10405978486567346586e+00) (58, 1.29213930376400010225e+00) (59, 1.29178622713456703330e+00) (60, 1.31354118774347905507e+00) (61, 1.49252854612598212514e-01) (62, 6.12629688868723376594e-01) (63, 5.43169986771260493441e-01) (64, 9.88066924144330616109e-01) (65, 3.82143119692691046740e-01) (66, 3.16339595169799758789e-01) (67, -1.80678429107580196256e-01) (68, -1.18047951858832017580e-01) (69, 9.80742975959782881112e-01) (70, 1.60202616598268021697e+00) (71, 1.59327502816040911249e+00) (72, 1.24896200689517500315e+00) (73, 2.59846556178450427410e-01) (74, 2.40862922324412781494e-01) (75, 3.26485634932081103532e-01) (76, 1.04213167193156097667e+00) (77, 1.13325396603856032307e+00) (78, 1.15932207599009773347e+00) (79, 1.02497266575777046249e+00) (80, 1.03324545699988634695e+00) (81, 6.03979005586263606453e-01) (82, 6.74107503354622550340e-01) (83, -1.16321914342835036615e-01) (84, -4.72402345995981340354e-02) (85, 5.86806271671337587037e-01) (86, 7.42528544916438493217e-01) (87, 6.79694418714937853565e-01) (88, 1.40283663362514438022e-01) (89, 3.90544128875197682493e-01) (90, 3.46611191789562345100e-01) (91, 2.70454644960708978640e-01) (92, 1.96441964183944134392e-01) (93, -3.99921337940648713438e-01) (94, -4.12067792751744987889e-01) (95, -3.14078739255414796094e-01) (96, -5.07313704593791769959e-01) (97, -9.41288095042512540367e-01) (98, -9.31239519497096934764e-01) (99, 1.17904130778481108788e-01) (100, -2.41205475676073144431e-01) (101, -2.07231618491303559715e-01) (102, 3.95029185953338413118e-01) (103, 8.49144234519783713822e-01) (104, 4.34366469283546885460e-01) (105, 6.49268433996001315123e-01) (106, 7.20989478474008516073e-01) (107, 8.69037514016864132138e-01) (108, 1.20751081337182064601e+00) (109, 1.26368906653601031920e+00) (110, 1.13056694089694831362e+00) (111, -1.22193802026711526021e-02) (112, -1.33142892373643434434e-01) (113, -3.01517444920397670316e-01) (114, -6.31212300911969115269e-02) (115, -5.50039417741664982131e-01) (116, -9.33984815992623285119e-01) (117, -1.90844679280394191601e+00) (118, -1.23331268220717538142e+00) (119, 2.20878995460001309459e-01) (120, 7.24065427059621846695e-01) (121, 1.51527947980058041999e+00) (122, 1.07497863318697883805e+00) (123, -5.38300924847539413731e-03) (124, -1.35552583226297485020e+00) (125, -1.56562278737804994044e+00) (126, 4.88374298404429862952e-01) (127, 1.15887193635260121738e+00) (128, 1.06771148937506921150e+00) (129, 1.04059668581503506068e+00) (130, 5.41229213075191561977e-01) (131, 4.78729386296099651554e-02) (132, -5.53946935918595007031e-01) (133, -1.91926449205985694135e+00) (134, -1.49391604069316197290e+00) (135, 1.03492844131057304402e-01) (136, 5.69771210907296099535e-01) (137, 6.05921172432326793356e-01) (138, 7.11459552861961164183e-01) (139, 5.23483018712727066202e-01) (140, 3.93768492142890114138e-01) (141, 2.89495608781443258817e-01) (142, 3.64819573392176521587e-01) (143, -3.55616762103989902943e-01) (144, -3.58635667087987386470e-01) (145, -3.90649263449006578508e-01) (146, -1.12166727270422650342e+00) (147, -1.90271651129003616099e+00) (148, -1.92072407285448143455e+00) (149, 3.25533884955616803492e-01) (150, -3.16978931569954891501e+00) (151, 9.75831866921950785709e-01) (152, 8.27619100806477803189e+00) (153, 5.98261307776335105046e+00) (154, 2.64947976833107023964e+00) (155, 3.20432676283119510785e+00) (156, 1.39948076583343250512e+00) (157, 8.53141217588504474634e-01) (158, 9.93973687219755208666e-01) (159, 1.19980498749494990385e+00) (160, 9.26576914952492947108e-01) (161, 8.85243973443941678525e-01) (162, 9.60622912446965737665e-01) (163, 9.69695831502307092897e-01) (164, 8.89140846992362066104e-01) (165, 8.01470647252428891605e-01) (166, 8.04354335034716427799e-01) (167, 3.50587570083982114078e-01) (168, 5.19544519345549904443e-01) (169, 4.23087246410642825456e-01) (170, 3.41711990229870865576e-01) (171, 4.64793111927798541227e-01) (172, 5.05005370503289419126e-01) (173, 6.89791962000325442617e-01) (174, 7.57603386873891004871e-02) (175, 8.77187214794049485711e-01) (176, 2.95861070215039223541e+00) (177, -6.41693114587746027411e+00) (178, 7.41516772481575703324e+00) (179, 3.80245939668573651460e+00) (180, 3.75464292416778588901e+00) (181, 1.98837293733735753776e+00) (182, 8.61171773771107096351e-01) (183, 1.38900244766583269573e+00) (184, 1.48297121438985946007e+00) (185, 1.30642612551174397417e+00) (186, 1.32010989552614277365e+00) (187, 1.36287988638755819260e+00) (188, 1.13314729897742805242e+00) (189, 5.35093981660950901436e-01) (190, 5.93980412045303829416e-01) (191, 6.01359974983517009406e-01) (192, 7.14735239020178547698e-01) (193, 5.29968599870955903164e-01) (194, 1.21964756092595633108e-01) (195, -1.24875602936176166580e-01) (196, -1.16270333989592827839e-01) (197, -2.23639686121676728447e-01) (198, 5.75628385969637196284e-02) (199, -2.52172388901665767147e-01) (200, 3.96705769347985048867e+00) (201, 4.85927784068635215675e+00) (202, -8.32343021409704952873e+00) (203, -1.25729391553018832184e+01) (204, 3.40114429034913046124e+00) (205, 4.69938224866243192679e+00) (206, 1.79819112309608697409e+00) (207, 1.13123175337780823568e+00) (208, 1.32964390511753705049e+00) (209, 1.38816280049009210806e+00) (210, 1.29739861107414378161e+00) (211, 1.18874707892325015557e+00) (212, 1.28821506943996832995e+00) (213, 3.79899211557026161845e-01) (214, -5.15143080676103079507e-02) (215, 1.84616864597292387740e-02) (216, 3.48046391375659014411e-02) (217, 6.85439836058548968012e-02) (218, 4.72118388686094264672e-02) (219, -5.40305520842963904471e-01) (220, -4.91770747552802589553e-01) (221, -5.67866984258587170764e-01) (222, -5.17338249336177447013e-01) (223, -4.80774182330061861101e-01) (224, -3.55369473475017072506e-01) (225, 2.03862197899306180071e-01) (0, -9.71911035086441277286e-02) (1, -1.12243665835803446695e-01) (2, 4.64874656508969114066e-02) (3, 2.15831743920296553751e-01) (4, 7.05437755884975870035e-02) (5, 1.39190124644497786877e-01) (6, 1.64121341634251960429e-01) (7, 2.53946787514284566534e-01) (8, 6.50070856965423993223e-01) (9, 1.00468112951332311233e+00) (10, 1.00210373804680052956e+00) (11, 1.98286469467133436018e-01) (12, 4.07264018145431117013e-01) (13, 3.03374029224170282948e-01) (14, 6.05184989914461346494e-01) (15, 4.43130363353134659743e-01) (16, -8.31441543731794574512e-02) (17, -3.47445152672137491656e-01) (18, -8.19838695982060827738e-02) (19, 5.58755836963951479923e-01) (20, 8.34214267929484498687e-01) (21, 6.66190640799443789533e-01) (22, 1.69877215677909365610e+00) (23, 9.15194814431092185103e-01) (24, 4.91276514045108469997e-01) (25, 5.86603544757567485490e-01) (26, 5.90813268554050363690e-01) (27, 5.59365313420155163548e-01) (28, 6.11032555190681114787e-01) (29, 1.76306969669807439560e-01) (30, 5.56474315419990400722e-02) (31, 1.63647056545388525084e-01) (32, 1.08690992917184425792e-01) (33, 5.18821040868510441335e-01) (34, 3.80911626092296173862e-01) (35, -5.47389427268343137234e-03) (36, -8.26546821936352538174e-02) (37, -9.48370023436091169611e-02) (38, 3.59325693750175423347e-02) (39, -1.51074571664639750734e-01) (40, 1.18994894354254657221e-02) (41, -1.11436877499471259645e-01) (42, 4.47355661801670662081e-02) (43, -2.02032244997365550976e-01) (44, -1.56480364039115998898e-01) (45, -1.85332156243495582704e-01) (46, -1.01057761147191671469e-01) (47, -4.32910724084011988566e-01) (48, -5.83044192626155921566e-01) (49, -3.16923816923762757813e-01) (50, -2.35727903597510723976e-01) (51, -3.47248330286659301347e-01) (52, 1.14505052716596944506e-01) (53, 7.85857733338236053022e-02) (54, 5.29413520127841374929e-01) (55, 5.09006914706333968290e-01) (56, 6.98250009962347761849e-01) (57, 5.57495548989852873767e-01) (58, 9.86351267506673123897e-01) (59, 1.02863181925377733528e+00) (60, 1.06026735989010112426e+00) (61, 3.95697569304459262352e-02) (62, 4.22439720362872528359e-01) (63, 4.22359744500141631729e-01) (64, 6.86075787648154133969e-01) (65, 2.69614028572867148181e-01) (66, -6.33770569267381733702e-02) (67, -9.22341390966245067151e-02) (68, 2.18120958456634844724e-01) (69, 8.79980659980127977171e-01) (70, 1.31079634415252632706e+00) (71, 1.37494031583620102133e+00) (72, 2.22290849217666552917e+00) (73, 4.25338905320299942581e-01) (74, 4.14334884897853278352e-02) (75, 8.61099016184533883056e-02) (76, 7.50914026354676411579e-01) (77, 6.63465318864115860542e-01) (78, 6.20201142146792450127e-01) (79, 6.14940293238359747541e-01) (80, 5.77497303151826568701e-01) (81, 4.41251579882306621538e-01) (82, 3.20329465615424302527e-01) (83, -3.57819751125339924336e-01) (84, -1.96552950938677806203e-01) (85, 2.20145112077655719096e-01) (86, 1.35462027138406215787e-01) (87, 1.56227820360313462977e-01) (88, -4.44837722502752774822e-01) (89, -4.64543032119287491177e-01) (90, -2.81861208940104968068e-01) (91, -4.22987714970664674397e-01) (92, -2.77680858881357794932e-01) (93, -4.35386960475079742849e-01) (94, -5.68534322993394902745e-01) (95, -4.80346998803250602172e-01) (96, -5.27268888064293395068e-01) (97, -8.82170029168919511697e-01) (98, -8.21254912376436663202e-01) (99, -2.62806234018471085445e-01) (100, -4.01078526810426883031e-01) (101, -2.65748365194545532741e-01) (102, -8.96749571725028171709e-02) (103, 5.50713310774168296469e-01) (104, 3.72047703336150281661e-01) (105, 3.11255700110187827345e-01) (106, 7.20779190131454083890e-01) (107, 7.34822271908018187503e-01) (108, 1.01207931398213291097e+00) (109, 1.23605465915297907387e+00) (110, 8.73039471335038119726e-01) (111, -1.83169903844033130080e-02) (112, -2.06815450479438320275e-02) (113, -1.14064010588138448066e-01) (114, -3.51152302536349381068e-01) (115, -1.01092973559011478635e-01) (116, -5.83360120660473602250e-01) (117, -1.31228403732305420881e+00) (118, -6.96511364289581158538e-01) (119, 4.09726967157566457356e-01) (120, 6.58413621789723069178e-01) (121, 1.62357052940412094344e+00) (122, 2.57545814857872068515e+00) (123, 8.71123797767793028868e-01) (124, -8.06525872351213091171e-01) (125, -1.27459172522168828756e+00) (126, 2.21490871731508581766e-01) (127, 8.43347493769598277602e-01) (128, 6.34103073967479446971e-01) (129, 7.89970549444163450126e-01) (130, 6.07300767232169733112e-02) (131, -7.83542608199224832610e-01) (132, -8.00437673997890786204e-01) (133, -1.72972870451330007491e+00) (134, -1.37016588981136666625e+00) (135, -1.52094553544625227248e-01) (136, 1.94572547194622885725e-01) (137, 1.63913046306407961250e-01) (138, 7.74636291181259317717e-02) (139, -2.53188128161713099651e-01) (140, -3.71151989835782847305e-01) (141, -4.38819566162865104531e-01) (142, -3.05220609521129448982e-01) (143, -6.15652240669485428803e-01) (144, -6.94495964884516259197e-01) (145, -5.72974931537862608444e-01) (146, -1.21101615452034061526e+00) (147, -2.56149478662754237490e+00) (148, -2.35950084579145169528e+00) (149, -5.43214295463223528770e-01) (150, -5.44026060972827618656e+00) (151, -2.88608749027570610224e+00) (152, 6.96670835441745506245e+00) (153, 4.51990804550810221230e+00) (154, 9.86880633878528423786e-01) (155, 1.25725072641651047789e+00) (156, 1.06255802388986642093e+00) (157, 6.68539826305005635554e-01) (158, 7.28916239324319481518e-01) (159, 6.70501127779755790037e-01) (160, 4.22962777426984681828e-01) (161, 5.36686103852038742801e-01) (162, -6.82079256324473193196e-02) (163, 4.11543779450337765535e-01) (164, 4.44664240258609622103e-01) (165, 5.00305652993590088684e-01) (166, 4.65547144788178213215e-01) (167, 3.52759569462816335861e-02) (168, -2.96099880601872131325e-02) (169, 4.24486968327676683632e-04) (170, -9.93119421262649709758e-03) (171, -6.09479755875407189225e-02) (172, -8.15263003823102350154e-02) (173, -1.00726094510790620262e-01) (174, -2.25150074824265855611e-01) (175, -3.15397935352095393213e+00) (176, -8.68480769213699321796e-01) (177, -1.17508152315159808410e+01) (178, 6.10951084771652208616e+00) (179, 2.02073053112559541944e+00) (180, 1.97553229636989113871e+00) (181, 1.00409988252986881463e+00) (182, 6.55806550478671756998e-01) (183, 1.07464157243179569967e+00) (184, 1.13410772999001041583e+00) (185, 1.01384001254047384499e+00) (186, 9.18579776290652350035e-01) (187, 9.39268161061999395933e-01) (188, 7.83146186646748065918e-01) (189, 4.15287899900330048641e-01) (190, 3.62048657884694258247e-01) (191, 2.73309226765731494435e-01) (192, 3.14519364073375495838e-01) (193, 3.31793198671412381540e-01) (194, -6.25948514079560092149e-02) (195, -5.01391809529201037954e-01) (196, -5.39703063449106457128e-01) (197, -4.06137510916428412511e-01) (198, -3.29264996325750292083e-01) (199, -5.23382026092645280535e-01) (200, -1.55026712540853317535e-01) (201, 7.31391173331392252521e-01) (202, -9.25597877653646428087e+00) (203, -1.20324569930157121433e+01) (204, 2.78504354934434283919e+00) (205, 1.97048783729218834893e+00) (206, 1.03353976755627585682e+00) (207, 1.13684871089715522352e+00) (208, 8.56031272359815909034e-01) (209, 9.29193987270820920266e-01) (210, 8.35821744511802688926e-01) (211, 7.59493244978478920792e-01) (212, 7.12129991264925155114e-01) (213, 3.86622231200333732470e-01) (214, -1.13035838801412741317e-01) (215, -2.92138641066842161265e-02) (216, 9.64020379687042794359e-02) (217, 8.06356345822836217963e-02) (218, 1.61769887020712169190e-02) (219, -5.98348368045502287949e-01) (220, -6.73279475506955216169e-01) (221, -6.40345256861858946884e-01) (222, -7.14841440406256745099e-01) (223, -5.31611057054754088114e-01) (224, -6.09087017697457100418e-01) (225, 2.69185940001513551723e-02) (0, 8.00976242954165029708e-01) (1, 5.12738114781072229498e-01) (2, 1.08513082630196477929e+00) (3, 1.02429447576614185422e+00) (4, 8.37429515730214957259e-01) (5, 8.91537718187642935774e-01) (6, 4.65548652649321270669e-01) (7, 1.31926450055484889567e+00) (8, 1.53503338622580876027e+00) (9, 1.73162563759353793635e+00) (10, 2.07879468634920572256e+00) (11, 1.37280243238419652485e+00) (12, 1.26488076989255837645e+00) (13, 8.40895256084402076269e-01) (14, 5.20396922515833137979e-01) (15, 6.75793696611171834654e-01) (16, 2.99089298496732991506e-01) (17, 3.36605818188789457368e-02) (18, 8.30469710634568758501e-02) (19, 1.39385110432616143861e+00) (20, 1.41753048093021960518e+00) (21, 1.49348494499943584835e+00) (22, 1.20785684389694858432e+00) (23, 1.43273346262724854405e+00) (24, 1.25622473593619088383e+00) (25, 1.22518398906268655146e+00) (26, 1.34356478504183818323e+00) (27, 1.43165240339282040516e+00) (28, 1.29403386020356214736e+00) (29, 9.33070460554280556309e-01) (30, 1.82255061236413795633e+00) (31, 2.31341485029942406371e+00) (32, 2.25844159687236256673e+00) (33, 1.23635670209473969017e+00) (34, 1.18630616406149225206e+00) (35, 8.27685150939832192662e-01) (36, 1.01521605981366480620e+00) (37, 8.34441894305088416317e-01) (38, 8.38735940278548586235e-01) (39, 1.15796185379662786019e+00) (40, 1.16610007234689017075e+00) (41, 1.06277903379425175956e+00) (42, 1.03669453710155612391e+00) (43, 5.36177203739343299915e-01) (44, 5.16009619847165645901e-01) (45, 5.82750448313585578397e-01) (46, 8.52261115945862068877e-01) (47, 6.36996360935256356051e-01) (48, 6.72326720718388615161e-01) (49, 1.29955905296619089739e+00) (50, 8.55534824730477816424e-01) (51, 4.64165863890374674749e-01) (52, 1.02344946629563282592e+00) (53, 9.42868766974144456583e-01) (54, 3.81381690529539074674e-01) (55, 3.05027989952303180132e-01) (56, 5.97007773578072775678e-01) (57, 4.61497899222310381528e-01) (58, 8.31926410796167248307e-01) (59, 7.70790987292259699437e-01) (60, 9.55687248049632342983e-01) (61, 1.68942360601273294796e-01) (62, 5.98792811517075640459e-01) (63, 4.51707022648124734143e-01) (64, 7.39511320308963826520e-01) (65, 7.56080498348361829120e-04) (66, -3.27199244129057487118e-01) (67, -6.60678212671534703659e-01) (68, -4.65278861188153869399e-01) (69, 6.60960214165783654927e-01) (70, 1.10792028356714200577e+00) (71, 2.05856724039893634881e+00) (72, 1.39880147481330241455e+00) (73, 5.91297455284351403115e-01) (74, 4.84348765130157510317e-01) (75, 5.41271107396278483570e-01) (76, 1.47188245893154312505e+00) (77, 1.42772107206021825476e+00) (78, 1.99836376762586209743e+00) (79, 1.37690870757379157929e+00) (80, 2.61200547934729199184e+00) (81, 2.28746891863720058780e+00) (82, 2.33589174617339256912e+00) (83, 5.27940827973682025309e-01) (84, 4.54053175379003304268e-01) (85, 1.25413012171710591680e+00) (86, 1.18530554185633762998e+00) (87, 1.21589481650291175718e+00) (88, 6.91076978900422966845e-01) (89, 1.01520343487139852456e+00) (90, 1.00240770012583935156e+00) (91, 1.05361104489030865672e+00) (92, 9.36461277715721518433e-01) (93, 3.75174266544216650221e-01) (94, 4.24463980582588107371e-01) (95, 3.44263368037575123726e-01) (96, 2.80283530694531823890e-01) (97, -6.28952837997662217440e-02) (98, 1.59562862159524712635e-02) (99, 1.03336260797456591654e+00) (100, 5.65653242373707842994e-01) (101, 2.98041664719818577556e-01) (102, 8.58085318833888721635e-01) (103, 4.48609714172130524812e-01) (104, 1.45032501948843234318e-01) (105, 1.69695556577072720339e-01) (106, 4.92070126116171902009e-01) (107, 5.54909309814960227669e-01) (108, 1.11886903296490780590e+00) (109, 1.33877447896973844621e+00) (110, 3.47464979762159731358e-01) (111, -5.52728915570773748911e-01) (112, -6.83504323014464842956e-01) (113, -1.03264993584919029246e+00) (114, -9.08666588951216658288e-01) (115, -3.14193642370567294275e-01) (116, -8.76382958212586604674e-01) (117, -1.64552996613326496522e+00) (118, -1.06072643392328158640e+00) (119, 4.07439850734707842417e-01) (120, 8.86565048130658173164e-01) (121, 1.31065640993103182943e+00) (122, 1.07548552820320098000e+00) (123, -5.61578000489289450026e-02) (124, -1.50253737707724188688e+00) (125, -1.23581359485314989932e+00) (126, 8.73216064172968153834e-01) (127, 2.31173840618048442863e+00) (128, 2.31398033098506195060e+00) (129, 2.07086154688452284134e+00) (130, 2.49114592184568373057e+00) (131, 6.64084398659624652872e-01) (132, 6.00032169419776884034e-01) (133, -9.49937554391029226331e-01) (134, -5.86077188673438054245e-01) (135, 5.72395500786303079721e-01) (136, 1.15050052346848907803e+00) (137, 1.13638104653255656018e+00) (138, 1.11376863638182110883e+00) (139, 9.62848393822361869887e-01) (140, 9.36596649756827881461e-01) (141, 7.59560597469932874404e-01) (142, 8.43070958221073030181e-01) (143, 2.66381667319172732444e-01) (144, 3.73745647076004605669e-01) (145, 3.46928413448826356014e-01) (146, -2.72631336468583895805e-01) (147, -6.41247784962484579374e-01) (148, -7.04312397410700063993e-01) (149, 9.32501952666786704249e-01) (150, -1.40254003893130052560e+00) (151, 1.09736748771485874698e+01) (152, 1.44399517893110704847e+01) (153, 7.67427695794274367103e+00) (154, 5.50653635402847019265e+00) (155, 5.52609744889098752907e+00) (156, 4.04596805228467548687e+00) (157, 2.39643596769146771663e+00) (158, 1.27914459201901320462e+00) (159, 1.53536043752873330170e+00) (160, 1.35537232059036383269e+00) (161, 1.39794420423277920840e+00) (162, 3.62713590822746789755e-01) (163, 3.38410203582688917656e-01) (164, 3.02185834623017957057e-01) (165, 3.78032401983677324164e-01) (166, 4.95103214882554876208e-01) (167, 8.72302278171694922548e-01) (168, 8.71188054992618976513e-01) (169, 8.33468764122190952648e-01) (170, 9.60343492426311118315e-01) (171, 8.87475115456019869598e-01) (172, 7.88711321749125726654e-01) (173, 1.44626577480657636521e+00) (174, 8.46350147373104433335e-01) (175, -1.74229054832034491174e-01) (176, 4.95607101364797397736e+00) (177, -6.83352155605596056631e+00) (178, 1.03631635848448802051e+01) (179, 5.70521836031639129061e+00) (180, 6.04229216977464478333e+00) (181, 4.64581341791990976020e+00) (182, 3.40980697456455317251e+00) (183, 7.62253695234690331617e-01) (184, 9.13917740392373501024e-01) (185, 9.02089893635954043205e-01) (186, 9.11460451703779650501e-01) (187, 7.92067193906069277887e-01) (188, 5.25854867455634034101e-01) (189, 4.59599922923501907901e-02) (190, 9.24192442802878599828e-02) (191, 1.40186936870053763249e-01) (192, 5.69217503992968804072e-02) (193, 1.36042416062759241591e-01) (194, 5.69935113790427605451e-01) (195, 5.72575323040169337219e-01) (196, 5.73496214709135809784e-01) (197, 4.87590133807518089082e-01) (198, 1.04462205753114245610e+00) (199, 8.02280457050227879812e-01) (200, 1.74290492552802933623e+00) (201, 4.11418807534606667531e+00) (202, -1.74996454936056942131e+01) (203, -1.77047296629303012594e+01) (204, 3.12273585530314568004e+00) (205, 7.56455654626660045636e+00) (206, 4.78955313811165073190e+00) (207, 3.17168434547324196160e+00) (208, 7.92822267232693667083e-01) (209, 8.24282309304533056249e-01) (210, 8.17702189570497006699e-01) (211, 6.85052410902845299034e-01) (212, 5.89037741759018240728e-01) (213, -4.14590799386043706853e-01) (214, -9.71834116750302068333e-01) (215, -1.00139786037140310349e+00) (216, -5.70005190132911843115e-01) (217, -6.41259778796490098607e-01) (218, -6.17067825554664772802e-01) (219, -6.22967411338146370703e-01) (220, 1.79643754537002514615e-01) (221, 1.00304019327049520616e-01) (222, 3.75568612169006332824e-02) (223, 3.88796730588370886839e-01) (224, 6.69681202980178746920e-01) (225, 1.06007825858061499602e+00) (0, 3.13499531123397678911e+00) (1, 2.94705177932511652727e+00) (2, 2.03848647181282283114e+00) (3, 1.93841422034270904895e+00) (4, 1.82536673808661187302e+00) (5, 2.49920929852616335864e+00) (6, 2.63178337730534339656e+00) (7, 2.40376329176499270446e+00) (8, 3.51133027069839509515e-01) (9, -1.55581655157850384796e-01) (10, -1.85184752942638031215e-01) (11, 1.63666007896344511963e+00) (12, 2.40040040757005446181e+00) (13, 2.70043232732196258894e+00) (14, 3.05482800273181442918e+00) (15, 1.56290175479231985278e+00) (16, 1.41548668400611865614e+00) (17, 1.84214511844588191281e+00) (18, 1.46571118366263397625e+00) (19, 3.56020411337129472074e-01) (20, 7.88214448226459696301e-01) (21, 1.94475217211425754904e+00) (22, 2.10384482886942114632e+00) (23, 1.97613095334951971438e-01) (24, 6.43110025585928113401e-01) (25, 6.76944946317387108436e-01) (26, 6.00600268263625558518e-01) (27, 6.71161200423039172591e-01) (28, 5.62657611407355595645e-01) (29, 1.93968819352308918802e+00) (30, 1.93779162307054098058e+00) (31, 1.84333372481597401737e+00) (32, 1.86175924905074530180e+00) (33, 3.29974676736444427760e-01) (34, 2.03817324206181371693e-01) (35, 2.31632532559150705609e+00) (36, 2.53153609687365621639e+00) (37, 2.61287056421479269019e+00) (38, 2.66613135403958656511e+00) (39, 2.49132782326242008253e+00) (40, 2.58674121278484125952e+00) (41, 2.55811469362279542139e+00) (42, 2.68323575937295588645e+00) (43, 3.19927341816529997587e+00) (44, 3.23551915037394710595e+00) (45, 3.20707237983700865769e+00) (46, 3.16080128656894610018e+00) (47, 3.27794095750138758660e+00) (48, 3.18106493224408781728e+00) (49, 2.68776377905016250480e+00) (50, 3.27582942421501543961e+00) (51, 3.04416927666193748436e+00) (52, 2.11752634723077060031e+00) (53, 3.19443547010106110307e+00) (54, 3.03380113940793449956e+00) (55, 3.04101531308251793462e+00) (56, 2.68270838131930933201e+00) (57, 2.71088587997542607155e+00) (58, 1.27235536654353986741e+00) (59, 2.54638143229537616818e+00) (60, 2.03974048111029571118e+00) (61, 2.55415974444931093146e+00) (62, 2.81365423234293210442e+00) (63, 2.70167709926487420447e+00) (64, 2.79987255414648572582e+00) (65, 3.65244159740389173763e+00) (66, 3.51897260249599330706e+00) (67, 3.61355587034011493941e+00) (68, 3.89012167014894716388e+00) (69, 2.97795018411815526349e+00) (70, 2.40715112683374821145e+00) (71, 1.73353084353700670484e+00) (72, 9.08911117635151311056e-01) (73, 1.00183257133586911536e+00) (74, 1.14249929739421607344e+00) (75, 1.06595651211123043645e+00) (76, 4.89506017843124086042e-01) (77, 5.81491979471088882292e-01) (78, 6.84867292211121303502e-01) (79, 3.83474090696897973451e-01) (80, 4.43979199258686063612e-01) (81, 8.50357662657594159938e-01) (82, 9.16495065830844168886e-01) (83, 8.29724177672266360872e-01) (84, 1.62786869242900478216e-01) (85, 1.41515366585248680842e+00) (86, 1.57693371540385562923e+00) (87, 1.82156164653607910431e+00) (88, 2.67520555404832860447e+00) (89, 2.50210652875859906885e+00) (90, 2.50987322258908918116e+00) (91, 2.64473876732547497070e+00) (92, 2.54168620622327345870e+00) (93, 3.12939626397341053021e+00) (94, 3.24037839324238463590e+00) (95, 3.08949896545168556372e+00) (96, 3.27360059224635024933e+00) (97, 3.22748036824359596508e+00) (98, 3.34273734361106944490e+00) (99, 2.59277953094845070581e+00) (100, 3.36419041802699103627e+00) (101, 3.08973278525666605887e+00) (102, 3.35743203899023923142e+00) (103, 3.23358076908216229839e+00) (104, 3.13560353992205342877e+00) (105, 3.02169188700442825635e+00) (106, 2.99846900764167312303e+00) (107, 3.22010739493470721229e+00) (108, 2.32714597030617431628e+00) (109, 1.58661315363247368282e+00) (110, 1.87329722825802047481e+00) (111, 2.99435340440372455006e+00) (112, 3.21796038498080161361e+00) (113, 3.52770725314805666528e+00) (114, 3.68866609981667270546e+00) (115, 3.94311543545201947936e+00) (116, 3.83398354689434572862e+00) (117, 3.47345216195598816000e+00) (118, 3.25041947347904880417e+00) (119, 2.96039732648059761289e+00) (120, 3.02375018778281434706e+00) (121, 2.44809354140279289425e+00) (122, 2.90663813703090934126e+00) (123, 3.73104165055842074139e+00) (124, 3.59847629871595264817e+00) (125, 1.36852096225027142218e+00) (126, 2.34556205198636780196e+00) (127, 1.75146796104434709918e+00) (128, 1.86252168073844637242e+00) (129, 1.70588879879158361597e+00) (130, 2.52791955423667369374e+00) (131, 1.61140283941077089302e+00) (132, 1.84854799532995994760e+00) (133, 1.55048479375626246934e+00) (134, -3.21024139967744703839e+00) (135, 1.60269529825390044664e+00) (136, 1.38063188702824612974e+00) (137, 1.73306384102334276598e+00) (138, 1.67798810274955134680e+00) (139, 2.67221874192939834458e+00) (140, 2.52943520686613165793e+00) (141, 2.54075525993042550255e+00) (142, 2.62132675451460617211e+00) (143, 3.13228349182364107506e+00) (144, 3.21947508523223069332e+00) (145, 3.14189970091850190315e+00) (146, 3.30009600229584032505e+00) (147, 3.18142102622861244754e+00) (148, 3.18843224608773567752e+00) (149, 2.69532356298570885400e+00) (150, 1.47150415788469377532e+01) (151, 6.12948925064393268514e+00) (152, 9.69845342385841191479e-01) (153, 2.54974882944721015221e+00) (154, 1.31018268255696646030e+00) (155, 1.90287935294922785912e-02) (156, 5.87300660186646839023e-01) (157, 5.95019017409151196318e-01) (158, 2.79755046257741224469e-01) (159, 6.32784710500618352569e-01) (160, 5.53813536061477540429e-01) (161, 1.25417381148219586606e+00) (162, 3.02530595968323146039e+00) (163, 2.73290299060509189744e+00) (164, 2.68208597781822577488e+00) (165, 2.80068710377370200248e+00) (166, 2.62715225103065863621e+00) (167, 2.72924778297111947367e+00) (168, 1.93696468639649865828e+00) (169, 2.11589766713954441357e+00) (170, 2.24921496135645337944e+00) (171, 2.24646979802172275242e+00) (172, 2.62003444501115501097e+00) (173, 2.68336765088988959960e+00) (174, 3.10442683931347573889e+00) (175, 6.97111168187629548498e+00) (176, 6.40881922520788815945e+00) (177, 8.96652520303473288266e+00) (178, -3.04985441055080341854e+00) (179, -6.45268458648010079237e-01) (180, 6.84033403533998995982e-02) (181, 9.90214717037285363510e-01) (182, 4.50964699698983617626e-01) (183, 1.44238388165720654577e+00) (184, 2.40275761844451052340e+00) (185, 2.45327264911644604695e+00) (186, 2.58392593964867289813e+00) (187, 2.63324390748136272222e+00) (188, 1.56737969245529140672e+00) (189, 2.81716685310439185486e+00) (190, 2.87677144222544978192e+00) (191, 2.91528779694127493372e+00) (192, 2.90758769484447876508e+00) (193, 2.94957861307433466536e+00) (194, 3.21962746872746885529e+00) (195, 2.36201959669689065535e+00) (196, 2.34978635995829021610e+00) (197, 2.89030884727115333632e+00) (198, 2.81390914096707955849e+00) (199, 3.12664425357338560119e+00) (200, 3.81491005093761925693e+00) (201, 3.08258949993243769327e+00) (202, 1.09277550166489110239e+01) (203, -2.46973758563402512323e+00) (204, -1.50879514961106209192e+00) (205, 2.04305654598580854753e-01) (206, 1.85885235722923058965e+00) (207, 2.78930400760161312235e+00) (208, 2.99049254494582195107e+00) (209, 2.82522793998611421173e+00) (210, 3.08120459125389789534e+00) (211, 3.17651792558187873183e+00) (212, 3.08531050962607400479e+00) (213, 3.77530683980545589407e+00) (214, 3.99789499318749985690e+00) (215, 3.91220031878502361167e+00) (216, 3.61791066744810718703e+00) (217, 3.58225862453321353129e+00) (218, 3.52423184136489853202e+00) (219, 3.48059482079736426385e+00) (220, 2.82526069664362466938e+00) (221, 2.65634906324822805956e+00) (222, 3.14030558410396176683e+00) (223, 3.15977449882139760362e+00) (224, 3.13021859929142420853e+00) (225, 3.18539491967917864912e+00) (0, 4.05937696509297385461e+00) (1, 4.03278964138647832982e+00) (2, 3.61797156691097843151e+00) (3, 3.70154174569730409772e+00) (4, 3.59556568919113272997e+00) (5, 3.59238566963365668627e+00) (6, 3.70493813823853734846e+00) (7, 3.27642318174537905406e+00) (8, 2.96388261796996577147e+00) (9, 2.54136963426513506903e+00) (10, 1.97178839793661841995e+00) (11, 1.71135704211920258722e+00) (12, 1.60110371835919806927e+00) (13, 1.57628133540534309809e+00) (14, 2.55703883295807621323e+00) (15, 2.13090160896827418568e+00) (16, 3.09629791154543809739e+00) (17, 3.34957452436857483491e+00) (18, 4.84190996237190685036e+00) (19, 3.22871034905822718031e+00) (20, 3.05948332380117538065e+00) (21, 2.91753594249048564535e+00) (22, 3.33632558532582157440e+00) (23, 3.27149623719519455634e+00) (24, 3.47840090062751539079e+00) (25, 3.44528772969677765659e+00) (26, 3.25574134763194589226e+00) (27, 3.21889573808623818962e+00) (28, 3.32901004668607569670e+00) (29, 3.87606036885889393417e+00) (30, 3.63868030775682838041e+00) (31, 2.73838944883558133014e+00) (32, 2.71277533622006039593e+00) (33, 3.46576005218390159612e+00) (34, 3.44092231924323233017e+00) (35, 3.94664592894687960012e+00) (36, 3.71603594584315333194e+00) (37, 3.78058635776052920363e+00) (38, 3.63259578271533056792e+00) (39, 3.45260176948928521057e+00) (40, 3.56252640152059374401e+00) (41, 3.42419786892556876623e+00) (42, 3.60209811379866318148e+00) (43, 4.08915589431013426491e+00) (44, 4.13239116705593989565e+00) (45, 4.10269885315833438000e+00) (46, 4.12261804736110537561e+00) (47, 4.10001837625953857724e+00) (48, 4.48653616800538213027e+00) (49, 3.47767851658584836727e+00) (50, 4.14067263915771288652e+00) (51, 4.26738259204088254961e+00) (52, 3.44694389909052523180e+00) (53, 3.67559731053973637316e+00) (54, 3.67253253064388118787e+00) (55, 3.80056153420989728531e+00) (56, 3.67061294809684035556e+00) (57, 3.48532867006570556967e+00) (58, 3.53060717254127975906e+00) (59, 3.34803727286064667368e+00) (60, 2.18598084313429419367e+00) (61, 3.75093161233282845757e+00) (62, 3.01750472388334323171e+00) (63, 3.16067316355209415590e+00) (64, 2.55676574314674365240e+00) (65, 3.57992593196291020163e+00) (66, 3.84566231865374330567e+00) (67, 5.58482818572303418847e+00) (68, 5.41195401774745921131e+00) (69, 4.02893949983033916595e+00) (70, 3.87360809444548737090e+00) (71, 3.03603397209161762760e+00) (72, 3.18304454393512736843e+00) (73, 3.94676033034301632085e+00) (74, 4.32146760594064271999e+00) (75, 3.80510532707118276363e+00) (76, 3.10412850789364380688e+00) (77, 3.15168770438895196051e+00) (78, 3.22822766851167530788e+00) (79, 3.32427882627203707955e+00) (80, 2.69824994843333554329e+00) (81, 2.98974950150599561027e+00) (82, 3.25599390058543036730e+00) (83, 4.36014117065270045970e+00) (84, 4.40171811106682842052e+00) (85, 3.31124510614996481195e+00) (86, 3.25562506461529022062e+00) (87, 3.07614751352551873964e+00) (88, 3.75886132899869140900e+00) (89, 3.42483789140067917955e+00) (90, 3.50044013971172196520e+00) (91, 3.54746096992574511120e+00) (92, 3.45596582550537068101e+00) (93, 4.22193499370753055899e+00) (94, 4.18655724962889319585e+00) (95, 4.08519951766072697552e+00) (96, 4.46335277493141102667e+00) (97, 5.13034155551103498993e+00) (98, 4.82792986938246304618e+00) (99, 3.50361723255040180547e+00) (100, 4.66370166614791248350e+00) (101, 4.34832493242262518862e+00) (102, 3.60548253194480761152e+00) (103, 3.59239214773981263562e+00) (104, 4.29736268770514673321e+00) (105, 4.00008026465668908855e+00) (106, 3.63523123700126582492e+00) (107, 3.21730152955597059616e+00) (108, 3.42668597236521055294e+00) (109, 3.37605128080870331431e+00) (110, 3.34777323420689754130e+00) (111, 4.30308356203947806051e+00) (112, 4.53457654259418863063e+00) (113, 4.83220822913057990178e+00) (114, 4.37332095081907201717e+00) (115, 4.91397368274459989124e+00) (116, 5.80109294563890554031e+00) (117, 6.45890324490524836420e+00) (118, 5.51548887399887366456e+00) (119, 4.22774875086085533127e+00) (120, 3.86806800662638883281e+00) (121, 3.16172954693847785279e+00) (122, 4.01326214020495530832e+00) (123, 5.02499747019877229803e+00) (124, 6.20217045595850802187e+00) (125, 5.49256789272340295582e+00) (126, 3.85069409551887353871e+00) (127, 2.80664968249615043305e+00) (128, 3.24400150962506161889e+00) (129, 2.37024563904470753073e+00) (130, 3.68387760321402346619e+00) (131, 4.92502950766094915735e+00) (132, 5.09282436282188921695e+00) (133, 6.37158295698337351354e+00) (134, 5.77018270783896003451e+00) (135, 4.17071471216559519490e+00) (136, 3.18242670636376034921e+00) (137, 3.43847418902801083007e+00) (138, 3.45123687562054959344e+00) (139, 3.76451115334837638216e+00) (140, 3.70634233475535124214e+00) (141, 3.48793934791786108818e+00) (142, 3.50301508302474218226e+00) (143, 4.06322448782860679017e+00) (144, 4.11241539328038019363e+00) (145, 4.15730695312473397252e+00) (146, 5.26436168717034735920e+00) (147, 5.57225599961416495631e+00) (148, 5.70201170893447351062e+00) (149, 3.65770813252450910369e+00) (150, 8.17441178304539839417e+00) (151, 5.34679738041513186175e+00) (152, -2.10149499719121379826e+00) (153, 1.48130245748118949400e+00) (154, 2.76894436053376225004e+00) (155, 1.56071046941819524534e+00) (156, 2.11126268757522295161e+00) (157, 2.12602908587694772180e+00) (158, 3.30897092682178328715e+00) (159, 3.07677993950290940006e+00) (160, 3.38371363247072887148e+00) (161, 3.41176783930799176758e+00) (162, 3.83146492037732455671e+00) (163, 4.31819097326828771344e+00) (164, 4.31171697007252507916e+00) (165, 4.30314133067561943591e+00) (166, 4.26972271876169795490e+00) (167, 3.83759161953760541408e+00) (168, 3.61283507826833050203e+00) (169, 3.75059209397343851222e+00) (170, 3.73029759159592844142e+00) (171, 3.65014530705376838426e+00) (172, 3.78306807937189271129e+00) (173, 3.37812525039180844288e+00) (174, 4.07550173625885303608e+00) (175, 7.09473731117464456730e+00) (176, 7.03623450827605712021e+00) (177, 1.73047390904251905397e+01) (178, -5.60098408717367934884e-01) (179, 2.38528255458051186011e+00) (180, 1.25771741042747486894e+00) (181, 2.27398871402155178245e+00) (182, 2.32898628155170950293e+00) (183, 3.69561818331652469638e+00) (184, 3.71343994589528625383e+00) (185, 3.77799461595077579190e+00) (186, 3.84609384673716458991e+00) (187, 3.95057807329179766498e+00) (188, 4.15373256353308750732e+00) (189, 4.57630840973926478199e+00) (190, 4.65781624867566623749e+00) (191, 4.64656912505276853409e+00) (192, 4.66405845620282288877e+00) (193, 4.66482439929377878940e+00) (194, 4.16111633628141408536e+00) (195, 3.98418211184149040349e+00) (196, 3.96813514582970316980e+00) (197, 3.96441913895466502282e+00) (198, 3.87165109585681577187e+00) (199, 4.18226992610632830605e+00) (200, 3.81477284030093199974e+00) (201, 3.40755652782504903087e+00) (202, 1.10246142388382413202e+01) (203, 2.93087302464167898108e+01) (204, 4.88906041037002925265e+00) (205, 1.56829762309159481681e+00) (206, 1.94699346255753136248e+00) (207, 2.45388394060987957701e+00) (208, 4.14156102531292713564e+00) (209, 3.90987901471170351542e+00) (210, 3.90675710723140845460e+00) (211, 4.16497316069764789148e+00) (212, 4.04405240975679713955e+00) (213, 4.72148859476131743662e+00) (214, 5.69521274876591387937e+00) (215, 4.97152492438978921285e+00) (216, 4.94613783096499215475e+00) (217, 5.06886573767940706858e+00) (218, 5.10266301667968225075e+00) (219, 4.66535451394597711072e+00) (220, 4.31265132647308480074e+00) (221, 4.29851787310394417574e+00) (222, 4.35751063894781598407e+00) (223, 4.44890158396515555950e+00) (224, 4.47044276939875917520e+00) (225, 3.97714311098971418090e+00) (0, -8.46127001802278067011e-01) (1, -3.72871380205301472532e-01) (2, 3.23998796166280245146e-01) (3, 4.80803658043755521856e-01) (4, 3.55815962023918186397e-01) (5, -2.16115524344278386870e-01) (6, -2.00221139785929758137e-01) (7, -1.66937535923510516067e-01) (8, -4.37300190605878214001e-01) (9, -2.96290173937028944451e-01) (10, -1.08806259252077791588e-01) (11, -3.48322629953232321132e-01) (12, -2.15954756974354733501e-01) (13, -1.87264196326715703922e-01) (14, -4.30061681187120445347e-02) (15, -8.32558873763573958904e-01) (16, -1.36793892075702139266e+00) (17, -1.54996234225474838198e+00) (18, -1.59029072065330101537e+00) (19, -1.41522623099113370460e-01) (20, -1.18461388353670288298e-01) (21, 2.12360761699013883552e-01) (22, -2.56553135628250661426e-01) (23, -5.02122076522198354520e-02) (24, -3.35513636116860289316e-02) (25, -5.54506486124059991272e-02) (26, -3.87264474873421568613e-02) (27, -2.03402697687030883933e-02) (28, -1.88588291791920548146e-01) (29, 1.56997975584635962587e-01) (30, 1.93971464003540899901e-01) (31, 2.60854167582057649977e-01) (32, 1.82017190100212916670e-01) (33, -2.70059897852611863200e-01) (34, -2.64176890358433946737e-01) (35, 3.33362193361386727197e-02) (36, -9.24143425641612836774e-02) (37, -2.03951293388141760565e-02) (38, -1.30837932329389769470e-02) (39, -3.25456817652804930585e-01) (40, -4.31272770640896085936e-01) (41, -3.49053469504936653145e-01) (42, -4.12416629216663332969e-01) (43, -9.19683569462697581010e-01) (44, -8.46991697255925157783e-01) (45, -8.72819296113805376258e-01) (46, -9.43223131057915220588e-01) (47, -5.31945985122611597617e-01) (48, -2.43064338146884328928e-01) (49, 5.17539206152839298403e-02) (50, -9.50886308345458064473e-01) (51, -4.77264297349592303554e-01) (52, 2.84318214626404996981e-01) (53, -1.17566061864038812201e-01) (54, -7.42746058312168111470e-02) (55, -1.13033871479359879220e-02) (56, 1.30442052083588444500e-01) (57, 2.45729342752917662152e-02) (58, -5.32689138073945245289e-01) (59, -4.38020092829885854258e-01) (60, -5.09781783706859559224e-01) (61, 2.18860932439135930094e-01) (62, 5.61910909186253415548e-01) (63, 2.71611254510926991568e-01) (64, -4.90565912181609276033e-01) (65, -1.10185858671625647176e+00) (66, -1.41474322928846474312e+00) (67, -1.55582129734240592889e+00) (68, -1.52352340147876663679e+00) (69, -7.31303597707715691278e-01) (70, -5.95409846693690347763e-01) (71, -7.93192616711768549997e-01) (72, -4.40654522892159228320e-01) (73, -7.93250676929199705079e-01) (74, -7.42706062163860480929e-01) (75, -8.00462868548385331202e-01) (76, -1.55930050516605439581e-01) (77, -5.49841505025402896289e-02) (78, -3.05459640378823837903e-01) (79, -1.69861892829341776245e-01) (80, -6.06038797150679320325e-01) (81, -5.78876055334051176082e-01) (82, -3.10086808735848651342e-01) (83, -2.53478292646936886889e-01) (84, -3.02013470514455872884e-01) (85, -3.73088738953027132528e-01) (86, -1.40631108323980541508e-01) (87, -1.18360385398046191741e-01) (88, 2.68948917079350702242e-01) (89, 1.62339633202139912993e-02) (90, 1.59974371885840474516e-02) (91, 4.06667416786742758061e-02) (92, 6.77942500331707165184e-02) (93, -5.38156888940883204597e-01) (94, -5.60470081934286157299e-01) (95, -4.70701567897149231179e-01) (96, -3.88198728327474540389e-01) (97, -6.53751958572325375663e-01) (98, -5.84961806150977703389e-01) (99, 7.33655945715023377618e-03) (100, -9.21787095657157995454e-01) (101, -7.21062846506796639723e-01) (102, 3.37173175517853307426e-01) (103, -4.88754412398050702704e-03) (104, -1.82783367018456155417e-01) (105, -3.25339490590511537516e-01) (106, -9.64245019616920967520e-03) (107, -2.74704332776773807456e-01) (108, -3.67779095898933372499e-01) (109, 3.58371965357942995345e-02) (110, 8.35232247337974076373e-01) (111, 4.15704010063676576703e-01) (112, 2.57429366453493513323e-01) (113, 1.76288841625423020609e-01) (114, -8.71468117968672850715e-02) (115, -6.04289681957948077162e-01) (116, -8.97536300404856213220e-01) (117, -2.60295892426731623193e-01) (118, -7.47078427559325963792e-01) (119, -8.96822112995213915898e-02) (120, -9.57068195060682136432e-02) (121, -3.70826279370070843733e-01) (122, -5.23490407481153052771e-01) (123, -1.40069289465218482782e+00) (124, -1.30951567633045118377e+00) (125, -1.41616690391342880950e+00) (126, -5.30252115985696770295e-01) (127, 3.91529197346638657695e-02) (128, -6.17768773983530181115e-02) (129, -1.92590937354432945039e-01) (130, -9.55139215568519550636e-01) (131, -6.69128197185916095968e-01) (132, -6.54463880128690056459e-01) (133, -8.13285468964863311747e-01) (134, -3.10491841602484885954e-01) (135, -6.22863865063177854497e-02) (136, -3.14162611478702780143e-01) (137, -2.86502525907883331957e-01) (138, -1.66162734440641279843e-01) (139, 9.80695610737385981004e-02) (140, 2.67558666204994882731e-02) (141, 1.61212799045422697231e-02) (142, 5.93176199592300862351e-02) (143, -4.14888336750813491172e-01) (144, -5.59410069140744981020e-01) (145, -4.29379244663403714100e-01) (146, -1.24004400813751580746e-01) (147, -2.02732990329386797423e-01) (148, -7.55186591495118908490e-02) (149, 7.73466478413020464000e-02) (150, -1.56679032739220436277e+00) (151, -3.35491671618225240081e+00) (152, 4.36472716826609730134e+00) (153, 1.52143123389002132839e+00) (154, -1.42477538385218016614e+00) (155, -2.72882008158606748083e-01) (156, -1.52548188301935810918e-01) (157, -1.65958445683293820405e-01) (158, -5.82935083995095235099e-02) (159, -1.29408191691586876848e-01) (160, -6.64014346056315041267e-01) (161, -5.94327252570355346606e-01) (162, -1.80151305885442425403e-01) (163, -2.90855805503137443413e-01) (164, -2.70626674519784726769e-01) (165, -2.79668557738073086938e-01) (166, -3.70621520208129162643e-01) (167, -2.92916561423547661125e-01) (168, -3.77907783562115018317e-01) (169, 2.78809119361472956822e-01) (170, 1.19207993495294761743e-01) (171, 1.07354409699147335111e-01) (172, -4.22688500610602854723e-02) (173, -3.29774022072311601139e-01) (174, -1.00798616871053781097e+00) (175, 4.07367553217615696592e-01) (176, -2.26316547257091438272e-01) (177, 6.81313161027884373055e+00) (178, 4.62995369282417268408e+00) (179, 4.62565163673612056439e-01) (180, -3.47544570942741715136e-01) (181, -3.48072688801762050725e-02) (182, -1.20414875995631581729e-01) (183, -4.77177919664320326909e-01) (184, -6.46155444543604851049e-01) (185, -6.75655117380107306246e-01) (186, -7.63235746957961591619e-01) (187, -7.17077552416031327454e-01) (188, -1.04403499707011571118e+00) (189, -5.80596619337576780318e-01) (190, -5.68855179911375574697e-01) (191, -6.71854746621370346737e-01) (192, -5.00446589940309438660e-01) (193, -5.24547869575131997522e-01) (194, -6.06212224459756865436e-01) (195, 2.78999668193968874963e-01) (196, 3.91863236473543319338e-01) (197, 1.59923455158154037559e-01) (198, -2.17076366421876040813e-02) (199, -5.74428507587266934387e-01) (200, 4.57659061985176141008e+00) (201, 4.44129762113580728311e+00) (202, 5.23419177669657909036e+00) (203, -3.06232072896885387792e+00) (204, 1.06333653923398729901e+00) (205, -6.77608859578874844765e-02) (206, -6.40687265200277078492e-02) (207, -3.17818764515856722053e-01) (208, -7.42379664116024073905e-01) (209, -5.20018883707732748611e-01) (210, -5.44812396850836155870e-01) (211, -7.33569621468220134375e-01) (212, -6.04569828139999376759e-01) (213, -1.07405851386960415894e+00) (214, -6.01179189513565970238e-01) (215, -7.60457463096024022242e-01) (216, -8.23547421431968129646e-01) (217, -7.40298186964381987885e-01) (218, -7.78423761553157400606e-01) (219, -7.54887310392249877289e-01) (220, -9.27621207036966322068e-02) (221, -6.18868998088875563179e-02) (222, -3.27594567584087059675e-01) (223, -2.07954209791712196775e-01) (224, -2.14360642932941658501e-01) (225, -7.05842844573799976793e-01) (0, 7.57647561369417910093e-01) (1, 1.98348728663403722772e-01) (2, 6.66932709494469921907e-01) (3, 6.08481624016362632190e-01) (4, 4.29946313219433828845e-01) (5, 5.46873642421954603288e-02) (6, 2.11222108110658585156e-01) (7, 5.94625702138288136922e-01) (8, 1.66585077186944574557e+00) (9, 2.04226679264896171517e+00) (10, 3.51391204352738739658e+00) (11, 2.07436513542131528709e+00) (12, 1.42833136035129615315e+00) (13, 1.25048753018603275855e+00) (14, 4.53213999625962482565e-01) (15, 5.28890995360636106959e-01) (16, 1.28594682530132703446e-01) (17, -9.57174581740885543901e-01) (18, -1.17144250202783045678e-01) (19, 1.02798301180261608678e+00) (20, 7.97001455604781305908e-01) (21, 9.48802847945428684540e-01) (22, 1.37690379801749984701e+00) (23, 1.01351416250291115340e+00) (24, 1.42308989018015830119e+00) (25, 1.54607214986507313093e+00) (26, 1.50288729784329677663e+00) (27, 1.12493729553112964403e+00) (28, 9.23747246968449564619e-01) (29, 3.38263298141069479463e-01) (30, 3.53621201763993475709e-01) (31, 3.93505065070088366763e-01) (32, 3.45239250288891907914e-01) (33, 1.11200490682533925657e+00) (34, 1.26253853826931794480e+00) (35, 4.16307507673151999672e-01) (36, 7.87358977910684654233e-01) (37, 8.31333885928526417075e-01) (38, 8.01508824368849515096e-01) (39, 9.52077596581202501014e-01) (40, 1.02072553408603883263e+00) (41, 1.10330775576994333242e+00) (42, 1.21859052939596179677e+00) (43, 7.37716952715390061890e-01) (44, 2.51587640673293144733e-01) (45, 2.69945526287353188000e-01) (46, 1.49804944962588115764e-01) (47, 5.49317034093433798070e-01) (48, 2.73473944765245391419e-01) (49, 1.12008506539809049585e+00) (50, 3.85598044393530015039e-01) (51, -8.73845476322385461554e-02) (52, 6.39857925454019094147e-01) (53, 2.46403629441379723453e-01) (54, 2.86957372262884258252e-01) (55, 2.23881086650931732107e-01) (56, 4.92314471492180938395e-01) (57, 9.48736519502995978570e-01) (58, 6.89056379339509694759e-01) (59, 8.51181070181875498726e-01) (60, 6.35160310984596465644e-01) (61, 4.47190002699444144607e-01) (62, 7.21210655209036599622e-01) (63, 7.62123378774056114970e-01) (64, 8.08905555107813478699e-01) (65, -3.33585193459566331509e-01) (66, -7.08456774114769038952e-01) (67, -6.70543946610268060127e-01) (68, -1.20426555389340633750e-03) (69, 8.49804524084364909520e-01) (70, 6.65648542520322683558e-01) (71, 1.57776825187074298817e+00) (72, 2.08318688312366395721e+00) (73, 9.87147273843099415380e-01) (74, 6.20609706786706349924e-01) (75, 7.37547918157590687294e-01) (76, 1.73615915839087864292e+00) (77, 1.71646121922260563863e+00) (78, 1.68042764311511994002e+00) (79, 1.10680455762650198359e+00) (80, 8.31077011956793398895e-01) (81, 5.75085559356845466006e-01) (82, 6.85751949498910051695e-01) (83, 1.11157901177505391566e+00) (84, 7.85245745975965303565e-01) (85, 1.80297807700094092631e+00) (86, 1.72851593659630009547e+00) (87, 2.15448867759924933551e+00) (88, 1.26305954512680851387e+00) (89, 1.54818608756047226827e+00) (90, 1.46646389509421237740e+00) (91, 1.54728313211325807508e+00) (92, 1.50760002549750260492e+00) (93, 9.58491183758652609548e-01) (94, 5.34636738478875495062e-01) (95, 5.63256741254128168173e-01) (96, 9.97112909621167275986e-02) (97, -2.63919977374032388440e-01) (98, -1.81759805680906272318e-01) (99, 1.15786293779360582867e+00) (100, -2.38619639936205538144e-02) (101, -2.81365639976358994367e-01) (102, 6.44808673409028920709e-01) (103, 3.59644580334847363545e-01) (104, 1.68493777112023596088e-01) (105, 2.73860676855366913518e-01) (106, 3.48560848760291197568e-01) (107, 8.95266592095548818797e-01) (108, 1.19728903967239097561e+00) (109, 2.43292682773582447098e+00) (110, 3.91288895100125477811e+00) (111, 1.84726414856313736479e+00) (112, 1.68104991294914807298e+00) (113, 1.70496872093521023572e+00) (114, 1.37594884002350714702e+00) (115, -9.48759365622833528153e-02) (116, -5.39293964132085634766e-01) (117, -9.38519653570838552348e-01) (118, 3.62198487812509239969e-01) (119, 1.65533940090986408933e+00) (120, 1.89134358983385353348e+00) (121, 1.73742760064107293339e+00) (122, 1.38364065644115741271e+00) (123, 2.59980361224309175494e-01) (124, -1.02187749314648979038e+00) (125, -5.37844532026605648412e-01) (126, 9.50577232360329649197e-01) (127, 1.94269691333394334265e+00) (128, 1.67924847271651933589e+00) (129, 1.63719935120713766530e+00) (130, -2.55668176914630784768e-01) (131, -1.59660166228344624351e+00) (132, -7.68880054794091161163e-01) (133, -9.68235742173436109148e-01) (134, -7.45024314735550086120e-01) (135, 1.00996198902996980884e+00) (136, 1.63329934575209123615e+00) (137, 1.65037603879075445157e+00) (138, 2.02540117289717347404e+00) (139, 1.55074538998612632135e+00) (140, 1.38227036982897888429e+00) (141, 1.49076031569365619056e+00) (142, 1.52789480705109337322e+00) (143, 5.00289352617149463143e-01) (144, 3.57572696640408416169e-01) (145, 2.83615859500126354931e-01) (146, -8.25459684087266443164e-01) (147, -1.56316225658067264881e+00) (148, -1.54425707141765111707e+00) (149, 1.25490076725232002630e+00) (150, -1.19642139398402802541e+00) (151, 1.51888170743079170544e-01) (152, 9.68279018151369541556e+00) (153, 5.70337579842152120335e+00) (154, 1.13566403743594612763e+00) (155, 2.66005002208673824171e+00) (156, 1.76812155514935720468e+00) (157, 1.34673455115594076226e+00) (158, 9.66406321189566930308e-01) (159, 1.04969251014708908620e+00) (160, 1.15258471716146138064e+00) (161, 7.12514798284305861387e-01) (162, 4.58179641972011469919e-02) (163, 6.30556467031647693844e-02) (164, 1.62657478596386906311e-01) (165, 1.70970620192704009233e-01) (166, 1.07373642777609593080e-02) (167, 9.41733692621399276490e-02) (168, 3.95303654000703441618e-01) (169, 4.91228374001924705805e-01) (170, 5.74013034162450974662e-01) (171, 6.90819836177047008619e-01) (172, 6.63026324428733104810e-01) (173, 7.75355311815552505905e-01) (174, 5.42500594719481088468e-01) (175, -6.19381920489847845324e-02) (176, 3.15829600066869886632e-01) (177, -8.10671646274869850402e+00) (178, 7.63548584130894791855e+00) (179, 2.60395809082211959762e+00) (180, 3.16782204545638412796e+00) (181, 1.57400868296862372908e+00) (182, 1.75392684188122172095e+00) (183, 9.14931947182673344088e-01) (184, 5.39326540942205112650e-01) (185, 3.23177557094290857087e-01) (186, 4.57045675817516816597e-01) (187, 4.76076038185147154547e-01) (188, 6.64294143010490389933e-02) (189, -1.87904334906892900303e-01) (190, -1.12536487476185692591e-01) (191, -3.36588444902011729720e-01) (192, -3.15978400374957890673e-01) (193, -3.05901622888864188621e-01) (194, 2.75309530534933122325e-01) (195, 7.64332574186505575575e-01) (196, 6.06927174124888280105e-01) (197, 7.64626036985595614048e-01) (198, 1.04745386115797911586e+00) (199, 1.00111006633098220675e+00) (200, 3.78691234903502360609e+00) (201, 4.23908086751973467443e+00) (202, -1.45825827936580720845e+00) (203, -1.73366368649845377092e+01) (204, 2.14797139732402619927e+00) (205, 3.21698844054801114112e+00) (206, 1.54202011511574554881e+00) (207, 7.83537769705657138886e-01) (208, 1.27540771790118268036e+00) (209, 1.01396210032958244973e+00) (210, 1.04317229599298322285e+00) (211, 6.21959816237229734526e-01) (212, 5.60801910999936703561e-01) (213, 2.87313707921056593619e-01) (214, -1.88874099508231474420e-01) (215, -9.18614083084654808875e-02) (216, -3.99115277942318769089e-01) (217, -2.46142978336710949172e-01) (218, -3.41772558878075172206e-01) (219, -3.00454205612551483728e-01) (220, 1.90315179543066509416e-01) (221, 2.06695437447595914415e-01) (222, 4.64755263801880535990e-01) (223, 2.76567977544137644230e-01) (224, 7.26516665077673651219e-01) (225, 7.62183755558740627656e-01) (0, 9.08042494291693036423e-01) (1, 9.17748414538610446378e-01) (2, 1.23969032248899568849e+00) (3, 1.36839864006909261995e+00) (4, 9.36204686473680380843e-01) (5, 6.60878722932895179554e-01) (6, 5.76078500092410017430e-01) (7, 7.50329909023110364075e-01) (8, 1.56000199543963868898e+00) (9, 1.84653150836547763625e+00) (10, 2.12577090711387395316e+00) (11, 1.38210256000966191792e+00) (12, 9.28094509019487534651e-01) (13, 7.82702533585036164254e-01) (14, 4.75373600410430696694e-01) (15, 7.83999364324250769265e-01) (16, -4.59022926282014881449e-03) (17, -4.43607426741062016440e-01) (18, 1.46919776441394228650e-01) (19, 1.30900253648272424378e+00) (20, 1.56777372227014244466e+00) (21, 1.43175288379214094014e+00) (22, 1.27721008909567523837e+00) (23, 1.25271354007275603770e+00) (24, 1.26135521318581322880e+00) (25, 1.25311985532917646857e+00) (26, 1.26173821739199687464e+00) (27, 1.37251675776484494129e+00) (28, 1.40110584848815000747e+00) (29, 8.91918907161870277989e-01) (30, 1.01619484861589759461e+00) (31, 1.08808004337054020638e+00) (32, 1.08615456002455479378e+00) (33, 1.19611527325891509044e+00) (34, 1.35501867832922040513e+00) (35, 8.93812811124770512095e-01) (36, 8.65230971191515152441e-01) (37, 8.29410563663853128702e-01) (38, 9.06690420521563789080e-01) (39, 1.15569155758061636874e+00) (40, 1.35192695692992237433e+00) (41, 1.41382834968942661114e+00) (42, 1.44609133526695798899e+00) (43, 9.17348327795717843891e-01) (44, 8.04389462263014887178e-01) (45, 9.27918146652605746461e-01) (46, 8.88391141928718597320e-01) (47, 6.74348028816268540986e-01) (48, 6.41885786715988948536e-01) (49, 1.27879668392951639788e+00) (50, 7.02485914529881516621e-01) (51, 7.13907732938048211757e-01) (52, 1.38146149745628421535e+00) (53, 5.50403403757251163952e-01) (54, 3.14498443183842346649e-01) (55, 3.98356637267819557735e-01) (56, 5.71533851086999056257e-01) (57, 9.87314512020731505082e-01) (58, 8.46062807144643658219e-01) (59, 7.61357918957203394505e-01) (60, 8.14185918210402981288e-01) (61, -2.30700159602799104164e-01) (62, 1.40123488657163536297e-01) (63, 1.66857680970436197954e-02) (64, 5.17415769467396646775e-01) (65, -8.62596197309822010357e-02) (66, -1.83471759038575432665e-01) (67, -8.58234806930553206783e-01) (68, -5.17390508964508666345e-01) (69, 7.25373277393913995503e-01) (70, 1.09848108340425487661e+00) (71, 2.01385646269898943572e+00) (72, 1.54473214501508127050e+00) (73, 6.48103982362503772130e-01) (74, 4.31679549182767685611e-01) (75, 5.29813053211364737294e-01) (76, 1.49214139691136993271e+00) (77, 1.57107275453948957988e+00) (78, 1.25971945370356297467e+00) (79, 1.56852012256898754039e+00) (80, 1.13594815201959020712e+00) (81, 1.22112551110589251380e+00) (82, 1.30271496732581937295e+00) (83, 5.00604696080692690430e-01) (84, 3.94609336484636419318e-01) (85, 1.18149492184246573956e+00) (86, 1.21232512954640703207e+00) (87, 1.12858644493307358481e+00) (88, 7.28681835731544103041e-01) (89, 8.27901251733964338442e-01) (90, 9.35998108135415618491e-01) (91, 1.00763453905459310356e+00) (92, 1.32797259319599914029e+00) (93, 6.51132661176347382614e-01) (94, 8.02472959024333465372e-01) (95, 6.86281832618140685831e-01) (96, 5.33055188684226299856e-01) (97, 2.75616127823827383736e-01) (98, 3.30207609038154215053e-01) (99, 1.25465302685315727160e+00) (100, 5.99689822013305007253e-01) (101, 6.00316176847247473525e-01) (102, 6.85027344304199314884e-01) (103, 4.56702153990006187723e-01) (104, 1.81265313990621318441e-01) (105, 2.97675296855092863524e-01) (106, 6.30875956824098693687e-01) (107, 1.06996496337555768719e+00) (108, 1.07363856236716359582e+00) (109, 1.40838949037799476827e+00) (110, 9.77769632952699363493e-01) (111, -1.56516528907981067320e-01) (112, -4.41558453961036101454e-01) (113, -5.48040105891859141707e-01) (114, -3.71186403447409329903e-01) (115, -3.50530213348726527034e-01) (116, -9.85145758906098456542e-01) (117, -1.82194085724893040101e+00) (118, -1.01306574092644918750e+00) (119, 4.26793687509530894619e-01) (120, 7.66528047504332565865e-01) (121, 1.19230118640675497588e+00) (122, 9.19393250718387844422e-01) (123, -1.74500437767210969664e-01) (124, -1.66131832978115734356e+00) (125, -1.23955542076645053307e+00) (126, 8.35620796782845620676e-01) (127, 1.58631411639010044823e+00) (128, 1.32863068827782027093e+00) (129, 1.58169418310972687003e+00) (130, 9.79526051982127055062e-01) (131, -7.65573418435299690721e-01) (132, -6.94464791726222441248e-01) (133, -1.08729354352300933151e+00) (134, -7.51736258688391667526e-01) (135, 7.40321506805418860786e-01) (136, 1.28531986976365231179e+00) (137, 1.14891515827076107215e+00) (138, 1.17830749321984384892e+00) (139, 8.96764362401701653482e-01) (140, 9.62534220726229405862e-01) (141, 8.72295335460084864110e-01) (142, 8.64681262934322014679e-01) (143, 1.71852798747163609816e-01) (144, 3.39274507764214250383e-01) (145, 3.90489730475441387814e-01) (146, -3.65591897303468790770e-02) (147, -4.15930972127347420297e-01) (148, -3.97271738080414604788e-01) (149, 1.34295752415473534924e+00) (150, -2.70764938337220684161e+00) (151, 7.65152782015395072079e+00) (152, 1.45051965012465906568e+01) (153, 6.83380982122573410464e+00) (154, 2.24112066366616469182e+00) (155, 3.48642569345544428572e+00) (156, 3.06847336636264866883e+00) (157, 1.96797026665335961226e+00) (158, 1.43423974457590897025e+00) (159, 1.41953431879127411896e+00) (160, 8.21903334615563530008e-01) (161, 8.49170354805067528758e-01) (162, 4.40065356961860165708e-01) (163, 4.36213902867329472723e-01) (164, 3.35492312646391677156e-01) (165, 4.06777001266261040158e-01) (166, 4.52221862487574732814e-01) (167, 7.10795985217838932613e-01) (168, 1.33119682463377952963e+00) (169, 1.14058470587988525224e+00) (170, 1.21723645787497214421e+00) (171, 1.30054788141323363071e+00) (172, 1.21542128770424073814e+00) (173, 1.53042373265398468085e+00) (174, 8.54350118882084230698e-01) (175, -6.44796504656549585022e-01) (176, 4.83857417821140689540e+00) (177, -6.96418725832976637236e+00) (178, 1.03445434578310369034e+01) (179, 4.47677620959209665585e+00) (180, 3.53748591101482867671e+00) (181, 2.70663478292388992585e+00) (182, 1.62595864454433880475e+00) (183, 7.24934146806631485305e-01) (184, 